<?xml version="1.0"?>
<MethodSetup Method="BDT::BDTG">
  <GeneralInfo>
    <Info name="TMVA Release" value="4.2.1 [262657]"/>
    <Info name="ROOT Release" value="6.30/02 [400898]"/>
    <Info name="Creator" value="gkopp"/>
    <Info name="Date" value="Tue Feb  6 00:24:04 2024"/>
    <Info name="Host" value="Linux buildhw-x86-04.iad2.fedoraproject.org 6.5.10-200.fc38.x86_64 #1 SMP PREEMPT_DYNAMIC Thu Nov 2 19:59:55 UTC 2023 x86_64 x86_64 x86_64 GNU/Linux"/>
    <Info name="Dir" value="/afs/cern.ch/work/g/gkopp/2022_LLP_analysis/Run3-HCAL-LLP-Analysis/TMVAStudies"/>
    <Info name="Training events" value="11568"/>
    <Info name="TrainingTime" value="4.92639184e+00"/>
    <Info name="AnalysisType" value="Classification"/>
  </GeneralInfo>
  <Options>
    <Option name="V" modified="Yes">False</Option>
    <Option name="VerbosityLevel" modified="No">Default</Option>
    <Option name="VarTransform" modified="No">None</Option>
    <Option name="H" modified="Yes">False</Option>
    <Option name="CreateMVAPdfs" modified="No">False</Option>
    <Option name="IgnoreNegWeightsInTraining" modified="No">False</Option>
    <Option name="NTrees" modified="Yes">1000</Option>
    <Option name="MaxDepth" modified="Yes">2</Option>
    <Option name="MinNodeSize" modified="Yes">2.5%</Option>
    <Option name="nCuts" modified="Yes">20</Option>
    <Option name="BoostType" modified="Yes">Grad</Option>
    <Option name="AdaBoostR2Loss" modified="No">quadratic</Option>
    <Option name="UseBaggedBoost" modified="Yes">True</Option>
    <Option name="Shrinkage" modified="Yes">1.000000e-01</Option>
    <Option name="AdaBoostBeta" modified="No">5.000000e-01</Option>
    <Option name="UseRandomisedTrees" modified="No">False</Option>
    <Option name="UseNvars" modified="No">4</Option>
    <Option name="UsePoissonNvars" modified="No">True</Option>
    <Option name="BaggedSampleFraction" modified="Yes">5.000000e-01</Option>
    <Option name="UseYesNoLeaf" modified="No">True</Option>
    <Option name="NegWeightTreatment" modified="No">pray</Option>
    <Option name="Css" modified="No">1.000000e+00</Option>
    <Option name="Cts_sb" modified="No">1.000000e+00</Option>
    <Option name="Ctb_ss" modified="No">1.000000e+00</Option>
    <Option name="Cbb" modified="No">1.000000e+00</Option>
    <Option name="NodePurityLimit" modified="No">5.000000e-01</Option>
    <Option name="SeparationType" modified="No">giniindex</Option>
    <Option name="RegressionLossFunctionBDTG" modified="No">huber</Option>
    <Option name="HuberQuantile" modified="No">7.000000e-01</Option>
    <Option name="DoBoostMonitor" modified="No">False</Option>
    <Option name="UseFisherCuts" modified="No">False</Option>
    <Option name="MinLinCorrForFisher" modified="No">8.000000e-01</Option>
    <Option name="UseExclusiveVars" modified="No">False</Option>
    <Option name="DoPreselection" modified="No">False</Option>
    <Option name="SigToBkgFraction" modified="No">1.000000e+00</Option>
    <Option name="PruneMethod" modified="No">nopruning</Option>
    <Option name="PruneStrength" modified="No">0.000000e+00</Option>
    <Option name="PruningValFraction" modified="No">5.000000e-01</Option>
    <Option name="SkipNormalization" modified="No">False</Option>
    <Option name="nEventsMin" modified="No">0</Option>
    <Option name="UseBaggedGrad" modified="No">False</Option>
    <Option name="GradBaggingFraction" modified="No">5.000000e-01</Option>
    <Option name="UseNTrainEvents" modified="No">0</Option>
    <Option name="NNodesMax" modified="No">0</Option>
  </Options>
  <Variables NVar="15">
    <Variable VarIndex="0" Expression="perJet_Eta" Label="perJet_Eta" Title="perJet_Eta" Unit="" Internal="perJet_Eta" Type="F" Min="-1.25978267e+00" Max="1.25998294e+00"/>
    <Variable VarIndex="1" Expression="perJet_ChargedHadEFrac" Label="perJet_ChargedHadEFrac" Title="perJet_ChargedHadEFrac" Unit="" Internal="perJet_ChargedHadEFrac" Type="F" Min="0.00000000e+00" Max="9.99999940e-01"/>
    <Variable VarIndex="2" Expression="perJet_NeutralHadEFrac" Label="perJet_NeutralHadEFrac" Title="perJet_NeutralHadEFrac" Unit="" Internal="perJet_NeutralHadEFrac" Type="F" Min="0.00000000e+00" Max="1.00000012e+00"/>
    <Variable VarIndex="3" Expression="perJet_MuonEFrac" Label="perJet_MuonEFrac" Title="perJet_MuonEFrac" Unit="" Internal="perJet_MuonEFrac" Type="F" Min="0.00000000e+00" Max="9.97901022e-01"/>
    <Variable VarIndex="4" Expression="perJet_Track0Pt" Label="perJet_Track0Pt" Title="perJet_Track0Pt" Unit="GeV" Internal="perJet_Track0Pt" Type="F" Min="1.02433956e+00" Max="7.25139343e+02"/>
    <Variable VarIndex="5" Expression="perJet_Track0dEta" Label="perJet_Track0dEta" Title="perJet_Track0dEta" Unit="" Internal="perJet_Track0dEta" Type="F" Min="-3.94596338e-01" Max="3.94185126e-01"/>
    <Variable VarIndex="6" Expression="perJet_Track0dPhi" Label="perJet_Track0dPhi" Title="perJet_Track0dPhi" Unit="" Internal="perJet_Track0dPhi" Type="F" Min="-3.98104310e-01" Max="3.99229348e-01"/>
    <Variable VarIndex="7" Expression="perJet_Track1Pt" Label="perJet_Track1Pt" Title="perJet_Track1Pt" Unit="GeV" Internal="perJet_Track1Pt" Type="F" Min="1.00091326e+00" Max="1.49112305e+02"/>
    <Variable VarIndex="8" Expression="perJet_Track1dEta" Label="perJet_Track1dEta" Title="perJet_Track1dEta" Unit="" Internal="perJet_Track1dEta" Type="F" Min="-3.99454862e-01" Max="3.98727208e-01"/>
    <Variable VarIndex="9" Expression="perJet_Track1dPhi" Label="perJet_Track1dPhi" Title="perJet_Track1dPhi" Unit="" Internal="perJet_Track1dPhi" Type="F" Min="-3.96371722e-01" Max="3.97816181e-01"/>
    <Variable VarIndex="10" Expression="perJet_EnergyFrac_Depth1" Label="perJet_EnergyFrac_Depth1" Title="perJet_EnergyFrac_Depth1" Unit="" Internal="perJet_EnergyFrac_Depth1" Type="F" Min="0.00000000e+00" Max="1.00000000e+00"/>
    <Variable VarIndex="11" Expression="perJet_EnergyFrac_Depth2" Label="perJet_EnergyFrac_Depth2" Title="perJet_EnergyFrac_Depth2" Unit="" Internal="perJet_EnergyFrac_Depth2" Type="F" Min="0.00000000e+00" Max="9.55167174e-01"/>
    <Variable VarIndex="12" Expression="perJet_EnergyFrac_Depth3" Label="perJet_EnergyFrac_Depth3" Title="perJet_EnergyFrac_Depth3" Unit="" Internal="perJet_EnergyFrac_Depth3" Type="F" Min="0.00000000e+00" Max="1.00000000e+00"/>
    <Variable VarIndex="13" Expression="perJet_S_phiphi" Label="perJet_S_phiphi" Title="perJet_S_phiphi" Unit="" Internal="perJet_S_phiphi" Type="F" Min="6.69147141e-07" Max="1.16084315e-01"/>
    <Variable VarIndex="14" Expression="perJet_LeadingRechitE" Label="perJet_LeadingRechitE" Title="perJet_LeadingRechtE" Unit="" Internal="perJet_LeadingRechitE" Type="F" Min="3.08177680e-01" Max="2.41603622e+02"/>
  </Variables>
  <Spectators NSpec="0"/>
  <Classes NClass="2">
    <Class Name="Signal" Index="0"/>
    <Class Name="Background" Index="1"/>
  </Classes>
  <Transformations NTransformations="0"/>
  <MVAPdfs/>
  <Weights NTrees="1000" AnalysisType="1">
    <BinaryTree type="DecisionTree" boostWeight="1.0000000000000000e+00" itree="0">
      <Node pos="s" depth="0" NCoef="0" IVar="2" Cut="4.7619053721427917e-01" cType="1" res="4.4545414857566357e-03" rms="4.9998015165328979e-01" purity="5.0445455312728882e-01" nType="0">
        <Node pos="l" depth="1" NCoef="0" IVar="3" Cut="3.3263367414474487e-01" cType="1" res="-4.7636491060256958e-01" rms="1.5190938115119934e-01" purity="2.3635078221559525e-02" nType="0">
          <Node pos="l" depth="2" NCoef="0" IVar="-1" Cut="0.0000000000000000e+00" cType="1" res="-9.8187215626239777e-02" rms="9.4772137701511383e-02" purity="9.0639134868979454e-03" nType="-99"/>
          <Node pos="r" depth="2" NCoef="0" IVar="-1" Cut="0.0000000000000000e+00" cType="1" res="-4.6902656555175781e-02" rms="4.4159203767776489e-01" purity="2.6548674702644348e-01" nType="-99"/>
        </Node>
        <Node pos="r" depth="1" NCoef="0" IVar="2" Cut="6.7742425203323364e-01" cType="1" res="4.7739404439926147e-01" rms="1.4864364266395569e-01" purity="9.7739404439926147e-01" nType="0">
          <Node pos="l" depth="2" NCoef="0" IVar="-1" Cut="0.0000000000000000e+00" cType="1" res="4.4380139559507370e-02" rms="4.4806259870529175e-01" purity="7.2190070152282715e-01" nType="-99"/>
          <Node pos="r" depth="2" NCoef="0" IVar="-1" Cut="0.0000000000000000e+00" cType="1" res="9.8836958408355713e-02" rms="7.6035499572753906e-02" purity="9.9418479204177856e-01" nType="-99"/>
        </Node>
      </Node>
    </BinaryTree>
    <BinaryTree type="DecisionTree" boostWeight="1.0000000000000000e+00" itree="1">
      <Node pos="s" depth="0" NCoef="0" IVar="2" Cut="5.2380955219268799e-01" cType="1" res="5.1388037391006947e-03" rms="4.5421880483627319e-01" purity="5.0563949346542358e-01" nType="0">
        <Node pos="l" depth="1" NCoef="0" IVar="2" Cut="3.4691891074180603e-01" cType="1" res="-4.2514818906784058e-01" rms="1.6164466738700867e-01" purity="2.7947420254349709e-02" nType="0">
          <Node pos="l" depth="2" NCoef="0" IVar="-1" Cut="0.0000000000000000e+00" cType="1" res="-8.8453441858291626e-02" rms="1.1607795208692551e-01" purity="1.4114798046648502e-02" nType="-99"/>
          <Node pos="r" depth="2" NCoef="0" IVar="-1" Cut="0.0000000000000000e+00" cType="1" res="-4.5994039624929428e-02" rms="4.1939339041709900e-01" purity="2.3685789108276367e-01" nType="-99"/>
        </Node>
        <Node pos="r" depth="1" NCoef="0" IVar="10" Cut="8.4469318389892578e-02" cType="1" res="4.3357640504837036e-01" rms="1.3347689807415009e-01" purity="9.8127853870391846e-01" nType="0">
          <Node pos="l" depth="2" NCoef="0" IVar="-1" Cut="0.0000000000000000e+00" cType="1" res="9.0221971273422241e-02" rms="6.9581560790538788e-02" purity="9.9500876665115356e-01" nType="-99"/>
          <Node pos="r" depth="2" NCoef="0" IVar="-1" Cut="0.0000000000000000e+00" cType="1" res="5.4390549659729004e-02" rms="3.8542175292968750e-01" purity="8.1225585937500000e-01" nType="-99"/>
        </Node>
      </Node>
    </BinaryTree>
    <BinaryTree type="DecisionTree" boostWeight="1.0000000000000000e+00" itree="2">
      <Node pos="s" depth="0" NCoef="0" IVar="2" Cut="4.7619053721427917e-01" cType="1" res="-5.0277370028197765e-03" rms="4.1375938057899475e-01" purity="4.9350488185882568e-01" nType="0">
        <Node pos="l" depth="1" NCoef="0" IVar="2" Cut="3.1692731380462646e-01" cType="1" res="-3.8618642091751099e-01" rms="1.4924474060535431e-01" purity="2.3553671315312386e-02" nType="0">
          <Node pos="l" depth="2" NCoef="0" IVar="-1" Cut="0.0000000000000000e+00" cType="1" res="-8.2090787589550018e-02" rms="1.0777877271175385e-01" purity="1.1999379843473434e-02" nType="-99"/>
          <Node pos="r" depth="2" NCoef="0" IVar="-1" Cut="0.0000000000000000e+00" cType="1" res="-4.4850956648588181e-02" rms="4.0157213807106018e-01" purity="2.0638488233089447e-01" nType="-99"/>
        </Node>
        <Node pos="r" depth="1" NCoef="0" IVar="2" Cut="6.7717194557189941e-01" cType="1" res="3.8522094488143921e-01" rms="1.5043433010578156e-01" purity="9.7466361522674561e-01" nType="0">
          <Node pos="l" depth="2" NCoef="0" IVar="-1" Cut="0.0000000000000000e+00" cType="1" res="3.6233689635992050e-02" rms="4.3589952588081360e-01" purity="7.2754627466201782e-01" nType="-99"/>
          <Node pos="r" depth="2" NCoef="0" IVar="-1" Cut="0.0000000000000000e+00" cType="1" res="8.2982696592807770e-02" rms="8.1559538841247559e-02" purity="9.9319100379943848e-01" nType="-99"/>
        </Node>
      </Node>
    </BinaryTree>
    <BinaryTree type="DecisionTree" boostWeight="1.0000000000000000e+00" itree="3">
      <Node pos="s" depth="0" NCoef="0" IVar="2" Cut="5.2380961179733276e-01" cType="1" res="5.3231683559715748e-03" rms="3.7744629383087158e-01" purity="5.0741207599639893e-01" nType="0">
        <Node pos="l" depth="1" NCoef="0" IVar="10" Cut="9.5238097012042999e-02" cType="1" res="-3.4896078705787659e-01" rms="1.5071907639503479e-01" purity="2.4985317140817642e-02" nType="0">
          <Node pos="l" depth="2" NCoef="0" IVar="-1" Cut="0.0000000000000000e+00" cType="1" res="-4.7421105206012726e-02" rms="3.5797467827796936e-01" purity="1.6257467865943909e-01" nType="-99"/>
          <Node pos="r" depth="2" NCoef="0" IVar="-1" Cut="0.0000000000000000e+00" cType="1" res="-7.8153461217880249e-02" rms="8.3919502794742584e-02" purity="7.4724867008626461e-03" nType="-99"/>
        </Node>
        <Node pos="r" depth="1" NCoef="0" IVar="2" Cut="7.2890597581863403e-01" cType="1" res="3.5616058111190796e-01" rms="1.1690703034400940e-01" purity="9.8514574766159058e-01" nType="0">
          <Node pos="l" depth="2" NCoef="0" IVar="-1" Cut="0.0000000000000000e+00" cType="1" res="5.5160932242870331e-02" rms="3.3842435479164124e-01" purity="8.6275720596313477e-01" nType="-99"/>
          <Node pos="r" depth="2" NCoef="0" IVar="-1" Cut="0.0000000000000000e+00" cType="1" res="7.8340955078601837e-02" rms="6.0764342546463013e-02" purity="9.9623912572860718e-01" nType="-99"/>
        </Node>
      </Node>
    </BinaryTree>
    <BinaryTree type="DecisionTree" boostWeight="1.0000000000000000e+00" itree="4">
      <Node pos="s" depth="0" NCoef="0" IVar="2" Cut="5.2380961179733276e-01" cType="1" res="-8.0893939593806863e-04" rms="3.4492614865303040e-01" purity="4.9798360466957092e-01" nType="0">
        <Node pos="l" depth="1" NCoef="0" IVar="3" Cut="1.4096736907958984e-01" cType="1" res="-3.1256407499313354e-01" rms="1.5259368717670441e-01" purity="2.6298690587282181e-02" nType="0">
          <Node pos="l" depth="2" NCoef="0" IVar="-1" Cut="0.0000000000000000e+00" cType="1" res="-7.2873421013355255e-02" rms="1.0289195924997330e-01" purity="1.1935297399759293e-02" nType="-99"/>
          <Node pos="r" depth="2" NCoef="0" IVar="-1" Cut="0.0000000000000000e+00" cType="1" res="-2.9487818479537964e-02" rms="4.0529319643974304e-01" purity="2.2385945916175842e-01" nType="-99"/>
        </Node>
        <Node pos="r" depth="1" NCoef="0" IVar="2" Cut="7.0631480216979980e-01" cType="1" res="3.2084780931472778e-01" rms="1.1815769225358963e-01" purity="9.8464965820312500e-01" nType="0">
          <Node pos="l" depth="2" NCoef="0" IVar="-1" Cut="0.0000000000000000e+00" cType="1" res="4.4584359973669052e-02" rms="3.7434998154640198e-01" purity="8.2765454053878784e-01" nType="-99"/>
          <Node pos="r" depth="2" NCoef="0" IVar="-1" Cut="0.0000000000000000e+00" cType="1" res="7.4139155447483063e-02" rms="5.8954976499080658e-02" purity="9.9646311998367310e-01" nType="-99"/>
        </Node>
      </Node>
    </BinaryTree>
    <BinaryTree type="DecisionTree" boostWeight="1.0000000000000000e+00" itree="5">
      <Node pos="s" depth="0" NCoef="0" IVar="2" Cut="4.2857143282890320e-01" cType="1" res="2.5231076870113611e-03" rms="3.1693971157073975e-01" purity="5.0531804561614990e-01" nType="0">
        <Node pos="l" depth="1" NCoef="0" IVar="3" Cut="1.4096736907958984e-01" cType="1" res="-2.9091337323188782e-01" rms="1.2067044526338577e-01" purity="1.5897590667009354e-02" nType="0">
          <Node pos="l" depth="2" NCoef="0" IVar="-1" Cut="0.0000000000000000e+00" cType="1" res="-7.1238197386264801e-02" rms="5.2344031631946564e-02" purity="2.7504761237651110e-03" nType="-99"/>
          <Node pos="r" depth="2" NCoef="0" IVar="-1" Cut="0.0000000000000000e+00" cType="1" res="-3.2217375934123993e-02" rms="3.9284610748291016e-01" purity="1.9679982960224152e-01" nType="-99"/>
        </Node>
        <Node pos="r" depth="1" NCoef="0" IVar="2" Cut="6.7374050617218018e-01" cType="1" res="2.7930828928947449e-01" rms="1.5374475717544556e-01" purity="9.6696591377258301e-01" nType="0">
          <Node pos="l" depth="2" NCoef="0" IVar="-1" Cut="0.0000000000000000e+00" cType="1" res="1.9179211929440498e-02" rms="4.5136284828186035e-01" purity="6.2079679965972900e-01" nType="-99"/>
          <Node pos="r" depth="2" NCoef="0" IVar="-1" Cut="0.0000000000000000e+00" cType="1" res="6.9607630372047424e-02" rms="8.9096091687679291e-02" purity="9.9182921648025513e-01" nType="-99"/>
        </Node>
      </Node>
    </BinaryTree>
    <BinaryTree type="DecisionTree" boostWeight="1.0000000000000000e+00" itree="6">
      <Node pos="s" depth="0" NCoef="0" IVar="2" Cut="4.7619053721427917e-01" cType="1" res="-3.5386811941862106e-03" rms="2.9274016618728638e-01" purity="4.9351912736892700e-01" nType="0">
        <Node pos="l" depth="1" NCoef="0" IVar="3" Cut="1.3962675631046295e-01" cType="1" res="-2.5725877285003662e-01" rms="1.4075887203216553e-01" purity="2.2135917097330093e-02" nType="0">
          <Node pos="l" depth="2" NCoef="0" IVar="-1" Cut="0.0000000000000000e+00" cType="1" res="-6.6614590585231781e-02" rms="9.7236827015876770e-02" purity="9.9081648513674736e-03" nType="-99"/>
          <Node pos="r" depth="2" NCoef="0" IVar="-1" Cut="0.0000000000000000e+00" cType="1" res="-2.9657931998372078e-02" rms="3.9017608761787415e-01" purity="1.9863221049308777e-01" nType="-99"/>
        </Node>
        <Node pos="r" depth="1" NCoef="0" IVar="2" Cut="6.7717194557189941e-01" cType="1" res="2.5568822026252747e-01" rms="1.4156566560268402e-01" purity="9.7513335943222046e-01" nType="0">
          <Node pos="l" depth="2" NCoef="0" IVar="-1" Cut="0.0000000000000000e+00" cType="1" res="2.0435703918337822e-02" rms="4.4930335879325867e-01" purity="6.9446736574172974e-01" nType="-99"/>
          <Node pos="r" depth="2" NCoef="0" IVar="-1" Cut="0.0000000000000000e+00" cType="1" res="6.7054368555545807e-02" rms="8.1035137176513672e-02" purity="9.9323529005050659e-01" nType="-99"/>
        </Node>
      </Node>
    </BinaryTree>
    <BinaryTree type="DecisionTree" boostWeight="1.0000000000000000e+00" itree="7">
      <Node pos="s" depth="0" NCoef="0" IVar="2" Cut="4.7619053721427917e-01" cType="1" res="-1.3000305043533444e-03" rms="2.6537179946899414e-01" purity="4.9923965334892273e-01" nType="0">
        <Node pos="l" depth="1" NCoef="0" IVar="2" Cut="2.7170988917350769e-01" cType="1" res="-2.4054342508316040e-01" rms="1.0945436358451843e-01" purity="1.3207218609750271e-02" nType="0">
          <Node pos="l" depth="2" NCoef="0" IVar="-1" Cut="0.0000000000000000e+00" cType="1" res="-6.5448604524135590e-02" rms="7.0416510105133057e-02" purity="5.4969522170722485e-03" nType="-99"/>
          <Node pos="r" depth="2" NCoef="0" IVar="-1" Cut="0.0000000000000000e+00" cType="1" res="-4.2815148830413818e-02" rms="3.0377897620201111e-01" purity="1.0707327723503113e-01" nType="-99"/>
        </Node>
        <Node pos="r" depth="1" NCoef="0" IVar="2" Cut="7.5078827142715454e-01" cType="1" res="2.3544456064701080e-01" rms="1.2476436048746109e-01" purity="9.8019564151763916e-01" nType="0">
          <Node pos="l" depth="2" NCoef="0" IVar="-1" Cut="0.0000000000000000e+00" cType="1" res="3.5090465098619461e-02" rms="3.6434388160705566e-01" purity="8.1832474470138550e-01" nType="-99"/>
          <Node pos="r" depth="2" NCoef="0" IVar="-1" Cut="0.0000000000000000e+00" cType="1" res="6.6026903688907623e-02" rms="3.4230180084705353e-02" purity="9.9882227182388306e-01" nType="-99"/>
        </Node>
      </Node>
    </BinaryTree>
    <BinaryTree type="DecisionTree" boostWeight="1.0000000000000000e+00" itree="8">
      <Node pos="s" depth="0" NCoef="0" IVar="2" Cut="5.7142859697341919e-01" cType="1" res="-4.2291041463613510e-03" rms="2.4730087816715240e-01" purity="4.9003747105598450e-01" nType="0">
        <Node pos="l" depth="1" NCoef="0" IVar="3" Cut="2.8060543537139893e-01" cType="1" res="-2.0816029608249664e-01" rms="1.4634893834590912e-01" purity="2.8112584725022316e-02" nType="0">
          <Node pos="l" depth="2" NCoef="0" IVar="-1" Cut="0.0000000000000000e+00" cType="1" res="-6.1814092099666595e-02" rms="1.0355611145496368e-01" purity="1.3378578238189220e-02" nType="-99"/>
          <Node pos="r" depth="2" NCoef="0" IVar="-1" Cut="0.0000000000000000e+00" cType="1" res="-1.1146445758640766e-02" rms="4.0896028280258179e-01" purity="2.6727283000946045e-01" nType="-99"/>
        </Node>
        <Node pos="r" depth="1" NCoef="0" IVar="10" Cut="7.5212880969047546e-02" cType="1" res="2.1557869017124176e-01" rms="1.0416404902935028e-01" purity="9.8792451620101929e-01" nType="0">
          <Node pos="l" depth="2" NCoef="0" IVar="-1" Cut="0.0000000000000000e+00" cType="1" res="6.3682846724987030e-02" rms="5.8569196611642838e-02" purity="9.9639844894409180e-01" nType="-99"/>
          <Node pos="r" depth="2" NCoef="0" IVar="-1" Cut="0.0000000000000000e+00" cType="1" res="3.9119064807891846e-02" rms="2.9088988900184631e-01" purity="8.9738041162490845e-01" nType="-99"/>
        </Node>
      </Node>
    </BinaryTree>
    <BinaryTree type="DecisionTree" boostWeight="1.0000000000000000e+00" itree="9">
      <Node pos="s" depth="0" NCoef="0" IVar="2" Cut="4.2857143282890320e-01" cType="1" res="6.6373068839311600e-03" rms="2.3233434557914734e-01" purity="5.1018583774566650e-01" nType="0">
        <Node pos="l" depth="1" NCoef="0" IVar="2" Cut="2.6496016979217529e-01" cType="1" res="-1.9093376398086548e-01" rms="1.2897169589996338e-01" purity="1.9137347117066383e-02" nType="0">
          <Node pos="l" depth="2" NCoef="0" IVar="-1" Cut="0.0000000000000000e+00" cType="1" res="-6.0448899865150452e-02" rms="9.2181473970413208e-02" purity="9.4064092263579369e-03" nType="-99"/>
          <Node pos="r" depth="2" NCoef="0" IVar="-1" Cut="0.0000000000000000e+00" cType="1" res="-2.1142795681953430e-02" rms="3.4488013386726379e-01" purity="1.5858677029609680e-01" nType="-99"/>
        </Node>
        <Node pos="r" depth="1" NCoef="0" IVar="2" Cut="6.4626282453536987e-01" cType="1" res="1.9230809807777405e-01" rms="1.3386017084121704e-01" purity="9.7165709733963013e-01" nType="0">
          <Node pos="l" depth="2" NCoef="0" IVar="-1" Cut="0.0000000000000000e+00" cType="1" res="1.6608947888016701e-02" rms="4.6263650059700012e-01" purity="5.9907543659210205e-01" nType="-99"/>
          <Node pos="r" depth="2" NCoef="0" IVar="-1" Cut="0.0000000000000000e+00" cType="1" res="6.1437804251909256e-02" rms="6.8133287131786346e-02" purity="9.9511450529098511e-01" nType="-99"/>
        </Node>
      </Node>
    </BinaryTree>
    <BinaryTree type="DecisionTree" boostWeight="1.0000000000000000e+00" itree="10">
      <Node pos="s" depth="0" NCoef="0" IVar="2" Cut="5.2380961179733276e-01" cType="1" res="3.6662907223217189e-04" rms="2.1741539239883423e-01" purity="4.9296748638153076e-01" nType="0">
        <Node pos="l" depth="1" NCoef="0" IVar="10" Cut="9.5238097012042999e-02" cType="1" res="-1.6651062667369843e-01" rms="1.5466317534446716e-01" purity="2.8944374993443489e-02" nType="0">
          <Node pos="l" depth="2" NCoef="0" IVar="-1" Cut="0.0000000000000000e+00" cType="1" res="-1.7855636775493622e-02" rms="3.3879590034484863e-01" purity="1.6578307747840881e-01" nType="-99"/>
          <Node pos="r" depth="2" NCoef="0" IVar="-1" Cut="0.0000000000000000e+00" cType="1" res="-5.8349668979644775e-02" rms="1.0399623215198517e-01" purity="1.1607485823333263e-02" nType="-99"/>
        </Node>
        <Node pos="r" depth="1" NCoef="0" IVar="10" Cut="8.0660030245780945e-02" cType="1" res="1.7797660827636719e-01" rms="1.0457302629947662e-01" purity="9.8683422803878784e-01" nType="0">
          <Node pos="l" depth="2" NCoef="0" IVar="-1" Cut="0.0000000000000000e+00" cType="1" res="6.0847777873277664e-02" rms="5.3572636097669601e-02" purity="9.9729639291763306e-01" nType="-99"/>
          <Node pos="r" depth="2" NCoef="0" IVar="-1" Cut="0.0000000000000000e+00" cType="1" res="3.1190518289804459e-02" rms="3.0077174305915833e-01" purity="8.7694352865219116e-01" nType="-99"/>
        </Node>
      </Node>
    </BinaryTree>
    <BinaryTree type="DecisionTree" boostWeight="1.0000000000000000e+00" itree="11">
      <Node pos="s" depth="0" NCoef="0" IVar="2" Cut="4.2857143282890320e-01" cType="1" res="-4.9326871521770954e-04" rms="2.0018984377384186e-01" purity="5.0088101625442505e-01" nType="0">
        <Node pos="l" depth="1" NCoef="0" IVar="3" Cut="3.2892385125160217e-01" cType="1" res="-1.6280420124530792e-01" rms="1.0596796125173569e-01" purity="1.2940636835992336e-02" nType="0">
          <Node pos="l" depth="2" NCoef="0" IVar="-1" Cut="0.0000000000000000e+00" cType="1" res="-5.9110637754201889e-02" rms="6.0227390378713608e-02" purity="3.8221627473831177e-03" nType="-99"/>
          <Node pos="r" depth="2" NCoef="0" IVar="-1" Cut="0.0000000000000000e+00" cType="1" res="-1.7832489684224129e-02" rms="3.7401196360588074e-01" purity="1.7914961278438568e-01" nType="-99"/>
        </Node>
        <Node pos="r" depth="1" NCoef="0" IVar="7" Cut="3.4223637580871582e+00" cType="1" res="1.5480473637580872e-01" rms="1.3547076284885406e-01" purity="9.6773910522460938e-01" nType="0">
          <Node pos="l" depth="2" NCoef="0" IVar="-1" Cut="0.0000000000000000e+00" cType="1" res="5.8325875550508499e-02" rms="7.9439178109169006e-02" purity="9.9176633358001709e-01" nType="-99"/>
          <Node pos="r" depth="2" NCoef="0" IVar="-1" Cut="0.0000000000000000e+00" cType="1" res="1.3635026291012764e-02" rms="3.7190291285514832e-01" purity="7.0453780889511108e-01" nType="-99"/>
        </Node>
      </Node>
    </BinaryTree>
    <BinaryTree type="DecisionTree" boostWeight="1.0000000000000000e+00" itree="12">
      <Node pos="s" depth="0" NCoef="0" IVar="2" Cut="3.8095238804817200e-01" cType="1" res="3.0151049140840769e-03" rms="1.9355054199695587e-01" purity="5.0612103939056396e-01" nType="0">
        <Node pos="l" depth="1" NCoef="0" IVar="3" Cut="2.8060543537139893e-01" cType="1" res="-1.4361011981964111e-01" rms="1.1528598517179489e-01" purity="1.5291326679289341e-02" nType="0">
          <Node pos="l" depth="2" NCoef="0" IVar="-1" Cut="0.0000000000000000e+00" cType="1" res="-5.7040780782699585e-02" rms="7.3491051793098450e-02" purity="5.5725830607116222e-03" nType="-99"/>
          <Node pos="r" depth="2" NCoef="0" IVar="-1" Cut="0.0000000000000000e+00" cType="1" res="-1.3821610249578953e-02" rms="3.7787723541259766e-01" purity="1.8627451360225677e-01" nType="-99"/>
        </Node>
        <Node pos="r" depth="1" NCoef="0" IVar="10" Cut="1.2723681330680847e-01" cType="1" res="1.3729037344455719e-01" rms="1.4791518449783325e-01" purity="9.5560914278030396e-01" nType="0">
          <Node pos="l" depth="2" NCoef="0" IVar="-1" Cut="0.0000000000000000e+00" cType="1" res="5.5663302540779114e-02" rms="1.1576678603887558e-01" purity="9.7913688421249390e-01" nType="-99"/>
          <Node pos="r" depth="2" NCoef="0" IVar="-1" Cut="0.0000000000000000e+00" cType="1" res="-1.7224131152033806e-02" rms="3.6926376819610596e-01" purity="5.2358132600784302e-01" nType="-99"/>
        </Node>
      </Node>
    </BinaryTree>
    <BinaryTree type="DecisionTree" boostWeight="1.0000000000000000e+00" itree="13">
      <Node pos="s" depth="0" NCoef="0" IVar="2" Cut="4.2857149243354797e-01" cType="1" res="-2.6175044476985931e-03" rms="1.8543381989002228e-01" purity="4.8681950569152832e-01" nType="0">
        <Node pos="l" depth="1" NCoef="0" IVar="11" Cut="8.5233435034751892e-02" cType="1" res="-1.2690271437168121e-01" rms="1.2977074086666107e-01" purity="1.9277153536677361e-02" nType="0">
          <Node pos="l" depth="2" NCoef="0" IVar="-1" Cut="0.0000000000000000e+00" cType="1" res="-1.5654841437935829e-02" rms="2.9893144965171814e-01" purity="1.2004005908966064e-01" nType="-99"/>
          <Node pos="r" depth="2" NCoef="0" IVar="-1" Cut="0.0000000000000000e+00" cType="1" res="-5.4918747395277023e-02" rms="9.3954212963581085e-02" purity="9.2398934066295624e-03" nType="-99"/>
        </Node>
        <Node pos="r" depth="1" NCoef="0" IVar="10" Cut="8.4469318389892578e-02" cType="1" res="1.2527622282505035e-01" rms="1.4208541810512543e-01" purity="9.6793651580810547e-01" nType="0">
          <Node pos="l" depth="2" NCoef="0" IVar="-1" Cut="0.0000000000000000e+00" cType="1" res="5.5101945996284485e-02" rms="9.1835901141166687e-02" purity="9.8829388618469238e-01" nType="-99"/>
          <Node pos="r" depth="2" NCoef="0" IVar="-1" Cut="0.0000000000000000e+00" cType="1" res="9.7920307889580727e-03" rms="3.6629921197891235e-01" purity="7.5427430868148804e-01" nType="-99"/>
        </Node>
      </Node>
    </BinaryTree>
    <BinaryTree type="DecisionTree" boostWeight="1.0000000000000000e+00" itree="14">
      <Node pos="s" depth="0" NCoef="0" IVar="2" Cut="3.8095241785049438e-01" cType="1" res="7.8517250949516892e-04" rms="1.7407590150833130e-01" purity="5.0236380100250244e-01" nType="0">
        <Node pos="l" depth="1" NCoef="0" IVar="10" Cut="9.5238097012042999e-02" cType="1" res="-1.1839681863784790e-01" rms="1.1252832412719727e-01" purity="1.4153666794300079e-02" nType="0">
          <Node pos="l" depth="2" NCoef="0" IVar="-1" Cut="0.0000000000000000e+00" cType="1" res="-2.2622924298048019e-02" rms="2.7660027146339417e-01" purity="9.7826085984706879e-02" nType="-99"/>
          <Node pos="r" depth="2" NCoef="0" IVar="-1" Cut="0.0000000000000000e+00" cType="1" res="-5.5311881005764008e-02" rms="7.3742099106311798e-02" purity="5.2215298637747765e-03" nType="-99"/>
        </Node>
        <Node pos="r" depth="1" NCoef="0" IVar="10" Cut="1.0572914779186249e-01" cType="1" res="1.1192464828491211e-01" rms="1.4544433355331421e-01" purity="9.5762908458709717e-01" nType="0">
          <Node pos="l" depth="2" NCoef="0" IVar="-1" Cut="0.0000000000000000e+00" cType="1" res="5.3463466465473175e-02" rms="1.0758584737777710e-01" purity="9.8227262496948242e-01" nType="-99"/>
          <Node pos="r" depth="2" NCoef="0" IVar="-1" Cut="0.0000000000000000e+00" cType="1" res="-1.7089951783418655e-02" rms="3.8087552785873413e-01" purity="5.6052100658416748e-01" nType="-99"/>
        </Node>
      </Node>
    </BinaryTree>
    <BinaryTree type="DecisionTree" boostWeight="1.0000000000000000e+00" itree="15">
      <Node pos="s" depth="0" NCoef="0" IVar="2" Cut="4.2857143282890320e-01" cType="1" res="-8.4528420120477676e-04" rms="1.6319885849952698e-01" purity="4.9968802928924561e-01" nType="0">
        <Node pos="l" depth="1" NCoef="0" IVar="12" Cut="4.1387654840946198e-02" cType="1" res="-1.0874374210834503e-01" rms="1.1074228584766388e-01" purity="1.4141983352601528e-02" nType="0">
          <Node pos="l" depth="2" NCoef="0" IVar="-1" Cut="0.0000000000000000e+00" cType="1" res="-3.2671649008989334e-02" rms="2.0074431598186493e-01" purity="5.2823968231678009e-02" nType="-99"/>
          <Node pos="r" depth="2" NCoef="0" IVar="-1" Cut="0.0000000000000000e+00" cType="1" res="-5.3853314369916916e-02" rms="8.3974815905094147e-02" purity="7.3834932409226894e-03" nType="-99"/>
        </Node>
        <Node pos="r" depth="1" NCoef="0" IVar="1" Cut="1.9887045025825500e-01" cType="1" res="1.0397852957248688e-01" rms="1.3526286184787750e-01" purity="9.7139799594879150e-01" nType="0">
          <Node pos="l" depth="2" NCoef="0" IVar="-1" Cut="0.0000000000000000e+00" cType="1" res="5.3716532886028290e-02" rms="7.7247127890586853e-02" purity="9.9190801382064819e-01" nType="-99"/>
          <Node pos="r" depth="2" NCoef="0" IVar="-1" Cut="0.0000000000000000e+00" cType="1" res="9.3395769363269210e-04" rms="3.9903557300567627e-01" purity="7.1864408254623413e-01" nType="-99"/>
        </Node>
      </Node>
    </BinaryTree>
    <BinaryTree type="DecisionTree" boostWeight="1.0000000000000000e+00" itree="16">
      <Node pos="s" depth="0" NCoef="0" IVar="2" Cut="5.7142865657806396e-01" cType="1" res="3.5976762883365154e-03" rms="1.4996182918548584e-01" purity="5.1976585388183594e-01" nType="0">
        <Node pos="l" depth="1" NCoef="0" IVar="3" Cut="3.2892385125160217e-01" cType="1" res="-9.7000226378440857e-02" rms="1.3380074501037598e-01" purity="2.9491597786545753e-02" nType="0">
          <Node pos="l" depth="2" NCoef="0" IVar="-1" Cut="0.0000000000000000e+00" cType="1" res="-5.2939653396606445e-02" rms="9.3981936573982239e-02" purity="1.3727376237511635e-02" nType="-99"/>
          <Node pos="r" depth="2" NCoef="0" IVar="-1" Cut="0.0000000000000000e+00" cType="1" res="1.7754463478922844e-02" rms="3.9264249801635742e-01" purity="3.0973029136657715e-01" nType="-99"/>
        </Node>
        <Node pos="r" depth="1" NCoef="0" IVar="2" Cut="7.3587411642074585e-01" cType="1" res="1.0017002373933792e-01" rms="8.8598847389221191e-02" purity="9.9042111635208130e-01" nType="0">
          <Node pos="l" depth="2" NCoef="0" IVar="-1" Cut="0.0000000000000000e+00" cType="1" res="2.1847968921065331e-02" rms="2.9069980978965759e-01" purity="8.8999336957931519e-01" nType="-99"/>
          <Node pos="r" depth="2" NCoef="0" IVar="-1" Cut="0.0000000000000000e+00" cType="1" res="5.5076129734516144e-02" rms="4.0626469999551773e-02" purity="9.9836784601211548e-01" nType="-99"/>
        </Node>
      </Node>
    </BinaryTree>
    <BinaryTree type="DecisionTree" boostWeight="1.0000000000000000e+00" itree="17">
      <Node pos="s" depth="0" NCoef="0" IVar="2" Cut="4.7619053721427917e-01" cType="1" res="4.6123043284751475e-04" rms="1.5380597114562988e-01" purity="5.0042271614074707e-01" nType="0">
        <Node pos="l" depth="1" NCoef="0" IVar="3" Cut="2.8032144904136658e-01" cType="1" res="-8.5924893617630005e-02" rms="1.2691634893417358e-01" purity="1.9525580108165741e-02" nType="0">
          <Node pos="l" depth="2" NCoef="0" IVar="-1" Cut="0.0000000000000000e+00" cType="1" res="-5.1525574177503586e-02" rms="8.6982704699039459e-02" purity="7.9129245132207870e-03" nType="-99"/>
          <Node pos="r" depth="2" NCoef="0" IVar="-1" Cut="0.0000000000000000e+00" cType="1" res="1.2543607503175735e-02" rms="3.9849179983139038e-01" purity="2.3587955534458160e-01" nType="-99"/>
        </Node>
        <Node pos="r" depth="1" NCoef="0" IVar="2" Cut="7.5202143192291260e-01" cType="1" res="8.6082264780998230e-02" rms="1.2810350954532623e-01" purity="9.7706067562103271e-01" nType="0">
          <Node pos="l" depth="2" NCoef="0" IVar="-1" Cut="0.0000000000000000e+00" cType="1" res="1.2015806511044502e-02" rms="3.4754878282546997e-01" purity="8.1965339183807373e-01" nType="-99"/>
          <Node pos="r" depth="2" NCoef="0" IVar="-1" Cut="0.0000000000000000e+00" cType="1" res="5.3944319486618042e-02" rms="4.9032118171453476e-02" purity="9.9764192104339600e-01" nType="-99"/>
        </Node>
      </Node>
    </BinaryTree>
    <BinaryTree type="DecisionTree" boostWeight="1.0000000000000000e+00" itree="18">
      <Node pos="s" depth="0" NCoef="0" IVar="2" Cut="6.6666668653488159e-01" cType="1" res="1.2355152284726501e-04" rms="1.4583338797092438e-01" purity="4.9238851666450500e-01" nType="0">
        <Node pos="l" depth="1" NCoef="0" IVar="10" Cut="4.7619048506021500e-02" cType="1" res="-7.3632322251796722e-02" rms="1.5871888399124146e-01" purity="5.4403640329837799e-02" nType="0">
          <Node pos="l" depth="2" NCoef="0" IVar="-1" Cut="0.0000000000000000e+00" cType="1" res="2.8769444674253464e-02" rms="3.4621018171310425e-01" purity="4.7604018449783325e-01" nType="-99"/>
          <Node pos="r" depth="2" NCoef="0" IVar="-1" Cut="0.0000000000000000e+00" cType="1" res="-4.7404468059539795e-02" rms="1.3097327947616577e-01" purity="2.6242913678288460e-02" nType="-99"/>
        </Node>
        <Node pos="r" depth="1" NCoef="0" IVar="4" Cut="4.6071209907531738e+00" cType="1" res="8.5026346147060394e-02" rms="5.7266216725111008e-02" purity="9.9656713008880615e-01" nType="0">
          <Node pos="l" depth="2" NCoef="0" IVar="-1" Cut="0.0000000000000000e+00" cType="1" res="5.4118156433105469e-02" rms="3.5604018718004227e-02" purity="9.9875158071517944e-01" nType="-99"/>
          <Node pos="r" depth="2" NCoef="0" IVar="-1" Cut="0.0000000000000000e+00" cType="1" res="4.0982995182275772e-02" rms="1.5891192853450775e-01" purity="9.7256875038146973e-01" nType="-99"/>
        </Node>
      </Node>
    </BinaryTree>
    <BinaryTree type="DecisionTree" boostWeight="1.0000000000000000e+00" itree="19">
      <Node pos="s" depth="0" NCoef="0" IVar="2" Cut="6.6666668653488159e-01" cType="1" res="-2.5503258220851421e-03" rms="1.4146818220615387e-01" purity="5.0025951862335205e-01" nType="0">
        <Node pos="l" depth="1" NCoef="0" IVar="10" Cut="4.7619048506021500e-02" cType="1" res="-7.0992141962051392e-02" rms="1.4817859232425690e-01" purity="5.4009802639484406e-02" nType="0">
          <Node pos="l" depth="2" NCoef="0" IVar="-1" Cut="0.0000000000000000e+00" cType="1" res="2.7214942499995232e-02" rms="3.3173400163650513e-01" purity="5.3244137763977051e-01" nType="-99"/>
          <Node pos="r" depth="2" NCoef="0" IVar="-1" Cut="0.0000000000000000e+00" cType="1" res="-4.8209395259618759e-02" rms="1.2215838581323624e-01" purity="2.3678865283727646e-02" nType="-99"/>
        </Node>
        <Node pos="r" depth="1" NCoef="0" IVar="7" Cut="2.7797484397888184e+00" cType="1" res="7.2958402335643768e-02" rms="8.3662316203117371e-02" purity="9.9258643388748169e-01" nType="0">
          <Node pos="l" depth="2" NCoef="0" IVar="-1" Cut="0.0000000000000000e+00" cType="1" res="5.2229255437850952e-02" rms="5.4628562182188034e-02" purity="9.9694633483886719e-01" nType="-99"/>
          <Node pos="r" depth="2" NCoef="0" IVar="-1" Cut="0.0000000000000000e+00" cType="1" res="2.9385991394519806e-02" rms="2.0561724901199341e-01" purity="9.5371192693710327e-01" nType="-99"/>
        </Node>
      </Node>
    </BinaryTree>
    <BinaryTree type="DecisionTree" boostWeight="1.0000000000000000e+00" itree="20">
      <Node pos="s" depth="0" NCoef="0" IVar="2" Cut="4.2857149243354797e-01" cType="1" res="2.3123188875615597e-03" rms="1.3498517870903015e-01" purity="5.0529706478118896e-01" nType="0">
        <Node pos="l" depth="1" NCoef="0" IVar="3" Cut="1.4096736907958984e-01" cType="1" res="-6.5943978726863861e-02" rms="1.1044147610664368e-01" purity="1.4696967788040638e-02" nType="0">
          <Node pos="l" depth="2" NCoef="0" IVar="-1" Cut="0.0000000000000000e+00" cType="1" res="-4.9992986023426056e-02" rms="7.5677841901779175e-02" purity="5.9219780378043652e-03" nType="-99"/>
          <Node pos="r" depth="2" NCoef="0" IVar="-1" Cut="0.0000000000000000e+00" cType="1" res="-1.1142108123749495e-03" rms="3.3443212509155273e-01" purity="1.5556284785270691e-01" nType="-99"/>
        </Node>
        <Node pos="r" depth="1" NCoef="0" IVar="11" Cut="1.3645245134830475e-01" cType="1" res="6.7129671573638916e-02" rms="1.2375662475824356e-01" purity="9.7117930650711060e-01" nType="0">
          <Node pos="l" depth="2" NCoef="0" IVar="-1" Cut="0.0000000000000000e+00" cType="1" res="5.1148794591426849e-02" rms="9.8861090838909149e-02" purity="9.9010270833969116e-01" nType="-99"/>
          <Node pos="r" depth="2" NCoef="0" IVar="-1" Cut="0.0000000000000000e+00" cType="1" res="2.6834471151232719e-02" rms="1.7469190061092377e-01" purity="9.1710436344146729e-01" nType="-99"/>
        </Node>
      </Node>
    </BinaryTree>
    <BinaryTree type="DecisionTree" boostWeight="1.0000000000000000e+00" itree="21">
      <Node pos="s" depth="0" NCoef="0" IVar="10" Cut="9.5238097012042999e-02" cType="1" res="7.1435957215726376e-04" rms="1.4008879661560059e-01" purity="4.9057841300964355e-01" nType="0">
        <Node pos="l" depth="1" NCoef="0" IVar="1" Cut="3.7751325964927673e-01" cType="1" res="5.7527400553226471e-02" rms="1.2831971049308777e-01" purity="9.0073353052139282e-01" nType="0">
          <Node pos="l" depth="2" NCoef="0" IVar="-1" Cut="0.0000000000000000e+00" cType="1" res="5.0448484718799591e-02" rms="1.1562213301658630e-01" purity="9.7563397884368896e-01" nType="-99"/>
          <Node pos="r" depth="2" NCoef="0" IVar="-1" Cut="0.0000000000000000e+00" cType="1" res="-3.2388716936111450e-02" rms="1.9409486651420593e-01" purity="4.8006076365709305e-02" nType="-99"/>
        </Node>
        <Node pos="r" depth="1" NCoef="0" IVar="11" Cut="8.5748270153999329e-02" cType="1" res="-5.8925084769725800e-02" rms="1.2647445499897003e-01" purity="6.0018409043550491e-02" nType="0">
          <Node pos="l" depth="2" NCoef="0" IVar="-1" Cut="0.0000000000000000e+00" cType="1" res="1.4383016154170036e-02" rms="2.3556561768054962e-01" purity="3.8693365454673767e-01" nType="-99"/>
          <Node pos="r" depth="2" NCoef="0" IVar="-1" Cut="0.0000000000000000e+00" cType="1" res="-4.7913447022438049e-02" rms="1.0867224633693695e-01" purity="3.1010687351226807e-02" nType="-99"/>
        </Node>
      </Node>
    </BinaryTree>
    <BinaryTree type="DecisionTree" boostWeight="1.0000000000000000e+00" itree="22">
      <Node pos="s" depth="0" NCoef="0" IVar="2" Cut="2.3809526860713959e-01" cType="1" res="1.6327147604897618e-03" rms="1.3999503850936890e-01" purity="4.9196240305900574e-01" nType="0">
        <Node pos="l" depth="1" NCoef="0" IVar="14" Cut="2.8169204711914062e+01" cType="1" res="-5.9480950236320496e-02" rms="8.3964571356773376e-02" purity="8.7737869471311569e-03" nType="0">
          <Node pos="l" depth="2" NCoef="0" IVar="-1" Cut="0.0000000000000000e+00" cType="1" res="-5.0720855593681335e-02" rms="6.2663249671459198e-02" purity="4.0846024639904499e-03" nType="-99"/>
          <Node pos="r" depth="2" NCoef="0" IVar="-1" Cut="0.0000000000000000e+00" cType="1" res="-3.0447510071098804e-03" rms="2.2928883135318756e-01" purity="8.1921882927417755e-02" nType="-99"/>
        </Node>
        <Node pos="r" depth="1" NCoef="0" IVar="10" Cut="2.2563864290714264e-01" cType="1" res="5.3218606859445572e-02" rms="1.5613171458244324e-01" purity="8.9982074499130249e-01" nType="0">
          <Node pos="l" depth="2" NCoef="0" IVar="-1" Cut="0.0000000000000000e+00" cType="1" res="4.5541454106569290e-02" rms="1.4568974077701569e-01" purity="9.4205087423324585e-01" nType="-99"/>
          <Node pos="r" depth="2" NCoef="0" IVar="-1" Cut="0.0000000000000000e+00" cType="1" res="-4.6580526977777481e-02" rms="2.4665814638137817e-01" purity="1.2532578408718109e-01" nType="-99"/>
        </Node>
      </Node>
    </BinaryTree>
    <BinaryTree type="DecisionTree" boostWeight="1.0000000000000000e+00" itree="23">
      <Node pos="s" depth="0" NCoef="0" IVar="2" Cut="3.3333334326744080e-01" cType="1" res="1.4667999930679798e-03" rms="1.3759419322013855e-01" purity="4.9248191714286804e-01" nType="0">
        <Node pos="l" depth="1" NCoef="0" IVar="3" Cut="2.8511458635330200e-01" cType="1" res="-4.9169491976499557e-02" rms="1.0831968486309052e-01" purity="1.3995650224387646e-02" nType="0">
          <Node pos="l" depth="2" NCoef="0" IVar="-1" Cut="0.0000000000000000e+00" cType="1" res="-4.8144418746232986e-02" rms="7.3754593729972839e-02" purity="5.4811248555779457e-03" nType="-99"/>
          <Node pos="r" depth="2" NCoef="0" IVar="-1" Cut="0.0000000000000000e+00" cType="1" res="3.4167114645242691e-03" rms="3.4325218200683594e-01" purity="1.6232550144195557e-01" nType="-99"/>
        </Node>
        <Node pos="r" depth="1" NCoef="0" IVar="10" Cut="1.5042576193809509e-01" cType="1" res="4.9102947115898132e-02" rms="1.4499418437480927e-01" purity="9.4261837005615234e-01" nType="0">
          <Node pos="l" depth="2" NCoef="0" IVar="-1" Cut="0.0000000000000000e+00" cType="1" res="4.5484982430934906e-02" rms="1.1778602749109268e-01" purity="9.7187691926956177e-01" nType="-99"/>
          <Node pos="r" depth="2" NCoef="0" IVar="-1" Cut="0.0000000000000000e+00" cType="1" res="-2.0625429227948189e-02" rms="3.7214034795761108e-01" purity="4.1652017831802368e-01" nType="-99"/>
        </Node>
      </Node>
    </BinaryTree>
    <BinaryTree type="DecisionTree" boostWeight="1.0000000000000000e+00" itree="24">
      <Node pos="s" depth="0" NCoef="0" IVar="2" Cut="7.1428579092025757e-01" cType="1" res="-6.5751385409384966e-04" rms="1.2894353270530701e-01" purity="4.9817630648612976e-01" nType="0">
        <Node pos="l" depth="1" NCoef="0" IVar="3" Cut="1.4030271768569946e-01" cType="1" res="-4.2143825441598892e-02" rms="1.5794843435287476e-01" purity="7.8376010060310364e-02" nType="0">
          <Node pos="l" depth="2" NCoef="0" IVar="-1" Cut="0.0000000000000000e+00" cType="1" res="-4.3368838727474213e-02" rms="1.3681775331497192e-01" purity="4.6093232929706573e-02" nType="-99"/>
          <Node pos="r" depth="2" NCoef="0" IVar="-1" Cut="0.0000000000000000e+00" cType="1" res="2.1648271009325981e-02" rms="2.8723251819610596e-01" purity="4.2854160070419312e-01" nType="-99"/>
        </Node>
        <Node pos="r" depth="1" NCoef="0" IVar="1" Cut="1.3677416741847992e-01" cType="1" res="4.8705499619245529e-02" rms="4.7335606068372726e-02" purity="9.9768096208572388e-01" nType="0">
          <Node pos="l" depth="2" NCoef="0" IVar="-1" Cut="0.0000000000000000e+00" cType="1" res="5.0079040229320526e-02" rms="4.9409538507461548e-02" purity="9.9744087457656860e-01" nType="-99"/>
          <Node pos="r" depth="2" NCoef="0" IVar="-1" Cut="0.0000000000000000e+00" cType="1" res="5.3211096674203873e-02" rms="1.5616697259247303e-02" purity="1.0000000000000000e+00" nType="-99"/>
        </Node>
      </Node>
    </BinaryTree>
    <BinaryTree type="DecisionTree" boostWeight="1.0000000000000000e+00" itree="25">
      <Node pos="s" depth="0" NCoef="0" IVar="2" Cut="6.6666662693023682e-01" cType="1" res="3.9838752709329128e-03" rms="1.3430456817150116e-01" purity="5.0934851169586182e-01" nType="0">
        <Node pos="l" depth="1" NCoef="0" IVar="3" Cut="1.4255729317665100e-01" cType="1" res="-3.3199913799762726e-02" rms="1.7001520097255707e-01" purity="6.5550774335861206e-02" nType="0">
          <Node pos="l" depth="2" NCoef="0" IVar="-1" Cut="0.0000000000000000e+00" cType="1" res="-3.9791360497474670e-02" rms="1.4023226499557495e-01" purity="3.5827897489070892e-02" nType="-99"/>
          <Node pos="r" depth="2" NCoef="0" IVar="-1" Cut="0.0000000000000000e+00" cType="1" res="3.7043962627649307e-02" rms="3.4684151411056519e-01" purity="4.1389521956443787e-01" nType="-99"/>
        </Node>
        <Node pos="r" depth="1" NCoef="0" IVar="12" Cut="7.3103696107864380e-01" cType="1" res="4.4842448085546494e-02" rms="5.3921841084957123e-02" purity="9.9700564146041870e-01" nType="0">
          <Node pos="l" depth="2" NCoef="0" IVar="-1" Cut="0.0000000000000000e+00" cType="1" res="5.0507634878158569e-02" rms="4.4523887336254120e-02" purity="9.9793958663940430e-01" nType="-99"/>
          <Node pos="r" depth="2" NCoef="0" IVar="-1" Cut="0.0000000000000000e+00" cType="1" res="3.5522114485502243e-02" rms="1.1859290301799774e-01" purity="9.8551863431930542e-01" nType="-99"/>
        </Node>
      </Node>
    </BinaryTree>
    <BinaryTree type="DecisionTree" boostWeight="1.0000000000000000e+00" itree="26">
      <Node pos="s" depth="0" NCoef="0" IVar="2" Cut="2.8571429848670959e-01" cType="1" res="1.9228641176596284e-03" rms="1.2105485051870346e-01" purity="5.0753474235534668e-01" nType="0">
        <Node pos="l" depth="1" NCoef="0" IVar="11" Cut="8.5233435034751892e-02" cType="1" res="-3.9979118853807449e-02" rms="9.5513164997100830e-02" purity="1.1804098263382912e-02" nType="0">
          <Node pos="l" depth="2" NCoef="0" IVar="-1" Cut="0.0000000000000000e+00" cType="1" res="7.1149431169033051e-03" rms="2.4848814308643341e-01" purity="9.9300287663936615e-02" nType="-99"/>
          <Node pos="r" depth="2" NCoef="0" IVar="-1" Cut="0.0000000000000000e+00" cType="1" res="-4.8631530255079269e-02" rms="6.5071880817413330e-02" purity="4.0871081873774529e-03" nType="-99"/>
        </Node>
        <Node pos="r" depth="1" NCoef="0" IVar="12" Cut="4.5689810067415237e-02" cType="1" res="3.7920370697975159e-02" rms="1.2884932756423950e-01" purity="9.3341112136840820e-01" nType="0">
          <Node pos="l" depth="2" NCoef="0" IVar="-1" Cut="0.0000000000000000e+00" cType="1" res="5.9027057141065598e-02" rms="9.2244215309619904e-02" purity="9.8739743232727051e-01" nType="-99"/>
          <Node pos="r" depth="2" NCoef="0" IVar="-1" Cut="0.0000000000000000e+00" cType="1" res="2.4601949378848076e-02" rms="1.4454138278961182e-01" purity="9.0237182378768921e-01" nType="-99"/>
        </Node>
      </Node>
    </BinaryTree>
    <BinaryTree type="DecisionTree" boostWeight="1.0000000000000000e+00" itree="27">
      <Node pos="s" depth="0" NCoef="0" IVar="2" Cut="7.1428573131561279e-01" cType="1" res="3.1284225406125188e-04" rms="1.2099698930978775e-01" purity="5.1451045274734497e-01" nType="0">
        <Node pos="l" depth="1" NCoef="0" IVar="12" Cut="4.1713923215866089e-02" cType="1" res="-3.3008858561515808e-02" rms="1.5446972846984863e-01" purity="7.7509164810180664e-02" nType="0">
          <Node pos="l" depth="2" NCoef="0" IVar="-1" Cut="0.0000000000000000e+00" cType="1" res="1.9066017121076584e-02" rms="2.1290233731269836e-01" purity="2.0055252313613892e-01" nType="-99"/>
          <Node pos="r" depth="2" NCoef="0" IVar="-1" Cut="0.0000000000000000e+00" cType="1" res="-4.1848372668027878e-02" rms="1.3739401102066040e-01" purity="5.3326878696680069e-02" nType="-99"/>
        </Node>
        <Node pos="r" depth="1" NCoef="0" IVar="2" Cut="7.9748058319091797e-01" cType="1" res="3.7181522697210312e-02" rms="4.3015263974666595e-02" purity="9.9802899360656738e-01" nType="0">
          <Node pos="l" depth="2" NCoef="0" IVar="-1" Cut="0.0000000000000000e+00" cType="1" res="3.1591266393661499e-02" rms="1.3331376016139984e-01" purity="9.8091518878936768e-01" nType="-99"/>
          <Node pos="r" depth="2" NCoef="0" IVar="-1" Cut="0.0000000000000000e+00" cType="1" res="5.1629621535539627e-02" rms="1.7197975888848305e-02" purity="9.9969106912612915e-01" nType="-99"/>
        </Node>
      </Node>
    </BinaryTree>
    <BinaryTree type="DecisionTree" boostWeight="1.0000000000000000e+00" itree="28">
      <Node pos="s" depth="0" NCoef="0" IVar="10" Cut="9.5238097012042999e-02" cType="1" res="1.3863636413589120e-03" rms="1.2832385301589966e-01" purity="5.0560003519058228e-01" nType="0">
        <Node pos="l" depth="1" NCoef="0" IVar="1" Cut="5.1302063465118408e-01" cType="1" res="3.3394146710634232e-02" rms="1.2738408148288727e-01" purity="8.9581483602523804e-01" nType="0">
          <Node pos="l" depth="2" NCoef="0" IVar="-1" Cut="0.0000000000000000e+00" cType="1" res="4.4260766357183456e-02" rms="1.2357012927532196e-01" purity="9.5889610052108765e-01" nType="-99"/>
          <Node pos="r" depth="2" NCoef="0" IVar="-1" Cut="0.0000000000000000e+00" cType="1" res="-2.7812356129288673e-02" rms="1.5839900076389313e-01" purity="2.8137659654021263e-02" nType="-99"/>
        </Node>
        <Node pos="r" depth="1" NCoef="0" IVar="12" Cut="3.9609085768461227e-02" cType="1" res="-3.5054940730333328e-02" rms="1.1935754865407944e-01" purity="6.1334982514381409e-02" nType="0">
          <Node pos="l" depth="2" NCoef="0" IVar="-1" Cut="0.0000000000000000e+00" cType="1" res="5.4957689717411995e-03" rms="1.6230528056621552e-01" purity="2.0294816792011261e-01" nType="-99"/>
          <Node pos="r" depth="2" NCoef="0" IVar="-1" Cut="0.0000000000000000e+00" cType="1" res="-4.8390872776508331e-02" rms="1.0667868703603745e-01" purity="3.2638832926750183e-02" nType="-99"/>
        </Node>
      </Node>
    </BinaryTree>
    <BinaryTree type="DecisionTree" boostWeight="1.0000000000000000e+00" itree="29">
      <Node pos="s" depth="0" NCoef="0" IVar="2" Cut="3.8095241785049438e-01" cType="1" res="4.4978410005569458e-04" rms="1.1858782172203064e-01" purity="4.9526929855346680e-01" nType="0">
        <Node pos="l" depth="1" NCoef="0" IVar="3" Cut="1.4096736907958984e-01" cType="1" res="-2.9977392405271530e-02" rms="1.0109527409076691e-01" purity="1.4018143527209759e-02" nType="0">
          <Node pos="l" depth="2" NCoef="0" IVar="-1" Cut="0.0000000000000000e+00" cType="1" res="-4.8373285681009293e-02" rms="5.1469586789608002e-02" purity="2.6732266414910555e-03" nType="-99"/>
          <Node pos="r" depth="2" NCoef="0" IVar="-1" Cut="0.0000000000000000e+00" cType="1" res="1.6395954415202141e-02" rms="3.4165129065513611e-01" purity="1.8108430504798889e-01" nType="-99"/>
        </Node>
        <Node pos="r" depth="1" NCoef="0" IVar="12" Cut="8.8156744837760925e-02" cType="1" res="2.9766051098704338e-02" rms="1.2654694914817810e-01" purity="9.5894980430603027e-01" nType="0">
          <Node pos="l" depth="2" NCoef="0" IVar="-1" Cut="0.0000000000000000e+00" cType="1" res="5.4570406675338745e-02" rms="7.7165357768535614e-02" purity="9.8799967765808105e-01" nType="-99"/>
          <Node pos="r" depth="2" NCoef="0" IVar="-1" Cut="0.0000000000000000e+00" cType="1" res="2.2262739017605782e-02" rms="1.5220618247985840e-01" purity="9.3771272897720337e-01" nType="-99"/>
        </Node>
      </Node>
    </BinaryTree>
    <BinaryTree type="DecisionTree" boostWeight="1.0000000000000000e+00" itree="30">
      <Node pos="s" depth="0" NCoef="0" IVar="2" Cut="1.9047619402408600e-01" cType="1" res="-2.3969488684087992e-03" rms="1.1134328693151474e-01" purity="4.9687993526458740e-01" nType="0">
        <Node pos="l" depth="1" NCoef="0" IVar="9" Cut="-1.3262607157230377e-01" cType="1" res="-3.4335467964410782e-02" rms="5.5353682488203049e-02" purity="4.6089170500636101e-03" nType="0">
          <Node pos="l" depth="2" NCoef="0" IVar="-1" Cut="0.0000000000000000e+00" cType="1" res="-3.0380319803953171e-03" rms="1.6861239075660706e-01" purity="5.4989315569400787e-02" nType="-99"/>
          <Node pos="r" depth="2" NCoef="0" IVar="-1" Cut="0.0000000000000000e+00" cType="1" res="-5.1869131624698639e-02" rms="3.1191179528832436e-02" purity="6.2170944875106215e-04" nType="-99"/>
        </Node>
        <Node pos="r" depth="1" NCoef="0" IVar="7" Cut="5.5324769020080566e+00" cType="1" res="2.2407291457056999e-02" rms="1.3504938781261444e-01" purity="8.7918967008590698e-01" nType="0">
          <Node pos="l" depth="2" NCoef="0" IVar="-1" Cut="0.0000000000000000e+00" cType="1" res="3.7369012832641602e-02" rms="1.2053774297237396e-01" purity="9.4797539710998535e-01" nType="-99"/>
          <Node pos="r" depth="2" NCoef="0" IVar="-1" Cut="0.0000000000000000e+00" cType="1" res="-2.8034664690494537e-02" rms="2.2542226314544678e-01" purity="1.9958715140819550e-01" nType="-99"/>
        </Node>
      </Node>
    </BinaryTree>
    <BinaryTree type="DecisionTree" boostWeight="1.0000000000000000e+00" itree="31">
      <Node pos="s" depth="0" NCoef="0" IVar="2" Cut="6.6407728195190430e-01" cType="1" res="-2.3631735530216247e-05" rms="1.2111338973045349e-01" purity="5.0203597545623779e-01" nType="0">
        <Node pos="l" depth="1" NCoef="0" IVar="11" Cut="4.4891886413097382e-02" cType="1" res="-2.4024438112974167e-02" rms="1.5383809804916382e-01" purity="5.4430693387985229e-02" nType="0">
          <Node pos="l" depth="2" NCoef="0" IVar="-1" Cut="0.0000000000000000e+00" cType="1" res="4.1881497949361801e-02" rms="2.7159118652343750e-01" purity="3.5658913850784302e-01" nType="-99"/>
          <Node pos="r" depth="2" NCoef="0" IVar="-1" Cut="0.0000000000000000e+00" cType="1" res="-3.5604875534772873e-02" rms="1.4057956635951996e-01" purity="3.4782107919454575e-02" nType="-99"/>
        </Node>
        <Node pos="r" depth="1" NCoef="0" IVar="11" Cut="8.6638651788234711e-02" cType="1" res="2.6485996320843697e-02" rms="5.8233950287103653e-02" purity="9.9642986059188843e-01" nType="0">
          <Node pos="l" depth="2" NCoef="0" IVar="-1" Cut="0.0000000000000000e+00" cType="1" res="4.4487528502941132e-02" rms="6.1559747904539108e-02" purity="9.9608045816421509e-01" nType="-99"/>
          <Node pos="r" depth="2" NCoef="0" IVar="-1" Cut="0.0000000000000000e+00" cType="1" res="4.7844830900430679e-02" rms="4.9269568175077438e-02" purity="9.9724763631820679e-01" nType="-99"/>
        </Node>
      </Node>
    </BinaryTree>
    <BinaryTree type="DecisionTree" boostWeight="1.0000000000000000e+00" itree="32">
      <Node pos="s" depth="0" NCoef="0" IVar="2" Cut="7.6190477609634399e-01" cType="1" res="-2.5685629807412624e-03" rms="1.1593234539031982e-01" purity="5.0829046964645386e-01" nType="0">
        <Node pos="l" depth="1" NCoef="0" IVar="12" Cut="4.3360181152820587e-02" cType="1" res="-2.5291046127676964e-02" rms="1.4980494976043701e-01" purity="1.0249244421720505e-01" nType="0">
          <Node pos="l" depth="2" NCoef="0" IVar="-1" Cut="0.0000000000000000e+00" cType="1" res="1.9943829625844955e-02" rms="1.9971741735935211e-01" purity="2.8796780109405518e-01" nType="-99"/>
          <Node pos="r" depth="2" NCoef="0" IVar="-1" Cut="0.0000000000000000e+00" cType="1" res="-4.4134352356195450e-02" rms="1.3416035473346710e-01" purity="6.1259135603904724e-02" nType="-99"/>
        </Node>
        <Node pos="r" depth="1" NCoef="0" IVar="11" Cut="3.0691310763359070e-01" cType="1" res="2.4900276213884354e-02" rms="3.4353911876678467e-02" purity="9.9885314702987671e-01" nType="0">
          <Node pos="l" depth="2" NCoef="0" IVar="-1" Cut="0.0000000000000000e+00" cType="1" res="4.8432849347591400e-02" rms="3.8031890988349915e-02" purity="9.9856775999069214e-01" nType="-99"/>
          <Node pos="r" depth="2" NCoef="0" IVar="-1" Cut="0.0000000000000000e+00" cType="1" res="5.1666166633367538e-02" rms="9.2494161799550056e-03" purity="1.0000000000000000e+00" nType="-99"/>
        </Node>
      </Node>
    </BinaryTree>
    <BinaryTree type="DecisionTree" boostWeight="1.0000000000000000e+00" itree="33">
      <Node pos="s" depth="0" NCoef="0" IVar="2" Cut="1.9047620892524719e-01" cType="1" res="-1.5091162640601397e-03" rms="1.1195337027311325e-01" purity="5.0507938861846924e-01" nType="0">
        <Node pos="l" depth="1" NCoef="0" IVar="3" Cut="1.4096736907958984e-01" cType="1" res="-2.7872413396835327e-02" rms="5.1941469311714172e-02" purity="4.1237887926399708e-03" nType="0">
          <Node pos="l" depth="2" NCoef="0" IVar="-1" Cut="0.0000000000000000e+00" cType="1" res="-5.1437444984912872e-02" rms="6.7675253376364708e-03" purity="0.0000000000000000e+00" nType="-99"/>
          <Node pos="r" depth="2" NCoef="0" IVar="-1" Cut="0.0000000000000000e+00" cType="1" res="-2.6485964655876160e-02" rms="2.0281237363815308e-01" purity="6.4898490905761719e-02" nType="-99"/>
        </Node>
        <Node pos="r" depth="1" NCoef="0" IVar="13" Cut="2.0032042637467384e-02" cType="1" res="1.8446618691086769e-02" rms="1.3803741335868835e-01" purity="8.8427841663360596e-01" nType="0">
          <Node pos="l" depth="2" NCoef="0" IVar="-1" Cut="0.0000000000000000e+00" cType="1" res="2.1010629832744598e-02" rms="1.1802032589912415e-01" purity="9.0732169151306152e-01" nType="-99"/>
          <Node pos="r" depth="2" NCoef="0" IVar="-1" Cut="0.0000000000000000e+00" cType="1" res="9.3988336622714996e-02" rms="3.4415575861930847e-01" purity="3.9024698734283447e-01" nType="-99"/>
        </Node>
      </Node>
    </BinaryTree>
    <BinaryTree type="DecisionTree" boostWeight="1.0000000000000000e+00" itree="34">
      <Node pos="s" depth="0" NCoef="0" IVar="10" Cut="9.5238097012042999e-02" cType="1" res="2.5558313354849815e-03" rms="1.2173118442296982e-01" purity="5.0813335180282593e-01" nType="0">
        <Node pos="l" depth="1" NCoef="0" IVar="13" Cut="1.4764805324375629e-02" cType="1" res="2.2915445268154144e-02" rms="1.2088456004858017e-01" purity="8.9891707897186279e-01" nType="0">
          <Node pos="l" depth="2" NCoef="0" IVar="-1" Cut="0.0000000000000000e+00" cType="1" res="3.4350942820310593e-02" rms="1.0798954963684082e-01" purity="9.2334467172622681e-01" nType="-99"/>
          <Node pos="r" depth="2" NCoef="0" IVar="-1" Cut="0.0000000000000000e+00" cType="1" res="6.3198313117027283e-02" rms="2.5422656536102295e-01" purity="4.6258652210235596e-01" nType="-99"/>
        </Node>
        <Node pos="r" depth="1" NCoef="0" IVar="12" Cut="3.8248322904109955e-02" cType="1" res="-2.0375257357954979e-02" rms="1.1856274306774139e-01" purity="6.7992627620697021e-02" nType="0">
          <Node pos="l" depth="2" NCoef="0" IVar="-1" Cut="0.0000000000000000e+00" cType="1" res="1.4250872656702995e-02" rms="1.8997040390968323e-01" purity="1.9221410155296326e-01" nType="-99"/>
          <Node pos="r" depth="2" NCoef="0" IVar="-1" Cut="0.0000000000000000e+00" cType="1" res="-4.2723000049591064e-02" rms="9.7991190850734711e-02" purity="4.4281091541051865e-02" nType="-99"/>
        </Node>
      </Node>
    </BinaryTree>
    <BinaryTree type="DecisionTree" boostWeight="1.0000000000000000e+00" itree="35">
      <Node pos="s" depth="0" NCoef="0" IVar="10" Cut="2.3809523880481720e-01" cType="1" res="1.9187089055776596e-03" rms="1.2849965691566467e-01" purity="5.0012719631195068e-01" nType="0">
        <Node pos="l" depth="1" NCoef="0" IVar="3" Cut="9.3084506690502167e-02" cType="1" res="1.4808361418545246e-02" rms="1.4166687428951263e-01" purity="7.2027534246444702e-01" nType="0">
          <Node pos="l" depth="2" NCoef="0" IVar="-1" Cut="0.0000000000000000e+00" cType="1" res="1.5807807445526123e-02" rms="1.2806320190429688e-01" purity="7.2062015533447266e-01" nType="-99"/>
          <Node pos="r" depth="2" NCoef="0" IVar="-1" Cut="0.0000000000000000e+00" cType="1" res="6.4764730632305145e-02" rms="2.7220186591148376e-01" purity="7.1416270732879639e-01" nType="-99"/>
        </Node>
        <Node pos="r" depth="1" NCoef="0" IVar="1" Cut="4.2234322428703308e-01" cType="1" res="-2.6428295299410820e-02" rms="8.6717315018177032e-02" purity="1.5976136550307274e-02" nType="0">
          <Node pos="l" depth="2" NCoef="0" IVar="-1" Cut="0.0000000000000000e+00" cType="1" res="-4.5694187283515930e-02" rms="1.1964081227779388e-01" purity="3.4195650368928909e-02" nType="-99"/>
          <Node pos="r" depth="2" NCoef="0" IVar="-1" Cut="0.0000000000000000e+00" cType="1" res="-4.3294765055179596e-02" rms="5.3953394293785095e-02" purity="3.9749424904584885e-03" nType="-99"/>
        </Node>
      </Node>
    </BinaryTree>
    <BinaryTree type="DecisionTree" boostWeight="1.0000000000000000e+00" itree="36">
      <Node pos="s" depth="0" NCoef="0" IVar="2" Cut="7.6190477609634399e-01" cType="1" res="-1.4170223148539662e-03" rms="1.1333704739809036e-01" purity="5.1801776885986328e-01" nType="0">
        <Node pos="l" depth="1" NCoef="0" IVar="3" Cut="3.2892385125160217e-01" cType="1" res="-1.9235402345657349e-02" rms="1.4925386011600494e-01" purity="1.1394186317920685e-01" nType="0">
          <Node pos="l" depth="2" NCoef="0" IVar="-1" Cut="0.0000000000000000e+00" cType="1" res="-3.8222782313823700e-02" rms="1.3310316205024719e-01" purity="9.9212750792503357e-02" nType="-99"/>
          <Node pos="r" depth="2" NCoef="0" IVar="-1" Cut="0.0000000000000000e+00" cType="1" res="3.9355024695396423e-02" rms="3.0001437664031982e-01" purity="3.7231478095054626e-01" nType="-99"/>
        </Node>
        <Node pos="r" depth="1" NCoef="0" IVar="12" Cut="1.7552050948143005e-01" cType="1" res="1.9798120483756065e-02" rms="2.8068138286471367e-02" purity="9.9912375211715698e-01" nType="0">
          <Node pos="l" depth="2" NCoef="0" IVar="-1" Cut="0.0000000000000000e+00" cType="1" res="4.7935049980878830e-02" rms="3.2800994813442230e-02" purity="9.9879109859466553e-01" nType="-99"/>
          <Node pos="r" depth="2" NCoef="0" IVar="-1" Cut="0.0000000000000000e+00" cType="1" res="4.9879584461450577e-02" rms="2.2670868784189224e-02" purity="9.9943482875823975e-01" nType="-99"/>
        </Node>
      </Node>
    </BinaryTree>
    <BinaryTree type="DecisionTree" boostWeight="1.0000000000000000e+00" itree="37">
      <Node pos="s" depth="0" NCoef="0" IVar="10" Cut="1.4285714924335480e-01" cType="1" res="1.9361508311703801e-03" rms="1.2071625888347626e-01" purity="5.0079911947250366e-01" nType="0">
        <Node pos="l" depth="1" NCoef="0" IVar="3" Cut="4.7519095242023468e-02" cType="1" res="1.7990464344620705e-02" rms="1.3140033185482025e-01" purity="8.3968263864517212e-01" nType="0">
          <Node pos="l" depth="2" NCoef="0" IVar="-1" Cut="0.0000000000000000e+00" cType="1" res="2.6577709242701530e-02" rms="1.1495502293109894e-01" purity="8.4410554170608521e-01" nType="-99"/>
          <Node pos="r" depth="2" NCoef="0" IVar="-1" Cut="0.0000000000000000e+00" cType="1" res="5.3672965615987778e-02" rms="2.7957662940025330e-01" purity="7.6695376634597778e-01" nType="-99"/>
        </Node>
        <Node pos="r" depth="1" NCoef="0" IVar="1" Cut="2.3566539585590363e-01" cType="1" res="-2.0558444783091545e-02" rms="9.9654771387577057e-02" purity="2.5970550253987312e-02" nType="0">
          <Node pos="l" depth="2" NCoef="0" IVar="-1" Cut="0.0000000000000000e+00" cType="1" res="-4.3292377144098282e-02" rms="1.2384424358606339e-01" purity="6.9949924945831299e-02" nType="-99"/>
          <Node pos="r" depth="2" NCoef="0" IVar="-1" Cut="0.0000000000000000e+00" cType="1" res="-3.1787969172000885e-02" rms="8.9436307549476624e-02" purity="1.1279960162937641e-02" nType="-99"/>
        </Node>
      </Node>
    </BinaryTree>
    <BinaryTree type="DecisionTree" boostWeight="1.0000000000000000e+00" itree="38">
      <Node pos="s" depth="0" NCoef="0" IVar="2" Cut="7.6190477609634399e-01" cType="1" res="-2.5960435159504414e-03" rms="1.0942465811967850e-01" purity="5.0345194339752197e-01" nType="0">
        <Node pos="l" depth="1" NCoef="0" IVar="3" Cut="1.9007638096809387e-01" cType="1" res="-1.8756112083792686e-02" rms="1.4329813420772552e-01" purity="9.4134688377380371e-02" nType="0">
          <Node pos="l" depth="2" NCoef="0" IVar="-1" Cut="0.0000000000000000e+00" cType="1" res="-3.8309346884489059e-02" rms="1.3000446557998657e-01" purity="6.9483928382396698e-02" nType="-99"/>
          <Node pos="r" depth="2" NCoef="0" IVar="-1" Cut="0.0000000000000000e+00" cType="1" res="2.0982116460800171e-02" rms="2.5428745150566101e-01" purity="4.2035251855850220e-01" nType="-99"/>
        </Node>
        <Node pos="r" depth="1" NCoef="0" IVar="12" Cut="6.6666668653488159e-01" cType="1" res="1.6973176971077919e-02" rms="3.0133139342069626e-02" purity="9.9911934137344360e-01" nType="0">
          <Node pos="l" depth="2" NCoef="0" IVar="-1" Cut="0.0000000000000000e+00" cType="1" res="5.1005501300096512e-02" rms="5.8292611502110958e-03" purity="1.0000000000000000e+00" nType="-99"/>
          <Node pos="r" depth="2" NCoef="0" IVar="-1" Cut="0.0000000000000000e+00" cType="1" res="3.2269123941659927e-02" rms="8.1309109926223755e-02" purity="9.9333852529525757e-01" nType="-99"/>
        </Node>
      </Node>
    </BinaryTree>
    <BinaryTree type="DecisionTree" boostWeight="1.0000000000000000e+00" itree="39">
      <Node pos="s" depth="0" NCoef="0" IVar="2" Cut="7.6190477609634399e-01" cType="1" res="-2.3121712729334831e-03" rms="1.1844389140605927e-01" purity="4.9176785349845886e-01" nType="0">
        <Node pos="l" depth="1" NCoef="0" IVar="6" Cut="7.8945986926555634e-02" cType="1" res="-1.4824614860117435e-02" rms="1.5055194497108459e-01" purity="1.0846833884716034e-01" nType="0">
          <Node pos="l" depth="2" NCoef="0" IVar="-1" Cut="0.0000000000000000e+00" cType="1" res="-2.8425229713320732e-02" rms="1.4306910336017609e-01" purity="8.1736743450164795e-02" nType="-99"/>
          <Node pos="r" depth="2" NCoef="0" IVar="-1" Cut="0.0000000000000000e+00" cType="1" res="3.7034299224615097e-02" rms="2.1410027146339417e-01" purity="4.2647376656532288e-01" nType="-99"/>
        </Node>
        <Node pos="r" depth="1" NCoef="0" IVar="4" Cut="4.0268826484680176e+00" cType="1" res="1.4208692125976086e-02" rms="4.6319384127855301e-02" purity="9.9785917997360229e-01" nType="0">
          <Node pos="l" depth="2" NCoef="0" IVar="-1" Cut="0.0000000000000000e+00" cType="1" res="4.9861680716276169e-02" rms="1.9301330670714378e-02" purity="9.9965989589691162e-01" nType="-99"/>
          <Node pos="r" depth="2" NCoef="0" IVar="-1" Cut="0.0000000000000000e+00" cType="1" res="-2.0869479048997164e-03" rms="1.3308848440647125e-01" purity="9.8179692029953003e-01" nType="-99"/>
        </Node>
      </Node>
    </BinaryTree>
    <BinaryTree type="DecisionTree" boostWeight="1.0000000000000000e+00" itree="40">
      <Node pos="s" depth="0" NCoef="0" IVar="2" Cut="1.9047619402408600e-01" cType="1" res="-2.3795922752469778e-03" rms="1.0729984194040298e-01" purity="5.0214678049087524e-01" nType="0">
        <Node pos="l" depth="1" NCoef="0" IVar="3" Cut="1.8795649707317352e-01" cType="1" res="-1.9547645002603531e-02" rms="4.9076605588197708e-02" purity="3.4722473938018084e-03" nType="0">
          <Node pos="l" depth="2" NCoef="0" IVar="-1" Cut="0.0000000000000000e+00" cType="1" res="-4.9198675900697708e-02" rms="2.4791030213236809e-02" purity="6.1607564566656947e-04" nType="-99"/>
          <Node pos="r" depth="2" NCoef="0" IVar="-1" Cut="0.0000000000000000e+00" cType="1" res="-3.4418541938066483e-02" rms="1.6773499548435211e-01" purity="4.7705315053462982e-02" nType="-99"/>
        </Node>
        <Node pos="r" depth="1" NCoef="0" IVar="12" Cut="8.7183333933353424e-02" cType="1" res="1.0707306675612926e-02" rms="1.3437892496585846e-01" purity="8.8227736949920654e-01" nType="0">
          <Node pos="l" depth="2" NCoef="0" IVar="-1" Cut="0.0000000000000000e+00" cType="1" res="5.3131848573684692e-02" rms="1.1697532236576080e-01" purity="9.4599652290344238e-01" nType="-99"/>
          <Node pos="r" depth="2" NCoef="0" IVar="-1" Cut="0.0000000000000000e+00" cType="1" res="1.0236961534246802e-03" rms="1.4408974349498749e-01" purity="8.3919847011566162e-01" nType="-99"/>
        </Node>
      </Node>
    </BinaryTree>
    <BinaryTree type="DecisionTree" boostWeight="1.0000000000000000e+00" itree="41">
      <Node pos="s" depth="0" NCoef="0" IVar="2" Cut="1.9047619402408600e-01" cType="1" res="1.6399831511080265e-03" rms="1.1462005227804184e-01" purity="5.0024324655532837e-01" nType="0">
        <Node pos="l" depth="1" NCoef="0" IVar="3" Cut="1.4255729317665100e-01" cType="1" res="-1.4387392438948154e-02" rms="6.7364729940891266e-02" purity="7.0010633207857609e-03" nType="0">
          <Node pos="l" depth="2" NCoef="0" IVar="-1" Cut="0.0000000000000000e+00" cType="1" res="-5.0968196243047714e-02" rms="6.7276372574269772e-03" purity="0.0000000000000000e+00" nType="-99"/>
          <Node pos="r" depth="2" NCoef="0" IVar="-1" Cut="0.0000000000000000e+00" cType="1" res="8.5392603650689125e-03" rms="2.7559167146682739e-01" purity="1.1969695985317230e-01" nType="-99"/>
        </Node>
        <Node pos="r" depth="1" NCoef="0" IVar="13" Cut="1.6709303483366966e-02" cType="1" res="1.3827554881572723e-02" rms="1.3904432952404022e-01" purity="8.7531554698944092e-01" nType="0">
          <Node pos="l" depth="2" NCoef="0" IVar="-1" Cut="0.0000000000000000e+00" cType="1" res="1.3542722910642624e-02" rms="1.1641360819339752e-01" purity="9.1318982839584351e-01" nType="-99"/>
          <Node pos="r" depth="2" NCoef="0" IVar="-1" Cut="0.0000000000000000e+00" cType="1" res="7.4658326804637909e-02" rms="2.9414597153663635e-01" purity="3.8057255744934082e-01" nType="-99"/>
        </Node>
      </Node>
    </BinaryTree>
    <BinaryTree type="DecisionTree" boostWeight="1.0000000000000000e+00" itree="42">
      <Node pos="s" depth="0" NCoef="0" IVar="10" Cut="4.7619048506021500e-02" cType="1" res="2.5093305157497525e-04" rms="1.1493434011936188e-01" purity="4.9396198987960815e-01" nType="0">
        <Node pos="l" depth="1" NCoef="0" IVar="2" Cut="6.6666662693023682e-01" cType="1" res="1.4864665456116199e-02" rms="8.9690297842025757e-02" purity="9.6576863527297974e-01" nType="0">
          <Node pos="l" depth="2" NCoef="0" IVar="-1" Cut="0.0000000000000000e+00" cType="1" res="2.8876822441816330e-02" rms="2.8237837553024292e-01" purity="5.5552548170089722e-01" nType="-99"/>
          <Node pos="r" depth="2" NCoef="0" IVar="-1" Cut="0.0000000000000000e+00" cType="1" res="4.2215287685394287e-02" rms="4.8590090125799179e-02" purity="9.9756425619125366e-01" nType="-99"/>
        </Node>
        <Node pos="r" depth="1" NCoef="0" IVar="6" Cut="8.3423472940921783e-02" cType="1" res="-9.8502496257424355e-03" rms="1.2857192754745483e-01" purity="1.6784371435642242e-01" nType="0">
          <Node pos="l" depth="2" NCoef="0" IVar="-1" Cut="0.0000000000000000e+00" cType="1" res="-2.8665818274021149e-02" rms="1.2129724025726318e-01" purity="1.2551216781139374e-01" nType="-99"/>
          <Node pos="r" depth="2" NCoef="0" IVar="-1" Cut="0.0000000000000000e+00" cType="1" res="5.0313282757997513e-02" rms="1.7595188319683075e-01" purity="5.5113297700881958e-01" nType="-99"/>
        </Node>
      </Node>
    </BinaryTree>
    <BinaryTree type="DecisionTree" boostWeight="1.0000000000000000e+00" itree="43">
      <Node pos="s" depth="0" NCoef="0" IVar="2" Cut="9.5238097012042999e-02" cType="1" res="-8.7119574891403317e-04" rms="1.0559322685003281e-01" purity="4.9387329816818237e-01" nType="0">
        <Node pos="l" depth="1" NCoef="0" IVar="3" Cut="1.4096736907958984e-01" cType="1" res="-1.6333868727087975e-02" rms="5.0097282975912094e-02" purity="3.4108618274331093e-03" nType="0">
          <Node pos="l" depth="2" NCoef="0" IVar="-1" Cut="0.0000000000000000e+00" cType="1" res="-5.0823625177145004e-02" rms="5.7708374224603176e-03" purity="0.0000000000000000e+00" nType="-99"/>
          <Node pos="r" depth="2" NCoef="0" IVar="-1" Cut="0.0000000000000000e+00" cType="1" res="-3.0389973893761635e-02" rms="1.8618199229240417e-01" purity="4.9439892172813416e-02" nType="-99"/>
        </Node>
        <Node pos="r" depth="1" NCoef="0" IVar="7" Cut="1.2379006385803223e+01" cType="1" res="8.2372426986694336e-03" rms="1.2655320763587952e-01" purity="7.8278493881225586e-01" nType="0">
          <Node pos="l" depth="2" NCoef="0" IVar="-1" Cut="0.0000000000000000e+00" cType="1" res="2.2565994411706924e-02" rms="1.2541052699089050e-01" purity="8.1983244419097900e-01" nType="-99"/>
          <Node pos="r" depth="2" NCoef="0" IVar="-1" Cut="0.0000000000000000e+00" cType="1" res="-6.2870189547538757e-02" rms="1.3870196044445038e-01" purity="5.7854268699884415e-02" nType="-99"/>
        </Node>
      </Node>
    </BinaryTree>
    <BinaryTree type="DecisionTree" boostWeight="1.0000000000000000e+00" itree="44">
      <Node pos="s" depth="0" NCoef="0" IVar="3" Cut="3.3263367414474487e-01" cType="1" res="2.9729277594015002e-04" rms="1.0745538771152496e-01" purity="5.0342220067977905e-01" nType="0">
        <Node pos="l" depth="1" NCoef="0" IVar="2" Cut="7.6190477609634399e-01" cType="1" res="-2.3117698729038239e-03" rms="9.4735331833362579e-02" purity="5.0870281457901001e-01" nType="0">
          <Node pos="l" depth="2" NCoef="0" IVar="-1" Cut="0.0000000000000000e+00" cType="1" res="-2.7275703847408295e-02" rms="1.2642066180706024e-01" purity="9.4066277146339417e-02" nType="-99"/>
          <Node pos="r" depth="2" NCoef="0" IVar="-1" Cut="0.0000000000000000e+00" cType="1" res="4.9566838890314102e-02" rms="1.6731685027480125e-02" purity="9.9970448017120361e-01" nType="-99"/>
        </Node>
        <Node pos="r" depth="1" NCoef="0" IVar="-1" Cut="0.0000000000000000e+00" cType="1" res="4.0809586644172668e-02" rms="3.0144563317298889e-01" purity="3.2393199205398560e-01" nType="-99"/>
      </Node>
    </BinaryTree>
    <BinaryTree type="DecisionTree" boostWeight="1.0000000000000000e+00" itree="45">
      <Node pos="s" depth="0" NCoef="0" IVar="10" Cut="9.5238097012042999e-02" cType="1" res="-1.5387082239612937e-03" rms="1.0887996107339859e-01" purity="4.9908670783042908e-01" nType="0">
        <Node pos="l" depth="1" NCoef="0" IVar="7" Cut="6.2727389335632324e+00" cType="1" res="1.0584903880953789e-02" rms="1.0362269729375839e-01" purity="8.9678633213043213e-01" nType="0">
          <Node pos="l" depth="2" NCoef="0" IVar="-1" Cut="0.0000000000000000e+00" cType="1" res="3.8072831928730011e-02" rms="9.2967525124549866e-02" purity="9.6855592727661133e-01" nType="-99"/>
          <Node pos="r" depth="2" NCoef="0" IVar="-1" Cut="0.0000000000000000e+00" cType="1" res="-2.4451375007629395e-02" rms="1.7287002503871918e-01" purity="2.0030426979064941e-01" nType="-99"/>
        </Node>
        <Node pos="r" depth="1" NCoef="0" IVar="2" Cut="4.6321454644203186e-01" cType="1" res="-1.5209312550723553e-02" rms="1.1296884715557098e-01" purity="5.0640005618333817e-02" nType="0">
          <Node pos="l" depth="2" NCoef="0" IVar="-1" Cut="0.0000000000000000e+00" cType="1" res="-3.1412512063980103e-02" rms="7.9889908432960510e-02" purity="7.3113250546157360e-03" nType="-99"/>
          <Node pos="r" depth="2" NCoef="0" IVar="-1" Cut="0.0000000000000000e+00" cType="1" res="-4.1791602969169617e-02" rms="3.2303142547607422e-01" purity="7.0535713434219360e-01" nType="-99"/>
        </Node>
      </Node>
    </BinaryTree>
    <BinaryTree type="DecisionTree" boostWeight="1.0000000000000000e+00" itree="46">
      <Node pos="s" depth="0" NCoef="0" IVar="3" Cut="1.4255729317665100e-01" cType="1" res="-2.6958956732414663e-04" rms="1.1391255259513855e-01" purity="4.8477521538734436e-01" nType="0">
        <Node pos="l" depth="1" NCoef="0" IVar="2" Cut="8.0952388048171997e-01" cType="1" res="-2.5805914774537086e-03" rms="1.0239010304212570e-01" purity="4.8805806040763855e-01" nType="0">
          <Node pos="l" depth="2" NCoef="0" IVar="-1" Cut="0.0000000000000000e+00" cType="1" res="-2.2338898852467537e-02" rms="1.2683764100074768e-01" purity="1.3168191909790039e-01" nType="-99"/>
          <Node pos="r" depth="2" NCoef="0" IVar="-1" Cut="0.0000000000000000e+00" cType="1" res="3.9497058838605881e-02" rms="4.7635789960622787e-02" purity="9.9765282869338989e-01" nType="-99"/>
        </Node>
        <Node pos="r" depth="1" NCoef="0" IVar="-1" Cut="0.0000000000000000e+00" cType="1" res="2.6479570195078850e-02" rms="2.4298757314682007e-01" purity="4.2133334279060364e-01" nType="-99"/>
      </Node>
    </BinaryTree>
    <BinaryTree type="DecisionTree" boostWeight="1.0000000000000000e+00" itree="47">
      <Node pos="s" depth="0" NCoef="0" IVar="3" Cut="3.7591299414634705e-01" cType="1" res="1.9544698297977448e-03" rms="1.1863273382186890e-01" purity="5.0174450874328613e-01" nType="0">
        <Node pos="l" depth="1" NCoef="0" IVar="2" Cut="1.9047620892524719e-01" cType="1" res="7.6898752013221383e-05" rms="1.0918380320072174e-01" purity="5.0720632076263428e-01" nType="0">
          <Node pos="l" depth="2" NCoef="0" IVar="-1" Cut="0.0000000000000000e+00" cType="1" res="-4.5662786811590195e-02" rms="3.5598147660493851e-02" purity="1.2114103883504868e-03" nType="-99"/>
          <Node pos="r" depth="2" NCoef="0" IVar="-1" Cut="0.0000000000000000e+00" cType="1" res="1.6735924407839775e-02" rms="1.3978828489780426e-01" purity="8.7577277421951294e-01" nType="-99"/>
        </Node>
        <Node pos="r" depth="1" NCoef="0" IVar="-1" Cut="0.0000000000000000e+00" cType="1" res="3.2080493867397308e-02" rms="3.0418974161148071e-01" purity="2.8872084617614746e-01" nType="-99"/>
      </Node>
    </BinaryTree>
    <BinaryTree type="DecisionTree" boostWeight="1.0000000000000000e+00" itree="48">
      <Node pos="s" depth="0" NCoef="0" IVar="12" Cut="4.5689810067415237e-02" cType="1" res="-1.2986504007130861e-03" rms="1.1073457449674606e-01" purity="5.0570666790008545e-01" nType="0">
        <Node pos="l" depth="1" NCoef="0" IVar="1" Cut="2.3463512957096100e-01" cType="1" res="1.6220321878790855e-02" rms="1.1427143216133118e-01" purity="7.3850452899932861e-01" nType="0">
          <Node pos="l" depth="2" NCoef="0" IVar="-1" Cut="0.0000000000000000e+00" cType="1" res="3.3971127122640610e-02" rms="8.1414595246315002e-02" purity="8.6466288566589355e-01" nType="-99"/>
          <Node pos="r" depth="2" NCoef="0" IVar="-1" Cut="0.0000000000000000e+00" cType="1" res="6.6935472190380096e-02" rms="2.0388600230216980e-01" purity="1.5778115391731262e-01" nType="-99"/>
        </Node>
        <Node pos="r" depth="1" NCoef="0" IVar="2" Cut="7.6190477609634399e-01" cType="1" res="-8.0797635018825531e-03" rms="1.0857866704463959e-01" purity="4.1559699177742004e-01" nType="0">
          <Node pos="l" depth="2" NCoef="0" IVar="-1" Cut="0.0000000000000000e+00" cType="1" res="-3.3965639770030975e-02" rms="1.3095757365226746e-01" purity="6.9527193903923035e-02" nType="-99"/>
          <Node pos="r" depth="2" NCoef="0" IVar="-1" Cut="0.0000000000000000e+00" cType="1" res="3.8977321237325668e-02" rms="4.8477962613105774e-02" purity="9.9752360582351685e-01" nType="-99"/>
        </Node>
      </Node>
    </BinaryTree>
    <BinaryTree type="DecisionTree" boostWeight="1.0000000000000000e+00" itree="49">
      <Node pos="s" depth="0" NCoef="0" IVar="3" Cut="1.3962675631046295e-01" cType="1" res="-2.7534298133105040e-03" rms="1.1347971856594086e-01" purity="4.9409016966819763e-01" nType="0">
        <Node pos="l" depth="1" NCoef="0" IVar="2" Cut="7.6190483570098877e-01" cType="1" res="-5.1453504711389542e-03" rms="1.0166021436452866e-01" purity="4.9524590373039246e-01" nType="0">
          <Node pos="l" depth="2" NCoef="0" IVar="-1" Cut="0.0000000000000000e+00" cType="1" res="-3.3549159765243530e-02" rms="1.3045297563076019e-01" purity="7.6360665261745453e-02" nType="-99"/>
          <Node pos="r" depth="2" NCoef="0" IVar="-1" Cut="0.0000000000000000e+00" cType="1" res="3.8609310984611511e-02" rms="4.5243393629789352e-02" purity="9.9784034490585327e-01" nType="-99"/>
        </Node>
        <Node pos="r" depth="1" NCoef="0" IVar="-1" Cut="0.0000000000000000e+00" cType="1" res="2.7036905288696289e-02" rms="2.4394512176513672e-01" purity="4.7188675403594971e-01" nType="-99"/>
      </Node>
    </BinaryTree>
    <BinaryTree type="DecisionTree" boostWeight="1.0000000000000000e+00" itree="50">
      <Node pos="s" depth="0" NCoef="0" IVar="12" Cut="4.5689810067415237e-02" cType="1" res="-1.2933812104165554e-03" rms="1.0393452644348145e-01" purity="5.0693070888519287e-01" nType="0">
        <Node pos="l" depth="1" NCoef="0" IVar="10" Cut="2.3809523880481720e-01" cType="1" res="1.4052240177989006e-02" rms="1.0123998671770096e-01" purity="7.4224472045898438e-01" nType="0">
          <Node pos="l" depth="2" NCoef="0" IVar="-1" Cut="0.0000000000000000e+00" cType="1" res="6.7236043512821198e-02" rms="1.0964872688055038e-01" purity="9.6417462825775146e-01" nType="-99"/>
          <Node pos="r" depth="2" NCoef="0" IVar="-1" Cut="0.0000000000000000e+00" cType="1" res="-2.2464402019977570e-02" rms="6.3031412661075592e-02" purity="4.4369556009769440e-02" nType="-99"/>
        </Node>
        <Node pos="r" depth="1" NCoef="0" IVar="2" Cut="8.0952382087707520e-01" cType="1" res="-7.1860938332974911e-03" rms="1.0435290634632111e-01" purity="4.1657018661499023e-01" nType="0">
          <Node pos="l" depth="2" NCoef="0" IVar="-1" Cut="0.0000000000000000e+00" cType="1" res="-2.9517384245991707e-02" rms="1.2405239045619965e-01" purity="1.1360234022140503e-01" nType="-99"/>
          <Node pos="r" depth="2" NCoef="0" IVar="-1" Cut="0.0000000000000000e+00" cType="1" res="3.8637280464172363e-02" rms="4.4249977916479111e-02" purity="9.9789893627166748e-01" nType="-99"/>
        </Node>
      </Node>
    </BinaryTree>
    <BinaryTree type="DecisionTree" boostWeight="1.0000000000000000e+00" itree="51">
      <Node pos="s" depth="0" NCoef="0" IVar="3" Cut="3.3263367414474487e-01" cType="1" res="1.8372284248471260e-03" rms="1.1597384512424469e-01" purity="5.0112050771713257e-01" nType="0">
        <Node pos="l" depth="1" NCoef="0" IVar="4" Cut="2.2401428222656250e+01" cType="1" res="-3.5476661287248135e-04" rms="1.0552824288606644e-01" purity="5.0484126806259155e-01" nType="0">
          <Node pos="l" depth="2" NCoef="0" IVar="-1" Cut="0.0000000000000000e+00" cType="1" res="1.0001417249441147e-02" rms="1.1361084878444672e-01" purity="6.5687060356140137e-01" nType="-99"/>
          <Node pos="r" depth="2" NCoef="0" IVar="-1" Cut="0.0000000000000000e+00" cType="1" res="-4.8536729067564011e-02" rms="7.2793349623680115e-02" purity="1.9257985055446625e-02" nType="-99"/>
        </Node>
        <Node pos="r" depth="1" NCoef="0" IVar="-1" Cut="0.0000000000000000e+00" cType="1" res="3.4041415899991989e-02" rms="2.9633662104606628e-01" purity="3.7195223569869995e-01" nType="-99"/>
      </Node>
    </BinaryTree>
    <BinaryTree type="DecisionTree" boostWeight="1.0000000000000000e+00" itree="52">
      <Node pos="s" depth="0" NCoef="0" IVar="10" Cut="1.4285714924335480e-01" cType="1" res="-8.9934788411483169e-04" rms="9.7645930945873260e-02" purity="4.9364545941352844e-01" nType="0">
        <Node pos="l" depth="1" NCoef="0" IVar="3" Cut="4.6061746776103973e-02" cType="1" res="6.3025285489857197e-03" rms="1.0658438503742218e-01" purity="8.3018690347671509e-01" nType="0">
          <Node pos="l" depth="2" NCoef="0" IVar="-1" Cut="0.0000000000000000e+00" cType="1" res="1.1731130070984364e-02" rms="9.2134490609169006e-02" purity="8.3520084619522095e-01" nType="-99"/>
          <Node pos="r" depth="2" NCoef="0" IVar="-1" Cut="0.0000000000000000e+00" cType="1" res="3.6164999008178711e-02" rms="2.4405212700366974e-01" purity="7.4167048931121826e-01" nType="-99"/>
        </Node>
        <Node pos="r" depth="1" NCoef="0" IVar="1" Cut="2.8266826272010803e-01" cType="1" res="-1.0922608897089958e-02" rms="8.2591891288757324e-02" purity="2.5261620059609413e-02" nType="0">
          <Node pos="l" depth="2" NCoef="0" IVar="-1" Cut="0.0000000000000000e+00" cType="1" res="-4.6068053692579269e-02" rms="1.1078998446464539e-01" purity="7.2471022605895996e-02" nType="-99"/>
          <Node pos="r" depth="2" NCoef="0" IVar="-1" Cut="0.0000000000000000e+00" cType="1" res="-2.1823029965162277e-02" rms="6.8063184618949890e-02" purity="7.4549792334437370e-03" nType="-99"/>
        </Node>
      </Node>
    </BinaryTree>
    <BinaryTree type="DecisionTree" boostWeight="1.0000000000000000e+00" itree="53">
      <Node pos="s" depth="0" NCoef="0" IVar="2" Cut="9.4836622476577759e-02" cType="1" res="2.1547037176787853e-03" rms="1.0117752104997635e-01" purity="4.8476174473762512e-01" nType="0">
        <Node pos="l" depth="1" NCoef="0" IVar="0" Cut="-1.0195266008377075e+00" cType="1" res="-8.0885011702775955e-03" rms="6.5086752176284790e-02" purity="8.0923270434141159e-03" nType="0">
          <Node pos="l" depth="2" NCoef="0" IVar="-1" Cut="0.0000000000000000e+00" cType="1" res="4.1293971240520477e-02" rms="1.3500612974166870e-01" purity="4.3557368218898773e-02" nType="-99"/>
          <Node pos="r" depth="2" NCoef="0" IVar="-1" Cut="0.0000000000000000e+00" cType="1" res="-3.7780668586492538e-02" rms="5.4843526333570480e-02" purity="5.1166042685508728e-03" nType="-99"/>
        </Node>
        <Node pos="r" depth="1" NCoef="0" IVar="13" Cut="2.6130022481083870e-02" cType="1" res="8.4472894668579102e-03" rms="1.1755474656820297e-01" purity="7.7758842706680298e-01" nType="0">
          <Node pos="l" depth="2" NCoef="0" IVar="-1" Cut="0.0000000000000000e+00" cType="1" res="1.2849298305809498e-02" rms="1.0280270129442215e-01" purity="8.1688565015792847e-01" nType="-99"/>
          <Node pos="r" depth="2" NCoef="0" IVar="-1" Cut="0.0000000000000000e+00" cType="1" res="9.7620427608489990e-02" rms="2.4453714489936829e-01" purity="1.8617178499698639e-01" nType="-99"/>
        </Node>
      </Node>
    </BinaryTree>
    <BinaryTree type="DecisionTree" boostWeight="1.0000000000000000e+00" itree="54">
      <Node pos="s" depth="0" NCoef="0" IVar="12" Cut="4.5689810067415237e-02" cType="1" res="-2.1152418048586696e-04" rms="1.1279824376106262e-01" purity="5.0130945444107056e-01" nType="0">
        <Node pos="l" depth="1" NCoef="0" IVar="2" Cut="7.1127468347549438e-01" cType="1" res="1.2043884955346584e-02" rms="1.0108684003353119e-01" purity="7.2876471281051636e-01" nType="0">
          <Node pos="l" depth="2" NCoef="0" IVar="-1" Cut="0.0000000000000000e+00" cType="1" res="4.2055048048496246e-02" rms="1.6079254448413849e-01" purity="1.9365188479423523e-01" nType="-99"/>
          <Node pos="r" depth="2" NCoef="0" IVar="-1" Cut="0.0000000000000000e+00" cType="1" res="3.2733436673879623e-02" rms="4.6620529145002365e-02" purity="9.9774408340454102e-01" nType="-99"/>
        </Node>
        <Node pos="r" depth="1" NCoef="0" IVar="0" Cut="8.9998722076416016e-01" cType="1" res="-4.5231846161186695e-03" rms="1.1633261293172836e-01" purity="4.2128685116767883e-01" nType="0">
          <Node pos="l" depth="2" NCoef="0" IVar="-1" Cut="0.0000000000000000e+00" cType="1" res="-1.9758610054850578e-02" rms="1.1500507593154907e-01" purity="4.0904122591018677e-01" nType="-99"/>
          <Node pos="r" depth="2" NCoef="0" IVar="-1" Cut="0.0000000000000000e+00" cType="1" res="4.7969605773687363e-02" rms="1.2455716729164124e-01" purity="5.1936930418014526e-01" nType="-99"/>
        </Node>
      </Node>
    </BinaryTree>
    <BinaryTree type="DecisionTree" boostWeight="1.0000000000000000e+00" itree="55">
      <Node pos="s" depth="0" NCoef="0" IVar="3" Cut="4.1815564036369324e-01" cType="1" res="2.1530913654714823e-03" rms="1.1112172156572342e-01" purity="5.0389415025711060e-01" nType="0">
        <Node pos="l" depth="1" NCoef="0" IVar="9" Cut="-5.6005477905273438e-02" cType="1" res="3.3737006015144289e-04" rms="1.0196838527917862e-01" purity="5.1025235652923584e-01" nType="0">
          <Node pos="l" depth="2" NCoef="0" IVar="-1" Cut="0.0000000000000000e+00" cType="1" res="3.6457795649766922e-02" rms="1.1664509028196335e-01" purity="6.8486320972442627e-01" nType="-99"/>
          <Node pos="r" depth="2" NCoef="0" IVar="-1" Cut="0.0000000000000000e+00" cType="1" res="-1.3918513432145119e-02" rms="9.4643928110599518e-02" purity="4.3553689122200012e-01" nType="-99"/>
        </Node>
        <Node pos="r" depth="1" NCoef="0" IVar="-1" Cut="0.0000000000000000e+00" cType="1" res="3.0866734683513641e-02" rms="2.8526806831359863e-01" purity="2.6304107904434204e-01" nType="-99"/>
      </Node>
    </BinaryTree>
    <BinaryTree type="DecisionTree" boostWeight="1.0000000000000000e+00" itree="56">
      <Node pos="s" depth="0" NCoef="0" IVar="0" Cut="6.6003876924514771e-01" cType="1" res="1.1866956483572721e-03" rms="1.1013073474168777e-01" purity="4.9581483006477356e-01" nType="0">
        <Node pos="l" depth="1" NCoef="0" IVar="2" Cut="8.0952382087707520e-01" cType="1" res="-4.0121367201209068e-03" rms="1.0192643851041794e-01" purity="4.7950407862663269e-01" nType="0">
          <Node pos="l" depth="2" NCoef="0" IVar="-1" Cut="0.0000000000000000e+00" cType="1" res="-2.2729974240064621e-02" rms="1.2805195152759552e-01" purity="1.3547869026660919e-01" nType="-99"/>
          <Node pos="r" depth="2" NCoef="0" IVar="-1" Cut="0.0000000000000000e+00" cType="1" res="4.1196476668119431e-02" rms="3.4124694764614105e-02" purity="9.9871623516082764e-01" nType="-99"/>
        </Node>
        <Node pos="r" depth="1" NCoef="0" IVar="2" Cut="1.8946340680122375e-01" cType="1" res="2.0900424569845200e-02" rms="1.3503636419773102e-01" purity="5.5766445398330688e-01" nType="0">
          <Node pos="l" depth="2" NCoef="0" IVar="-1" Cut="0.0000000000000000e+00" cType="1" res="-9.7061553969979286e-03" rms="8.7006635963916779e-02" purity="1.2289025820791721e-02" nType="-99"/>
          <Node pos="r" depth="2" NCoef="0" IVar="-1" Cut="0.0000000000000000e+00" cType="1" res="7.7121756970882416e-02" rms="1.5732093155384064e-01" purity="9.2230689525604248e-01" nType="-99"/>
        </Node>
      </Node>
    </BinaryTree>
    <BinaryTree type="DecisionTree" boostWeight="1.0000000000000000e+00" itree="57">
      <Node pos="s" depth="0" NCoef="0" IVar="10" Cut="2.3809523880481720e-01" cType="1" res="2.4698504712432623e-03" rms="1.0711041837930679e-01" purity="4.9381908774375916e-01" nType="0">
        <Node pos="l" depth="1" NCoef="0" IVar="3" Cut="9.5038190484046936e-02" cType="1" res="8.6017586290836334e-03" rms="1.2045402824878693e-01" purity="7.1899884939193726e-01" nType="0">
          <Node pos="l" depth="2" NCoef="0" IVar="-1" Cut="0.0000000000000000e+00" cType="1" res="1.9188130274415016e-02" rms="1.1007852852344513e-01" purity="7.2015482187271118e-01" nType="-99"/>
          <Node pos="r" depth="2" NCoef="0" IVar="-1" Cut="0.0000000000000000e+00" cType="1" res="4.0285535156726837e-02" rms="2.4010840058326721e-01" purity="6.9642692804336548e-01" nType="-99"/>
        </Node>
        <Node pos="r" depth="1" NCoef="0" IVar="1" Cut="4.2419770359992981e-01" cType="1" res="-1.0579979978501797e-02" rms="6.8992935121059418e-02" purity="1.4594919979572296e-02" nType="0">
          <Node pos="l" depth="2" NCoef="0" IVar="-1" Cut="0.0000000000000000e+00" cType="1" res="-4.4172648340463638e-02" rms="8.7461128830909729e-02" purity="3.0907290056347847e-02" nType="-99"/>
          <Node pos="r" depth="2" NCoef="0" IVar="-1" Cut="0.0000000000000000e+00" cType="1" res="-2.9183082282543182e-02" rms="5.2626688033342361e-02" purity="3.8258200511336327e-03" nType="-99"/>
        </Node>
      </Node>
    </BinaryTree>
    <BinaryTree type="DecisionTree" boostWeight="1.0000000000000000e+00" itree="58">
      <Node pos="s" depth="0" NCoef="0" IVar="14" Cut="1.1805815696716309e+01" cType="1" res="-9.8286231514066458e-04" rms="1.0377337038516998e-01" purity="4.9288842082023621e-01" nType="0">
        <Node pos="l" depth="1" NCoef="0" IVar="1" Cut="4.2400240898132324e-01" cType="1" res="-1.0170755907893181e-02" rms="9.2493034899234772e-02" purity="4.2246341705322266e-02" nType="0">
          <Node pos="l" depth="2" NCoef="0" IVar="-1" Cut="0.0000000000000000e+00" cType="1" res="-4.5238547027111053e-02" rms="1.0449119657278061e-01" purity="9.2779368162155151e-02" nType="-99"/>
          <Node pos="r" depth="2" NCoef="0" IVar="-1" Cut="0.0000000000000000e+00" cType="1" res="-9.1831358149647713e-03" rms="8.2244947552680969e-02" purity="7.7729136683046818e-03" nType="-99"/>
        </Node>
        <Node pos="r" depth="1" NCoef="0" IVar="13" Cut="1.7425438389182091e-02" cType="1" res="4.6995938755571842e-03" rms="1.0978925228118896e-01" purity="7.7159804105758667e-01" nType="0">
          <Node pos="l" depth="2" NCoef="0" IVar="-1" Cut="0.0000000000000000e+00" cType="1" res="9.6725961193442345e-03" rms="1.0124813765287399e-01" purity="8.0898118019104004e-01" nType="-99"/>
          <Node pos="r" depth="2" NCoef="0" IVar="-1" Cut="0.0000000000000000e+00" cType="1" res="5.2245639264583588e-02" rms="1.9213198125362396e-01" purity="2.4163758754730225e-01" nType="-99"/>
        </Node>
      </Node>
    </BinaryTree>
    <BinaryTree type="DecisionTree" boostWeight="1.0000000000000000e+00" itree="59">
      <Node pos="s" depth="0" NCoef="0" IVar="3" Cut="1.4255729317665100e-01" cType="1" res="-1.1992296203970909e-03" rms="9.3702718615531921e-02" purity="5.1035100221633911e-01" nType="0">
        <Node pos="l" depth="1" NCoef="0" IVar="2" Cut="8.0952382087707520e-01" cType="1" res="-2.9747965745627880e-03" rms="8.4702618420124054e-02" purity="5.1061522960662842e-01" nType="0">
          <Node pos="l" depth="2" NCoef="0" IVar="-1" Cut="0.0000000000000000e+00" cType="1" res="-2.6287557557225227e-02" rms="1.1065953224897385e-01" purity="1.2611511349678040e-01" nType="-99"/>
          <Node pos="r" depth="2" NCoef="0" IVar="-1" Cut="0.0000000000000000e+00" cType="1" res="4.5004185289144516e-02" rms="2.4730121716856956e-02" purity="9.9939405918121338e-01" nType="-99"/>
        </Node>
        <Node pos="r" depth="1" NCoef="0" IVar="-1" Cut="0.0000000000000000e+00" cType="1" res="2.2746820002794266e-02" rms="1.9637340307235718e-01" purity="5.0524681806564331e-01" nType="-99"/>
      </Node>
    </BinaryTree>
    <BinaryTree type="DecisionTree" boostWeight="1.0000000000000000e+00" itree="60">
      <Node pos="s" depth="0" NCoef="0" IVar="3" Cut="1.4255729317665100e-01" cType="1" res="-1.4863302931189537e-03" rms="1.0536170750856400e-01" purity="4.9908348917961121e-01" nType="0">
        <Node pos="l" depth="1" NCoef="0" IVar="2" Cut="7.6190477609634399e-01" cType="1" res="-3.4802679438143969e-03" rms="9.4824708998203278e-02" purity="5.0258564949035645e-01" nType="0">
          <Node pos="l" depth="2" NCoef="0" IVar="-1" Cut="0.0000000000000000e+00" cType="1" res="-2.6607070118188858e-02" rms="1.2284138798713684e-01" purity="7.6834835112094879e-02" nType="-99"/>
          <Node pos="r" depth="2" NCoef="0" IVar="-1" Cut="0.0000000000000000e+00" cType="1" res="3.4752234816551208e-02" rms="4.2290654033422470e-02" purity="9.9819290637969971e-01" nType="-99"/>
        </Node>
        <Node pos="r" depth="1" NCoef="0" IVar="-1" Cut="0.0000000000000000e+00" cType="1" res="2.2933021187782288e-02" rms="2.2538103163242340e-01" purity="4.3051770329475403e-01" nType="-99"/>
      </Node>
    </BinaryTree>
    <BinaryTree type="DecisionTree" boostWeight="1.0000000000000000e+00" itree="61">
      <Node pos="s" depth="0" NCoef="0" IVar="3" Cut="3.8015276193618774e-01" cType="1" res="1.5974919078871608e-03" rms="1.1422112584114075e-01" purity="4.9732226133346558e-01" nType="0">
        <Node pos="l" depth="1" NCoef="0" IVar="12" Cut="1.3223512470722198e-01" cType="1" res="-2.4181012122426182e-05" rms="1.0406126081943512e-01" purity="5.0270473957061768e-01" nType="0">
          <Node pos="l" depth="2" NCoef="0" IVar="-1" Cut="0.0000000000000000e+00" cType="1" res="3.5065073519945145e-02" rms="9.8433673381805420e-02" purity="5.3346163034439087e-01" nType="-99"/>
          <Node pos="r" depth="2" NCoef="0" IVar="-1" Cut="0.0000000000000000e+00" cType="1" res="-2.3064315319061279e-02" rms="1.0767752677202225e-01" purity="4.7963854670524597e-01" nType="-99"/>
        </Node>
        <Node pos="r" depth="1" NCoef="0" IVar="-1" Cut="0.0000000000000000e+00" cType="1" res="2.5934334844350815e-02" rms="2.9459932446479797e-01" purity="3.1042999029159546e-01" nType="-99"/>
      </Node>
    </BinaryTree>
    <BinaryTree type="DecisionTree" boostWeight="1.0000000000000000e+00" itree="62">
      <Node pos="s" depth="0" NCoef="0" IVar="3" Cut="9.3978248536586761e-02" cType="1" res="-7.9455540981143713e-04" rms="1.1399676650762558e-01" purity="5.1375955343246460e-01" nType="0">
        <Node pos="l" depth="1" NCoef="0" IVar="2" Cut="8.0952382087707520e-01" cType="1" res="-3.1022166367620230e-03" rms="1.0401099920272827e-01" purity="5.1458740234375000e-01" nType="0">
          <Node pos="l" depth="2" NCoef="0" IVar="-1" Cut="0.0000000000000000e+00" cType="1" res="-2.2068489342927933e-02" rms="1.3456612825393677e-01" purity="1.3115963339805603e-01" nType="-99"/>
          <Node pos="r" depth="2" NCoef="0" IVar="-1" Cut="0.0000000000000000e+00" cType="1" res="3.4826118499040604e-02" rms="3.9253361523151398e-02" purity="9.9843060970306396e-01" nType="-99"/>
        </Node>
        <Node pos="r" depth="1" NCoef="0" IVar="11" Cut="2.1120443940162659e-01" cType="1" res="3.7521343678236008e-02" rms="2.1813927590847015e-01" purity="5.0001388788223267e-01" nType="0">
          <Node pos="l" depth="2" NCoef="0" IVar="-1" Cut="0.0000000000000000e+00" cType="1" res="4.4896189123392105e-02" rms="2.5512647628784180e-01" purity="7.0590049028396606e-01" nType="-99"/>
          <Node pos="r" depth="2" NCoef="0" IVar="-1" Cut="0.0000000000000000e+00" cType="1" res="-1.1817014776170254e-02" rms="1.4915825426578522e-01" purity="2.5776433944702148e-01" nType="-99"/>
        </Node>
      </Node>
    </BinaryTree>
    <BinaryTree type="DecisionTree" boostWeight="1.0000000000000000e+00" itree="63">
      <Node pos="s" depth="0" NCoef="0" IVar="9" Cut="-5.6433711200952530e-02" cType="1" res="-4.1366301593370736e-04" rms="1.0884539037942886e-01" purity="4.9102422595024109e-01" nType="0">
        <Node pos="l" depth="1" NCoef="0" IVar="1" Cut="3.2740703225135803e-01" cType="1" res="1.0390417650341988e-02" rms="1.2797828018665314e-01" purity="6.7795032262802124e-01" nType="0">
          <Node pos="l" depth="2" NCoef="0" IVar="-1" Cut="0.0000000000000000e+00" cType="1" res="1.1844561435282230e-02" rms="9.8102495074272156e-02" purity="8.3507114648818970e-01" nType="-99"/>
          <Node pos="r" depth="2" NCoef="0" IVar="-1" Cut="0.0000000000000000e+00" cType="1" res="7.9639159142971039e-02" rms="2.0280081033706665e-01" purity="8.1863164901733398e-02" nType="-99"/>
        </Node>
        <Node pos="r" depth="1" NCoef="0" IVar="5" Cut="9.5481067895889282e-02" cType="1" res="-4.9623590894043446e-03" rms="9.9346898496150970e-02" purity="4.1232520341873169e-01" nType="0">
          <Node pos="l" depth="2" NCoef="0" IVar="-1" Cut="0.0000000000000000e+00" cType="1" res="-2.7433060109615326e-02" rms="1.0314973443746567e-01" purity="3.0582454800605774e-01" nType="-99"/>
          <Node pos="r" depth="2" NCoef="0" IVar="-1" Cut="0.0000000000000000e+00" cType="1" res="4.2850874364376068e-02" rms="7.7753797173500061e-02" purity="8.9902418851852417e-01" nType="-99"/>
