<?xml version="1.0"?>
<MethodSetup Method="BDT::BDTG">
  <GeneralInfo>
    <Info name="TMVA Release" value="4.2.1 [262657]"/>
    <Info name="ROOT Release" value="6.30/04 [400900]"/>
    <Info name="Creator" value="gkopp"/>
    <Info name="Date" value="Sat Mar  2 03:11:58 2024"/>
    <Info name="Host" value="Linux buildvm-x86-22.iad2.fedoraproject.org 6.6.9-100.fc38.x86_64 #1 SMP PREEMPT_DYNAMIC Mon Jan 1 20:31:07 UTC 2024 x86_64 x86_64 x86_64 GNU/Linux"/>
    <Info name="Dir" value="/afs/cern.ch/work/g/gkopp/2022_LLP_analysis/Run3-HCAL-LLP-Analysis/TMVAStudies"/>
    <Info name="Training events" value="48896"/>
    <Info name="TrainingTime" value="2.68503740e+01"/>
    <Info name="AnalysisType" value="Classification"/>
  </GeneralInfo>
  <Options>
    <Option name="V" modified="Yes">False</Option>
    <Option name="VerbosityLevel" modified="No">Default</Option>
    <Option name="VarTransform" modified="No">None</Option>
    <Option name="H" modified="Yes">False</Option>
    <Option name="CreateMVAPdfs" modified="No">False</Option>
    <Option name="IgnoreNegWeightsInTraining" modified="No">False</Option>
    <Option name="NTrees" modified="Yes">1000</Option>
    <Option name="MaxDepth" modified="Yes">2</Option>
    <Option name="MinNodeSize" modified="Yes">2.5%</Option>
    <Option name="nCuts" modified="Yes">20</Option>
    <Option name="BoostType" modified="Yes">Grad</Option>
    <Option name="AdaBoostR2Loss" modified="No">quadratic</Option>
    <Option name="UseBaggedBoost" modified="Yes">True</Option>
    <Option name="Shrinkage" modified="Yes">1.000000e-01</Option>
    <Option name="AdaBoostBeta" modified="No">5.000000e-01</Option>
    <Option name="UseRandomisedTrees" modified="No">False</Option>
    <Option name="UseNvars" modified="No">3</Option>
    <Option name="UsePoissonNvars" modified="No">True</Option>
    <Option name="BaggedSampleFraction" modified="Yes">5.000000e-01</Option>
    <Option name="UseYesNoLeaf" modified="No">True</Option>
    <Option name="NegWeightTreatment" modified="No">pray</Option>
    <Option name="Css" modified="No">1.000000e+00</Option>
    <Option name="Cts_sb" modified="No">1.000000e+00</Option>
    <Option name="Ctb_ss" modified="No">1.000000e+00</Option>
    <Option name="Cbb" modified="No">1.000000e+00</Option>
    <Option name="NodePurityLimit" modified="No">5.000000e-01</Option>
    <Option name="SeparationType" modified="No">giniindex</Option>
    <Option name="RegressionLossFunctionBDTG" modified="No">huber</Option>
    <Option name="HuberQuantile" modified="No">7.000000e-01</Option>
    <Option name="DoBoostMonitor" modified="No">False</Option>
    <Option name="UseFisherCuts" modified="No">False</Option>
    <Option name="MinLinCorrForFisher" modified="No">8.000000e-01</Option>
    <Option name="UseExclusiveVars" modified="No">False</Option>
    <Option name="DoPreselection" modified="No">False</Option>
    <Option name="SigToBkgFraction" modified="No">1.000000e+00</Option>
    <Option name="PruneMethod" modified="No">nopruning</Option>
    <Option name="PruneStrength" modified="No">0.000000e+00</Option>
    <Option name="PruningValFraction" modified="No">5.000000e-01</Option>
    <Option name="SkipNormalization" modified="No">False</Option>
    <Option name="nEventsMin" modified="No">0</Option>
    <Option name="UseBaggedGrad" modified="No">False</Option>
    <Option name="GradBaggingFraction" modified="No">5.000000e-01</Option>
    <Option name="UseNTrainEvents" modified="No">0</Option>
    <Option name="NNodesMax" modified="No">0</Option>
  </Options>
  <Variables NVar="6">
    <Variable VarIndex="0" Expression="perJet_Eta" Label="perJet_Eta" Title="perJet_Eta" Unit="" Internal="perJet_Eta" Type="F" Min="-1.25983036e+00" Max="1.25999463e+00"/>
    <Variable VarIndex="1" Expression="perJet_EnergyFrac_Depth1" Label="perJet_EnergyFrac_Depth1" Title="perJet_EnergyFrac_Depth1" Unit="" Internal="perJet_EnergyFrac_Depth1" Type="F" Min="0.00000000e+00" Max="1.00000000e+00"/>
    <Variable VarIndex="2" Expression="perJet_EnergyFrac_Depth2" Label="perJet_EnergyFrac_Depth2" Title="perJet_EnergyFrac_Depth2" Unit="" Internal="perJet_EnergyFrac_Depth2" Type="F" Min="0.00000000e+00" Max="1.00000000e+00"/>
    <Variable VarIndex="3" Expression="perJet_EnergyFrac_Depth3" Label="perJet_EnergyFrac_Depth3" Title="perJet_EnergyFrac_Depth3" Unit="" Internal="perJet_EnergyFrac_Depth3" Type="F" Min="0.00000000e+00" Max="1.00000000e+00"/>
    <Variable VarIndex="4" Expression="perJet_S_phiphi" Label="perJet_S_phiphi" Title="perJet_S_phiphi" Unit="" Internal="perJet_S_phiphi" Type="F" Min="1.04859195e-04" Max="1.22406811e-01"/>
    <Variable VarIndex="5" Expression="perJet_LeadingRechitE/perJet_E" Label="perJet_LeadingRechitE/perJet_E" Title="perJet_LeadingRechtE / perJet_E" Unit="" Internal="perJet_LeadingRechitE_D_perJet_E" Type="F" Min="2.13412056e-03" Max="1.60591221e+00"/>
  </Variables>
  <Spectators NSpec="0"/>
  <Classes NClass="2">
    <Class Name="Signal" Index="0"/>
    <Class Name="Background" Index="1"/>
  </Classes>
  <Transformations NTransformations="0"/>
  <MVAPdfs/>
  <Weights NTrees="1000" AnalysisType="1">
    <BinaryTree type="DecisionTree" boostWeight="1.0000000000000000e+00" itree="0">
      <Node pos="s" depth="0" NCoef="0" IVar="2" Cut="1.3162325322628021e-01" cType="1" res="5.0506851403042674e-04" rms="4.9999973177909851e-01" purity="5.0050508975982666e-01" nType="0">
        <Node pos="l" depth="1" NCoef="0" IVar="5" Cut="1.3925403356552124e-01" cType="1" res="4.1723892092704773e-01" rms="2.7552077174186707e-01" purity="9.1723895072937012e-01" nType="0">
          <Node pos="l" depth="2" NCoef="0" IVar="-1" Cut="0.0000000000000000e+00" cType="1" res="-5.9856910258531570e-02" rms="4.0053558349609375e-01" purity="2.0071545243263245e-01" nType="-99"/>
          <Node pos="r" depth="2" NCoef="0" IVar="-1" Cut="0.0000000000000000e+00" cType="1" res="9.1855525970458984e-02" rms="1.9764629006385803e-01" purity="9.5927762985229492e-01" nType="-99"/>
        </Node>
        <Node pos="r" depth="1" NCoef="0" IVar="5" Cut="2.0671941339969635e-01" cType="1" res="-4.5512363314628601e-01" rms="2.0703257620334625e-01" purity="4.4876381754875183e-02" nType="0">
          <Node pos="l" depth="2" NCoef="0" IVar="-1" Cut="0.0000000000000000e+00" cType="1" res="-9.6072442829608917e-02" rms="1.3875213265419006e-01" purity="1.9637798890471458e-02" nType="-99"/>
          <Node pos="r" depth="2" NCoef="0" IVar="-1" Cut="0.0000000000000000e+00" cType="1" res="-2.5033127516508102e-02" rms="4.8408013582229614e-01" purity="3.7483435869216919e-01" nType="-99"/>
        </Node>
      </Node>
    </BinaryTree>
    <BinaryTree type="DecisionTree" boostWeight="1.0000000000000000e+00" itree="1">
      <Node pos="s" depth="0" NCoef="0" IVar="2" Cut="1.4285714924335480e-01" cType="1" res="-1.3901813654229045e-03" rms="4.5878469944000244e-01" purity="4.9855265021324158e-01" nType="0">
        <Node pos="l" depth="1" NCoef="0" IVar="5" Cut="1.5487489104270935e-01" cType="1" res="3.6319160461425781e-01" rms="2.8271386027336121e-01" purity="9.0326094627380371e-01" nType="0">
          <Node pos="l" depth="2" NCoef="0" IVar="-1" Cut="0.0000000000000000e+00" cType="1" res="-5.0842244178056717e-02" rms="4.0947851538658142e-01" purity="2.2503761947154999e-01" nType="-99"/>
          <Node pos="r" depth="2" NCoef="0" IVar="-1" Cut="0.0000000000000000e+00" cType="1" res="8.3543859422206879e-02" rms="1.9646522402763367e-01" purity="9.5945024490356445e-01" nType="-99"/>
        </Node>
        <Node pos="r" depth="1" NCoef="0" IVar="2" Cut="1.8368212878704071e-01" cType="1" res="-4.1519176959991455e-01" rms="1.9123004376888275e-01" purity="3.9207354187965393e-02" nType="0">
          <Node pos="l" depth="2" NCoef="0" IVar="-1" Cut="0.0000000000000000e+00" cType="1" res="-3.3013679087162018e-02" rms="4.4930869340896606e-01" purity="2.9706734418869019e-01" nType="-99"/>
          <Node pos="r" depth="2" NCoef="0" IVar="-1" Cut="0.0000000000000000e+00" cType="1" res="-8.7730690836906433e-02" rms="1.3542932271957397e-01" purity="1.9067957997322083e-02" nType="-99"/>
        </Node>
      </Node>
    </BinaryTree>
    <BinaryTree type="DecisionTree" boostWeight="1.0000000000000000e+00" itree="2">
      <Node pos="s" depth="0" NCoef="0" IVar="2" Cut="1.3657763600349426e-01" cType="1" res="2.0181597210466862e-03" rms="4.2228639125823975e-01" purity="5.0296700000762939e-01" nType="0">
        <Node pos="l" depth="1" NCoef="0" IVar="5" Cut="1.5487489104270935e-01" cType="1" res="3.3386579155921936e-01" rms="2.6371401548385620e-01" purity="9.1102933883666992e-01" nType="0">
          <Node pos="l" depth="2" NCoef="0" IVar="-1" Cut="0.0000000000000000e+00" cType="1" res="-3.7827271968126297e-02" rms="4.3545934557914734e-01" purity="2.6817324757575989e-01" nType="-99"/>
          <Node pos="r" depth="2" NCoef="0" IVar="-1" Cut="0.0000000000000000e+00" cType="1" res="7.7115729451179504e-02" rms="1.9436909258365631e-01" purity="9.6055382490158081e-01" nType="-99"/>
        </Node>
        <Node pos="r" depth="1" NCoef="0" IVar="5" Cut="2.2650045156478882e-01" cType="1" res="-3.7791174650192261e-01" rms="1.8011790513992310e-01" purity="3.5779383033514023e-02" nType="0">
          <Node pos="l" depth="2" NCoef="0" IVar="-1" Cut="0.0000000000000000e+00" cType="1" res="-8.0846853554248810e-02" rms="1.3807463645935059e-01" purity="1.9959181547164917e-02" nType="-99"/>
          <Node pos="r" depth="2" NCoef="0" IVar="-1" Cut="0.0000000000000000e+00" cType="1" res="-2.8756041079759598e-02" rms="4.5504456758499146e-01" purity="3.1166070699691772e-01" nType="-99"/>
        </Node>
      </Node>
    </BinaryTree>
    <BinaryTree type="DecisionTree" boostWeight="1.0000000000000000e+00" itree="3">
      <Node pos="s" depth="0" NCoef="0" IVar="2" Cut="1.3657763600349426e-01" cType="1" res="-1.9274545775260776e-04" rms="3.9019981026649475e-01" purity="4.9932712316513062e-01" nType="0">
        <Node pos="l" depth="1" NCoef="0" IVar="5" Cut="1.8897275626659393e-01" cType="1" res="3.0302640795707703e-01" rms="2.5236627459526062e-01" purity="9.1365480422973633e-01" nType="0">
          <Node pos="l" depth="2" NCoef="0" IVar="-1" Cut="0.0000000000000000e+00" cType="1" res="-1.9112348556518555e-02" rms="4.5397549867630005e-01" purity="4.0507447719573975e-01" nType="-99"/>
          <Node pos="r" depth="2" NCoef="0" IVar="-1" Cut="0.0000000000000000e+00" cType="1" res="7.4064753949642181e-02" rms="1.6705262660980225e-01" purity="9.7116076946258545e-01" nType="-99"/>
        </Node>
        <Node pos="r" depth="1" NCoef="0" IVar="2" Cut="2.1467269957065582e-01" cType="1" res="-3.3614039421081543e-01" rms="1.8882825970649719e-01" purity="4.0278352797031403e-02" nType="0">
          <Node pos="l" depth="2" NCoef="0" IVar="-1" Cut="0.0000000000000000e+00" cType="1" res="-3.7047773599624634e-02" rms="4.0025153756141663e-01" purity="2.2236931324005127e-01" nType="-99"/>
          <Node pos="r" depth="2" NCoef="0" IVar="-1" Cut="0.0000000000000000e+00" cType="1" res="-7.6963715255260468e-02" rms="1.1317275464534760e-01" purity="1.3199220411479473e-02" nType="-99"/>
        </Node>
      </Node>
    </BinaryTree>
    <BinaryTree type="DecisionTree" boostWeight="1.0000000000000000e+00" itree="4">
      <Node pos="s" depth="0" NCoef="0" IVar="5" Cut="1.8725185096263885e-01" cType="1" res="-5.6171382311731577e-04" rms="3.6210069060325623e-01" purity="4.9980378150939941e-01" nType="0">
        <Node pos="l" depth="1" NCoef="0" IVar="2" Cut="9.5238097012042999e-02" cType="1" res="-2.9931432008743286e-01" rms="2.0058980584144592e-01" purity="5.5553808808326721e-02" nType="0">
          <Node pos="l" depth="2" NCoef="0" IVar="-1" Cut="0.0000000000000000e+00" cType="1" res="-4.9496302381157875e-03" rms="4.6467962861061096e-01" purity="4.7649544477462769e-01" nType="-99"/>
          <Node pos="r" depth="2" NCoef="0" IVar="-1" Cut="0.0000000000000000e+00" cType="1" res="-7.1146927773952484e-02" rms="1.4533011615276337e-01" purity="2.4266682565212250e-02" nType="-99"/>
        </Node>
        <Node pos="r" depth="1" NCoef="0" IVar="2" Cut="2.0734325051307678e-01" cType="1" res="2.7540725469589233e-01" rms="2.3761619627475739e-01" purity="9.1017413139343262e-01" nType="0">
          <Node pos="l" depth="2" NCoef="0" IVar="-1" Cut="0.0000000000000000e+00" cType="1" res="6.8605452775955200e-02" rms="1.8638297915458679e-01" purity="9.6043902635574341e-01" nType="-99"/>
          <Node pos="r" depth="2" NCoef="0" IVar="-1" Cut="0.0000000000000000e+00" cType="1" res="-6.2145553529262543e-02" rms="2.7433344721794128e-01" purity="8.2716561853885651e-02" nType="-99"/>
        </Node>
      </Node>
    </BinaryTree>
    <BinaryTree type="DecisionTree" boostWeight="1.0000000000000000e+00" itree="5">
      <Node pos="s" depth="0" NCoef="0" IVar="2" Cut="1.3657763600349426e-01" cType="1" res="-2.2458189632743597e-03" rms="3.3772042393684387e-01" purity="4.9789738655090332e-01" nType="0">
        <Node pos="l" depth="1" NCoef="0" IVar="5" Cut="1.3925403356552124e-01" cType="1" res="2.4147129058837891e-01" rms="2.4796468019485474e-01" purity="9.0667492151260376e-01" nType="0">
          <Node pos="l" depth="2" NCoef="0" IVar="-1" Cut="0.0000000000000000e+00" cType="1" res="-4.2784165591001511e-02" rms="3.9282092452049255e-01" purity="1.9489333033561707e-01" nType="-99"/>
          <Node pos="r" depth="2" NCoef="0" IVar="-1" Cut="0.0000000000000000e+00" cType="1" res="6.2782958149909973e-02" rms="2.0306624472141266e-01" purity="9.5386153459548950e-01" nType="-99"/>
        </Node>
        <Node pos="r" depth="1" NCoef="0" IVar="5" Cut="1.9437217712402344e-01" cType="1" res="-2.7634736895561218e-01" rms="1.7675569653511047e-01" purity="3.8157086819410324e-02" nType="0">
          <Node pos="l" depth="2" NCoef="0" IVar="-1" Cut="0.0000000000000000e+00" cType="1" res="-6.8437583744525909e-02" rms="1.2539583444595337e-01" purity="1.6465725377202034e-02" nType="-99"/>
          <Node pos="r" depth="2" NCoef="0" IVar="-1" Cut="0.0000000000000000e+00" cType="1" res="-2.2683486342430115e-02" rms="4.1608890891075134e-01" purity="2.8072735667228699e-01" nType="-99"/>
        </Node>
      </Node>
    </BinaryTree>
    <BinaryTree type="DecisionTree" boostWeight="1.0000000000000000e+00" itree="6">
      <Node pos="s" depth="0" NCoef="0" IVar="2" Cut="1.3162325322628021e-01" cType="1" res="1.0696069803088903e-03" rms="3.1614440679550171e-01" purity="5.0385165214538574e-01" nType="0">
        <Node pos="l" depth="1" NCoef="0" IVar="5" Cut="1.5487489104270935e-01" cType="1" res="2.2177056968212128e-01" rms="2.3783972859382629e-01" purity="9.1357558965682983e-01" nType="0">
          <Node pos="l" depth="2" NCoef="0" IVar="-1" Cut="0.0000000000000000e+00" cType="1" res="-3.1103795394301414e-02" rms="4.2314821481704712e-01" purity="2.5524908304214478e-01" nType="-99"/>
          <Node pos="r" depth="2" NCoef="0" IVar="-1" Cut="0.0000000000000000e+00" cType="1" res="6.0297288000583649e-02" rms="1.9512431323528290e-01" purity="9.5887577533721924e-01" nType="-99"/>
        </Node>
        <Node pos="r" depth="1" NCoef="0" IVar="5" Cut="2.0433253049850464e-01" cType="1" res="-2.4838909506797791e-01" rms="1.7802762985229492e-01" purity="4.0739983320236206e-02" nType="0">
          <Node pos="l" depth="2" NCoef="0" IVar="-1" Cut="0.0000000000000000e+00" cType="1" res="-6.5414018929004669e-02" rms="1.2570862472057343e-01" purity="1.6704278066754341e-02" nType="-99"/>
          <Node pos="r" depth="2" NCoef="0" IVar="-1" Cut="0.0000000000000000e+00" cType="1" res="-1.1616264469921589e-02" rms="4.3795013427734375e-01" purity="3.4430849552154541e-01" nType="-99"/>
        </Node>
      </Node>
    </BinaryTree>
    <BinaryTree type="DecisionTree" boostWeight="1.0000000000000000e+00" itree="7">
      <Node pos="s" depth="0" NCoef="0" IVar="5" Cut="1.8430486321449280e-01" cType="1" res="1.7675067065283656e-03" rms="2.9861912131309509e-01" purity="5.0258296728134155e-01" nType="0">
        <Node pos="l" depth="1" NCoef="0" IVar="2" Cut="9.5238097012042999e-02" cType="1" res="-2.1934044361114502e-01" rms="1.9766606390476227e-01" purity="5.7996597141027451e-02" nType="0">
          <Node pos="l" depth="2" NCoef="0" IVar="-1" Cut="0.0000000000000000e+00" cType="1" res="-6.2806420028209686e-03" rms="4.5322778820991516e-01" purity="4.6798783540725708e-01" nType="-99"/>
          <Node pos="r" depth="2" NCoef="0" IVar="-1" Cut="0.0000000000000000e+00" cType="1" res="-6.1274014413356781e-02" rms="1.5197648108005524e-01" purity="2.6099657639861107e-02" nType="-99"/>
        </Node>
        <Node pos="r" depth="1" NCoef="0" IVar="2" Cut="2.0734325051307678e-01" cType="1" res="2.0378611981868744e-01" rms="2.2241836786270142e-01" purity="9.0878593921661377e-01" nType="0">
          <Node pos="l" depth="2" NCoef="0" IVar="-1" Cut="0.0000000000000000e+00" cType="1" res="5.8946523815393448e-02" rms="1.9010654091835022e-01" purity="9.5780605077743530e-01" nType="-99"/>
          <Node pos="r" depth="2" NCoef="0" IVar="-1" Cut="0.0000000000000000e+00" cType="1" res="-5.7742886245250702e-02" rms="2.4887044727802277e-01" purity="6.8254306912422180e-02" nType="-99"/>
        </Node>
      </Node>
    </BinaryTree>
    <BinaryTree type="DecisionTree" boostWeight="1.0000000000000000e+00" itree="8">
      <Node pos="s" depth="0" NCoef="0" IVar="2" Cut="9.1051757335662842e-02" cType="1" res="3.2663767342455685e-05" rms="2.8289395570755005e-01" purity="4.9717119336128235e-01" nType="0">
        <Node pos="l" depth="1" NCoef="0" IVar="5" Cut="1.8388259410858154e-01" cType="1" res="2.0185089111328125e-01" rms="1.9795264303684235e-01" purity="9.4223469495773315e-01" nType="0">
          <Node pos="l" depth="2" NCoef="0" IVar="-1" Cut="0.0000000000000000e+00" cType="1" res="2.1694090683013201e-03" rms="4.5908433198928833e-01" purity="5.0427073240280151e-01" nType="-99"/>
          <Node pos="r" depth="2" NCoef="0" IVar="-1" Cut="0.0000000000000000e+00" cType="1" res="5.9491358697414398e-02" rms="1.4978621900081635e-01" purity="9.7695487737655640e-01" nType="-99"/>
        </Node>
        <Node pos="r" depth="1" NCoef="0" IVar="5" Cut="2.8428503870964050e-01" cType="1" res="-1.8228046596050262e-01" rms="2.1654818952083588e-01" purity="9.5121629536151886e-02" nType="0">
          <Node pos="l" depth="2" NCoef="0" IVar="-1" Cut="0.0000000000000000e+00" cType="1" res="-5.6085992604494095e-02" rms="1.8539856374263763e-01" purity="5.0931613892316818e-02" nType="-99"/>
          <Node pos="r" depth="2" NCoef="0" IVar="-1" Cut="0.0000000000000000e+00" cType="1" res="3.6812715232372284e-02" rms="3.4420835971832275e-01" purity="7.6611411571502686e-01" nType="-99"/>
        </Node>
      </Node>
    </BinaryTree>
    <BinaryTree type="DecisionTree" boostWeight="1.0000000000000000e+00" itree="9">
      <Node pos="s" depth="0" NCoef="0" IVar="5" Cut="1.8088416755199432e-01" cType="1" res="-3.6365230334922671e-04" rms="2.6526787877082825e-01" purity="5.0089204311370850e-01" nType="0">
        <Node pos="l" depth="1" NCoef="0" IVar="2" Cut="9.5238097012042999e-02" cType="1" res="-1.8664941191673279e-01" rms="1.8208964169025421e-01" purity="4.8274386674165726e-02" nType="0">
          <Node pos="l" depth="2" NCoef="0" IVar="-1" Cut="0.0000000000000000e+00" cType="1" res="-1.0893111117184162e-02" rms="4.6102139353752136e-01" purity="4.3217802047729492e-01" nType="-99"/>
          <Node pos="r" depth="2" NCoef="0" IVar="-1" Cut="0.0000000000000000e+00" cType="1" res="-5.8088995516300201e-02" rms="1.3785220682621002e-01" purity="2.0996730774641037e-02" nType="-99"/>
        </Node>
        <Node pos="r" depth="1" NCoef="0" IVar="2" Cut="2.5797355175018311e-01" cType="1" res="1.6635662317276001e-01" rms="2.1169792115688324e-01" purity="9.0597152709960938e-01" nType="0">
          <Node pos="l" depth="2" NCoef="0" IVar="-1" Cut="0.0000000000000000e+00" cType="1" res="5.3954377770423889e-02" rms="1.8968598544597626e-01" purity="9.5327156782150269e-01" nType="-99"/>
          <Node pos="r" depth="2" NCoef="0" IVar="-1" Cut="0.0000000000000000e+00" cType="1" res="-6.0346681624650955e-02" rms="1.8755273520946503e-01" purity="3.6144785583019257e-02" nType="-99"/>
        </Node>
      </Node>
    </BinaryTree>
    <BinaryTree type="DecisionTree" boostWeight="1.0000000000000000e+00" itree="10">
      <Node pos="s" depth="0" NCoef="0" IVar="5" Cut="1.8440863490104675e-01" cType="1" res="2.7700094506144524e-03" rms="2.5403910875320435e-01" purity="5.0607424974441528e-01" nType="0">
        <Node pos="l" depth="1" NCoef="0" IVar="2" Cut="1.9047619402408600e-01" cType="1" res="-1.6410438716411591e-01" rms="1.8917953968048096e-01" purity="5.5820070207118988e-02" nType="0">
          <Node pos="l" depth="2" NCoef="0" IVar="-1" Cut="0.0000000000000000e+00" cType="1" res="-1.9423844292759895e-02" rms="3.9209181070327759e-01" purity="2.7986398339271545e-01" nType="-99"/>
          <Node pos="r" depth="2" NCoef="0" IVar="-1" Cut="0.0000000000000000e+00" cType="1" res="-5.8557920157909393e-02" rms="1.0005730390548706e-01" purity="1.0167557746171951e-02" nType="-99"/>
        </Node>
        <Node pos="r" depth="1" NCoef="0" IVar="2" Cut="2.1780465543270111e-01" cType="1" res="1.5370284020900726e-01" rms="2.0632274448871613e-01" purity="9.1331559419631958e-01" nType="0">
          <Node pos="l" depth="2" NCoef="0" IVar="-1" Cut="0.0000000000000000e+00" cType="1" res="5.2320010960102081e-02" rms="1.8614491820335388e-01" purity="9.5866924524307251e-01" nType="-99"/>
          <Node pos="r" depth="2" NCoef="0" IVar="-1" Cut="0.0000000000000000e+00" cType="1" res="-4.6218074858188629e-02" rms="2.6831504702568054e-01" purity="8.5284911096096039e-02" nType="-99"/>
        </Node>
      </Node>
    </BinaryTree>
    <BinaryTree type="DecisionTree" boostWeight="1.0000000000000000e+00" itree="11">
      <Node pos="s" depth="0" NCoef="0" IVar="5" Cut="2.2984755039215088e-01" cType="1" res="-2.0105612929910421e-03" rms="2.4688324332237244e-01" purity="4.9705573916435242e-01" nType="0">
        <Node pos="l" depth="1" NCoef="0" IVar="2" Cut="8.3754487335681915e-02" cType="1" res="-1.3555495440959930e-01" rms="2.1709439158439636e-01" purity="1.1086335778236389e-01" nType="0">
          <Node pos="l" depth="2" NCoef="0" IVar="-1" Cut="0.0000000000000000e+00" cType="1" res="1.1157852597534657e-02" rms="3.9317548274993896e-01" purity="6.9095546007156372e-01" nType="-99"/>
          <Node pos="r" depth="2" NCoef="0" IVar="-1" Cut="0.0000000000000000e+00" cType="1" res="-5.2262894809246063e-02" rms="1.7190691828727722e-01" purity="3.9649754762649536e-02" nType="-99"/>
        </Node>
        <Node pos="r" depth="1" NCoef="0" IVar="2" Cut="8.7121859192848206e-02" cType="1" res="1.5225012600421906e-01" rms="1.8033233284950256e-01" purity="9.4315695762634277e-01" nType="0">
          <Node pos="l" depth="2" NCoef="0" IVar="-1" Cut="0.0000000000000000e+00" cType="1" res="5.5613067001104355e-02" rms="1.2986084818840027e-01" purity="9.8284173011779785e-01" nType="-99"/>
          <Node pos="r" depth="2" NCoef="0" IVar="-1" Cut="0.0000000000000000e+00" cType="1" res="1.1302959173917770e-02" rms="3.6395424604415894e-01" purity="6.5506917238235474e-01" nType="-99"/>
        </Node>
      </Node>
    </BinaryTree>
    <BinaryTree type="DecisionTree" boostWeight="1.0000000000000000e+00" itree="12">
      <Node pos="s" depth="0" NCoef="0" IVar="2" Cut="1.8210351467132568e-01" cType="1" res="1.3273806544020772e-03" rms="2.3440818488597870e-01" purity="5.0010555982589722e-01" nType="0">
        <Node pos="l" depth="1" NCoef="0" IVar="5" Cut="1.3925403356552124e-01" cType="1" res="1.1739935725927353e-01" rms="2.3234514892101288e-01" purity="8.7256854772567749e-01" nType="0">
          <Node pos="l" depth="2" NCoef="0" IVar="-1" Cut="0.0000000000000000e+00" cType="1" res="-2.7347587049007416e-02" rms="3.6125242710113525e-01" purity="1.6501519083976746e-01" nType="-99"/>
          <Node pos="r" depth="2" NCoef="0" IVar="-1" Cut="0.0000000000000000e+00" cType="1" res="4.7182038426399231e-02" rms="2.0155473053455353e-01" purity="9.4474935531616211e-01" nType="-99"/>
        </Node>
        <Node pos="r" depth="1" NCoef="0" IVar="2" Cut="2.9278245568275452e-01" cType="1" res="-1.4854191243648529e-01" rms="1.2780484557151794e-01" purity="1.9190445542335510e-02" nType="0">
          <Node pos="l" depth="2" NCoef="0" IVar="-1" Cut="0.0000000000000000e+00" cType="1" res="-3.6947496235370636e-02" rms="2.4058057367801666e-01" purity="7.5418077409267426e-02" nType="-99"/>
          <Node pos="r" depth="2" NCoef="0" IVar="-1" Cut="0.0000000000000000e+00" cType="1" res="-5.8464247733354568e-02" rms="6.8435266613960266e-02" purity="4.2187944054603577e-03" nType="-99"/>
        </Node>
      </Node>
    </BinaryTree>
    <BinaryTree type="DecisionTree" boostWeight="1.0000000000000000e+00" itree="13">
      <Node pos="s" depth="0" NCoef="0" IVar="5" Cut="2.3342199623584747e-01" cType="1" res="-3.9028581231832504e-03" rms="2.2563381493091583e-01" purity="4.9389690160751343e-01" nType="0">
        <Node pos="l" depth="1" NCoef="0" IVar="2" Cut="4.7619048506021500e-02" cType="1" res="-1.1706123501062393e-01" rms="2.0505823194980621e-01" purity="1.0603533685207367e-01" nType="0">
          <Node pos="l" depth="2" NCoef="0" IVar="-1" Cut="0.0000000000000000e+00" cType="1" res="2.1059023216366768e-02" rms="3.4554919600486755e-01" purity="7.5287973880767822e-01" nType="-99"/>
          <Node pos="r" depth="2" NCoef="0" IVar="-1" Cut="0.0000000000000000e+00" cType="1" res="-4.7971203923225403e-02" rms="1.8518914282321930e-01" purity="6.3080072402954102e-02" nType="-99"/>
        </Node>
        <Node pos="r" depth="1" NCoef="0" IVar="2" Cut="1.3068279623985291e-01" cType="1" res="1.2837150692939758e-01" rms="1.6972014307975769e-01" purity="9.4728034734725952e-01" nType="0">
          <Node pos="l" depth="2" NCoef="0" IVar="-1" Cut="0.0000000000000000e+00" cType="1" res="5.1432471722364426e-02" rms="1.4241899549961090e-01" purity="9.7905361652374268e-01" nType="-99"/>
          <Node pos="r" depth="2" NCoef="0" IVar="-1" Cut="0.0000000000000000e+00" cType="1" res="-1.2649878626689315e-03" rms="3.9412453770637512e-01" purity="4.0491119027137756e-01" nType="-99"/>
        </Node>
      </Node>
    </BinaryTree>
    <BinaryTree type="DecisionTree" boostWeight="1.0000000000000000e+00" itree="14">
      <Node pos="s" depth="0" NCoef="0" IVar="2" Cut="1.9047619402408600e-01" cType="1" res="-2.2653929772786796e-04" rms="2.1754896640777588e-01" purity="4.9998727440834045e-01" nType="0">
        <Node pos="l" depth="1" NCoef="0" IVar="5" Cut="1.3834996521472931e-01" cType="1" res="9.4763323664665222e-02" rms="2.2899720072746277e-01" purity="8.6453992128372192e-01" nType="0">
          <Node pos="l" depth="2" NCoef="0" IVar="-1" Cut="0.0000000000000000e+00" cType="1" res="-3.1211271882057190e-02" rms="3.2528841495513916e-01" purity="1.2881554663181305e-01" nType="-99"/>
          <Node pos="r" depth="2" NCoef="0" IVar="-1" Cut="0.0000000000000000e+00" cType="1" res="4.3784316629171371e-02" rms="2.0484353601932526e-01" purity="9.4188785552978516e-01" nType="-99"/>
        </Node>
        <Node pos="r" depth="1" NCoef="0" IVar="2" Cut="2.6761874556541443e-01" cType="1" res="-1.2688702344894409e-01" rms="1.1151951551437378e-01" purity="1.3888996094465256e-02" nType="0">
          <Node pos="l" depth="2" NCoef="0" IVar="-1" Cut="0.0000000000000000e+00" cType="1" res="-3.6741532385349274e-02" rms="2.2674304246902466e-01" purity="6.3988275825977325e-02" nType="-99"/>
          <Node pos="r" depth="2" NCoef="0" IVar="-1" Cut="0.0000000000000000e+00" cType="1" res="-5.5979482829570770e-02" rms="7.4348859488964081e-02" purity="5.2668363787233829e-03" nType="-99"/>
        </Node>
      </Node>
    </BinaryTree>
    <BinaryTree type="DecisionTree" boostWeight="1.0000000000000000e+00" itree="15">
      <Node pos="s" depth="0" NCoef="0" IVar="2" Cut="9.5238097012042999e-02" cType="1" res="-2.8450286481529474e-04" rms="2.1176290512084961e-01" purity="4.9938535690307617e-01" nType="0">
        <Node pos="l" depth="1" NCoef="0" IVar="5" Cut="2.7264082431793213e-01" cType="1" res="1.0238899290561676e-01" rms="1.8732528388500214e-01" purity="9.4187390804290771e-01" nType="0">
          <Node pos="l" depth="2" NCoef="0" IVar="-1" Cut="0.0000000000000000e+00" cType="1" res="1.1549389921128750e-02" rms="3.4022513031959534e-01" purity="7.6950043439865112e-01" nType="-99"/>
          <Node pos="r" depth="2" NCoef="0" IVar="-1" Cut="0.0000000000000000e+00" cType="1" res="5.2233837544918060e-02" rms="1.1051806807518005e-01" purity="9.8759031295776367e-01" nType="-99"/>
        </Node>
        <Node pos="r" depth="1" NCoef="0" IVar="5" Cut="2.6859322190284729e-01" cType="1" res="-9.6812054514884949e-02" rms="1.8650498986244202e-01" purity="8.3383753895759583e-02" nType="0">
          <Node pos="l" depth="2" NCoef="0" IVar="-1" Cut="0.0000000000000000e+00" cType="1" res="-4.6354640275239944e-02" rms="1.6485927999019623e-01" purity="4.1259113699197769e-02" nType="-99"/>
          <Node pos="r" depth="2" NCoef="0" IVar="-1" Cut="0.0000000000000000e+00" cType="1" res="2.3361736908555031e-02" rms="3.4238696098327637e-01" purity="7.2411465644836426e-01" nType="-99"/>
        </Node>
      </Node>
    </BinaryTree>
    <BinaryTree type="DecisionTree" boostWeight="1.0000000000000000e+00" itree="16">
      <Node pos="s" depth="0" NCoef="0" IVar="2" Cut="8.7748833000659943e-02" cType="1" res="-3.8781200419180095e-04" rms="2.1114094555377960e-01" purity="4.9966570734977722e-01" nType="0">
        <Node pos="l" depth="1" NCoef="0" IVar="5" Cut="3.0761566758155823e-01" cType="1" res="9.4137892127037048e-02" rms="1.8518680334091187e-01" purity="9.4601446390151978e-01" nType="0">
          <Node pos="l" depth="2" NCoef="0" IVar="-1" Cut="0.0000000000000000e+00" cType="1" res="1.9092023372650146e-02" rms="3.0484771728515625e-01" purity="8.3605164289474487e-01" nType="-99"/>
          <Node pos="r" depth="2" NCoef="0" IVar="-1" Cut="0.0000000000000000e+00" cType="1" res="5.2168287336826324e-02" rms="9.9279187619686127e-02" purity="9.9004495143890381e-01" nType="-99"/>
        </Node>
        <Node pos="r" depth="1" NCoef="0" IVar="5" Cut="2.8428503870964050e-01" cType="1" res="-8.4240250289440155e-02" rms="1.9684492051601410e-01" purity="1.0371594130992889e-01" nType="0">
          <Node pos="l" depth="2" NCoef="0" IVar="-1" Cut="0.0000000000000000e+00" cType="1" res="-4.3024130165576935e-02" rms="1.7889174818992615e-01" purity="5.1739502698183060e-02" nType="-99"/>
          <Node pos="r" depth="2" NCoef="0" IVar="-1" Cut="0.0000000000000000e+00" cType="1" res="2.1137092262506485e-02" rms="3.1776052713394165e-01" purity="7.7173048257827759e-01" nType="-99"/>
        </Node>
      </Node>
    </BinaryTree>
    <BinaryTree type="DecisionTree" boostWeight="1.0000000000000000e+00" itree="17">
      <Node pos="s" depth="0" NCoef="0" IVar="2" Cut="1.9047619402408600e-01" cType="1" res="-1.8416895763948560e-03" rms="2.0698377490043640e-01" purity="4.9782744050025940e-01" nType="0">
        <Node pos="l" depth="1" NCoef="0" IVar="1" Cut="3.3333334326744080e-01" cType="1" res="6.8596489727497101e-02" rms="2.3127312958240509e-01" purity="8.5908275842666626e-01" nType="0">
          <Node pos="l" depth="2" NCoef="0" IVar="-1" Cut="0.0000000000000000e+00" cType="1" res="3.4649103879928589e-02" rms="2.2298002243041992e-01" purity="8.9894729852676392e-01" nType="-99"/>
          <Node pos="r" depth="2" NCoef="0" IVar="-1" Cut="0.0000000000000000e+00" cType="1" res="-4.9504730850458145e-02" rms="2.7133798599243164e-01" purity="6.9713950157165527e-02" nType="-99"/>
        </Node>
        <Node pos="r" depth="1" NCoef="0" IVar="2" Cut="2.2907236218452454e-01" cType="1" res="-9.6100069582462311e-02" rms="1.1433918774127960e-01" purity="1.4405678026378155e-02" nType="0">
          <Node pos="l" depth="2" NCoef="0" IVar="-1" Cut="0.0000000000000000e+00" cType="1" res="-1.8767697736620903e-02" rms="2.8094810247421265e-01" purity="9.9840544164180756e-02" nType="-99"/>
          <Node pos="r" depth="2" NCoef="0" IVar="-1" Cut="0.0000000000000000e+00" cType="1" res="-5.2185807377099991e-02" rms="8.9101836085319519e-02" purity="8.0322520807385445e-03" nType="-99"/>
        </Node>
      </Node>
    </BinaryTree>
    <BinaryTree type="DecisionTree" boostWeight="1.0000000000000000e+00" itree="18">
      <Node pos="s" depth="0" NCoef="0" IVar="5" Cut="2.3124527931213379e-01" cType="1" res="-2.2538490884471685e-04" rms="2.0353050529956818e-01" purity="5.0555914640426636e-01" nType="0">
        <Node pos="l" depth="1" NCoef="0" IVar="2" Cut="4.7619048506021500e-02" cType="1" res="-7.1527838706970215e-02" rms="2.0487716794013977e-01" purity="1.1441930383443832e-01" nType="0">
          <Node pos="l" depth="2" NCoef="0" IVar="-1" Cut="0.0000000000000000e+00" cType="1" res="1.6074618324637413e-02" rms="3.4512490034103394e-01" purity="7.6967149972915649e-01" nType="-99"/>
          <Node pos="r" depth="2" NCoef="0" IVar="-1" Cut="0.0000000000000000e+00" cType="1" res="-3.9712496101856232e-02" rms="1.8837317824363708e-01" purity="6.8931557238101959e-02" nType="-99"/>
        </Node>
        <Node pos="r" depth="1" NCoef="0" IVar="5" Cut="2.9673597216606140e-01" cType="1" res="8.0295726656913757e-02" rms="1.6905196011066437e-01" purity="9.4726914167404175e-01" nType="0">
          <Node pos="l" depth="2" NCoef="0" IVar="-1" Cut="0.0000000000000000e+00" cType="1" res="1.4678853563964367e-02" rms="2.7497372031211853e-01" purity="8.3114379644393921e-01" nType="-99"/>
          <Node pos="r" depth="2" NCoef="0" IVar="-1" Cut="0.0000000000000000e+00" cType="1" res="4.6665124595165253e-02" rms="1.3117916882038116e-01" purity="9.7389096021652222e-01" nType="-99"/>
        </Node>
      </Node>
    </BinaryTree>
    <BinaryTree type="DecisionTree" boostWeight="1.0000000000000000e+00" itree="19">
      <Node pos="s" depth="0" NCoef="0" IVar="2" Cut="1.7549766600131989e-01" cType="1" res="1.0987465502694249e-03" rms="1.9534599781036377e-01" purity="5.0217980146408081e-01" nType="0">
        <Node pos="l" depth="1" NCoef="0" IVar="1" Cut="2.3809523880481720e-01" cType="1" res="6.2943778932094574e-02" rms="2.1484152972698212e-01" purity="8.7970310449600220e-01" nType="0">
          <Node pos="l" depth="2" NCoef="0" IVar="-1" Cut="0.0000000000000000e+00" cType="1" res="3.5487990826368332e-02" rms="2.0378246903419495e-01" purity="9.2140370607376099e-01" nType="-99"/>
          <Node pos="r" depth="2" NCoef="0" IVar="-1" Cut="0.0000000000000000e+00" cType="1" res="-3.9459597319364548e-02" rms="3.0264276266098022e-01" purity="1.5247230231761932e-01" nType="-99"/>
        </Node>
        <Node pos="r" depth="1" NCoef="0" IVar="2" Cut="3.1767538189888000e-01" cType="1" res="-7.7776812016963959e-02" rms="1.2985260784626007e-01" purity="2.0696306601166725e-02" nType="0">
          <Node pos="l" depth="2" NCoef="0" IVar="-1" Cut="0.0000000000000000e+00" cType="1" res="-2.6537602767348289e-02" rms="2.1976888179779053e-01" purity="6.4465813338756561e-02" nType="-99"/>
          <Node pos="r" depth="2" NCoef="0" IVar="-1" Cut="0.0000000000000000e+00" cType="1" res="-5.2974201738834381e-02" rms="6.7969895899295807e-02" purity="4.1762944310903549e-03" nType="-99"/>
        </Node>
      </Node>
    </BinaryTree>
    <BinaryTree type="DecisionTree" boostWeight="1.0000000000000000e+00" itree="20">
      <Node pos="s" depth="0" NCoef="0" IVar="5" Cut="2.3227842152118683e-01" cType="1" res="1.0788800427690148e-03" rms="1.9535039365291595e-01" purity="5.0051051378250122e-01" nType="0">
        <Node pos="l" depth="1" NCoef="0" IVar="5" Cut="1.3413204252719879e-01" cType="1" res="-5.8256492018699646e-02" rms="2.0254278182983398e-01" purity="1.1089293658733368e-01" nType="0">
          <Node pos="l" depth="2" NCoef="0" IVar="-1" Cut="0.0000000000000000e+00" cType="1" res="-4.3020669370889664e-02" rms="1.4268714189529419e-01" purity="2.3989442735910416e-02" nType="-99"/>
          <Node pos="r" depth="2" NCoef="0" IVar="-1" Cut="0.0000000000000000e+00" cType="1" res="-4.3454002588987350e-03" rms="3.2380536198616028e-01" purity="3.9161831140518188e-01" nType="-99"/>
        </Node>
        <Node pos="r" depth="1" NCoef="0" IVar="3" Cut="5.9396755695343018e-01" cType="1" res="6.9565951824188232e-02" rms="1.6156856715679169e-01" purity="9.5022147893905640e-01" nType="0">
          <Node pos="l" depth="2" NCoef="0" IVar="-1" Cut="0.0000000000000000e+00" cType="1" res="4.2672976851463318e-02" rms="1.4029207825660706e-01" purity="9.5587098598480225e-01" nType="-99"/>
          <Node pos="r" depth="2" NCoef="0" IVar="-1" Cut="0.0000000000000000e+00" cType="1" res="7.2919875383377075e-03" rms="2.6779353618621826e-01" purity="9.0693950653076172e-01" nType="-99"/>
        </Node>
      </Node>
    </BinaryTree>
    <BinaryTree type="DecisionTree" boostWeight="1.0000000000000000e+00" itree="21">
      <Node pos="s" depth="0" NCoef="0" IVar="5" Cut="2.3331224918365479e-01" cType="1" res="-1.0419731261208653e-03" rms="1.9594764709472656e-01" purity="4.9735477566719055e-01" nType="0">
        <Node pos="l" depth="1" NCoef="0" IVar="2" Cut="2.3809523880481720e-01" cType="1" res="-5.4721854627132416e-02" rms="2.0332409441471100e-01" purity="1.1202205717563629e-01" nType="0">
          <Node pos="l" depth="2" NCoef="0" IVar="-1" Cut="0.0000000000000000e+00" cType="1" res="-6.5927021205425262e-03" rms="3.5559687018394470e-01" purity="3.7410488724708557e-01" nType="-99"/>
          <Node pos="r" depth="2" NCoef="0" IVar="-1" Cut="0.0000000000000000e+00" cType="1" res="-4.9575746059417725e-02" rms="7.9329252243041992e-02" purity="6.3600931316614151e-03" nType="-99"/>
        </Node>
        <Node pos="r" depth="1" NCoef="0" IVar="3" Cut="6.5495586395263672e-01" cType="1" res="6.1452496796846390e-02" rms="1.6645237803459167e-01" purity="9.4596159458160400e-01" nType="0">
          <Node pos="l" depth="2" NCoef="0" IVar="-1" Cut="0.0000000000000000e+00" cType="1" res="3.9177011698484421e-02" rms="1.4989566802978516e-01" purity="9.5106577873229980e-01" nType="-99"/>
          <Node pos="r" depth="2" NCoef="0" IVar="-1" Cut="0.0000000000000000e+00" cType="1" res="-7.7202878892421722e-03" rms="2.9642039537429810e-01" purity="8.8140285015106201e-01" nType="-99"/>
        </Node>
      </Node>
    </BinaryTree>
    <BinaryTree type="DecisionTree" boostWeight="1.0000000000000000e+00" itree="22">
      <Node pos="s" depth="0" NCoef="0" IVar="2" Cut="9.5238097012042999e-02" cType="1" res="2.4588170344941318e-04" rms="1.9225232303142548e-01" purity="5.0192523002624512e-01" nType="0">
        <Node pos="l" depth="1" NCoef="0" IVar="3" Cut="6.6666668653488159e-01" cType="1" res="5.7051897048950195e-02" rms="1.8773525953292847e-01" purity="9.4270694255828857e-01" nType="0">
          <Node pos="l" depth="2" NCoef="0" IVar="-1" Cut="0.0000000000000000e+00" cType="1" res="3.6564845591783524e-02" rms="1.7402067780494690e-01" purity="9.4916933774948120e-01" nType="-99"/>
          <Node pos="r" depth="2" NCoef="0" IVar="-1" Cut="0.0000000000000000e+00" cType="1" res="-1.3352484442293644e-02" rms="3.1166294217109680e-01" purity="8.5261851549148560e-01" nType="-99"/>
        </Node>
        <Node pos="r" depth="1" NCoef="0" IVar="2" Cut="2.2456769645214081e-01" cType="1" res="-5.3329974412918091e-02" rms="1.8073731660842896e-01" purity="8.6207643151283264e-02" nType="0">
          <Node pos="l" depth="2" NCoef="0" IVar="-1" Cut="0.0000000000000000e+00" cType="1" res="-3.1760751735419035e-03" rms="3.4098169207572937e-01" purity="3.6306810379028320e-01" nType="-99"/>
          <Node pos="r" depth="2" NCoef="0" IVar="-1" Cut="0.0000000000000000e+00" cType="1" res="-4.8463705927133560e-02" rms="9.2265889048576355e-02" purity="8.6134234443306923e-03" nType="-99"/>
        </Node>
      </Node>
    </BinaryTree>
    <BinaryTree type="DecisionTree" boostWeight="1.0000000000000000e+00" itree="23">
      <Node pos="s" depth="0" NCoef="0" IVar="2" Cut="1.9047619402408600e-01" cType="1" res="-8.1034313188865781e-04" rms="1.9453810155391693e-01" purity="4.9472802877426147e-01" nType="0">
        <Node pos="l" depth="1" NCoef="0" IVar="1" Cut="1.9047619402408600e-01" cType="1" res="4.1481070220470428e-02" rms="2.2823794186115265e-01" purity="8.5712438821792603e-01" nType="0">
          <Node pos="l" depth="2" NCoef="0" IVar="-1" Cut="0.0000000000000000e+00" cType="1" res="2.9266370460391045e-02" rms="2.0972831547260284e-01" purity="9.1748881340026855e-01" nType="-99"/>
          <Node pos="r" depth="2" NCoef="0" IVar="-1" Cut="0.0000000000000000e+00" cType="1" res="-2.1385343745350838e-02" rms="3.4812149405479431e-01" purity="2.5985237956047058e-01" nType="-99"/>
        </Node>
        <Node pos="r" depth="1" NCoef="0" IVar="2" Cut="2.6767745614051819e-01" cType="1" res="-5.6736070662736893e-02" rms="1.1623887717723846e-01" purity="1.5498811379075050e-02" nType="0">
          <Node pos="l" depth="2" NCoef="0" IVar="-1" Cut="0.0000000000000000e+00" cType="1" res="-1.4981389977037907e-02" rms="2.4390952289104462e-01" purity="7.6552890241146088e-02" nType="-99"/>
          <Node pos="r" depth="2" NCoef="0" IVar="-1" Cut="0.0000000000000000e+00" cType="1" res="-5.0230305641889572e-02" rms="7.3243513703346252e-02" purity="4.9432436935603619e-03" nType="-99"/>
        </Node>
      </Node>
    </BinaryTree>
    <BinaryTree type="DecisionTree" boostWeight="1.0000000000000000e+00" itree="24">
      <Node pos="s" depth="0" NCoef="0" IVar="5" Cut="2.7937144041061401e-01" cType="1" res="5.9970922302454710e-04" rms="1.8820381164550781e-01" purity="5.0398391485214233e-01" nType="0">
        <Node pos="l" depth="1" NCoef="0" IVar="2" Cut="4.5525878667831421e-02" cType="1" res="-3.7397641688585281e-02" rms="2.0889510214328766e-01" purity="1.8956246972084045e-01" nType="0">
          <Node pos="l" depth="2" NCoef="0" IVar="-1" Cut="0.0000000000000000e+00" cType="1" res="1.3796434737741947e-02" rms="2.7370741963386536e-01" purity="8.5528326034545898e-01" nType="-99"/>
          <Node pos="r" depth="2" NCoef="0" IVar="-1" Cut="0.0000000000000000e+00" cType="1" res="-3.0004598200321198e-02" rms="1.9785264134407043e-01" purity="1.0788819193840027e-01" nType="-99"/>
        </Node>
        <Node pos="r" depth="1" NCoef="0" IVar="5" Cut="3.1245493888854980e-01" cType="1" res="5.7130500674247742e-02" rms="1.3361436128616333e-01" purity="9.7176641225814819e-01" nType="0">
          <Node pos="l" depth="2" NCoef="0" IVar="-1" Cut="0.0000000000000000e+00" cType="1" res="1.0002470575273037e-02" rms="2.3747092485427856e-01" purity="8.9711534976959229e-01" nType="-99"/>
          <Node pos="r" depth="2" NCoef="0" IVar="-1" Cut="0.0000000000000000e+00" cType="1" res="4.5124892145395279e-02" rms="1.1258752644062042e-01" purity="9.8133158683776855e-01" nType="-99"/>
        </Node>
      </Node>
    </BinaryTree>
    <BinaryTree type="DecisionTree" boostWeight="1.0000000000000000e+00" itree="25">
      <Node pos="s" depth="0" NCoef="0" IVar="5" Cut="2.3124527931213379e-01" cType="1" res="2.3450516164302826e-03" rms="1.9243989884853363e-01" purity="5.0408452749252319e-01" nType="0">
        <Node pos="l" depth="1" NCoef="0" IVar="3" Cut="5.4123532772064209e-01" cType="1" res="-3.5198539495468140e-02" rms="2.0775189995765686e-01" purity="1.1276683956384659e-01" nType="0">
          <Node pos="l" depth="2" NCoef="0" IVar="-1" Cut="0.0000000000000000e+00" cType="1" res="-2.0385468378663063e-02" rms="1.9611787796020508e-01" purity="1.0230296105146408e-01" nType="-99"/>
          <Node pos="r" depth="2" NCoef="0" IVar="-1" Cut="0.0000000000000000e+00" cType="1" res="-4.8077020794153214e-02" rms="3.4318345785140991e-01" purity="3.0608299374580383e-01" nType="-99"/>
        </Node>
        <Node pos="r" depth="1" NCoef="0" IVar="3" Cut="5.5854153633117676e-01" cType="1" res="4.4980548322200775e-02" rms="1.6326607763767242e-01" purity="9.4847524166107178e-01" nType="0">
          <Node pos="l" depth="2" NCoef="0" IVar="-1" Cut="0.0000000000000000e+00" cType="1" res="3.7643875926733017e-02" rms="1.3668204843997955e-01" purity="9.5558094978332520e-01" nType="-99"/>
          <Node pos="r" depth="2" NCoef="0" IVar="-1" Cut="0.0000000000000000e+00" cType="1" res="1.7238761065527797e-03" rms="2.6528880000114441e-01" purity="9.0764766931533813e-01" nType="-99"/>
        </Node>
      </Node>
    </BinaryTree>
    <BinaryTree type="DecisionTree" boostWeight="1.0000000000000000e+00" itree="26">
      <Node pos="s" depth="0" NCoef="0" IVar="1" Cut="1.4285714924335480e-01" cType="1" res="3.8729346124455333e-04" rms="1.8918472528457642e-01" purity="5.0040376186370850e-01" nType="0">
        <Node pos="l" depth="1" NCoef="0" IVar="2" Cut="3.0364933609962463e-01" cType="1" res="3.6704253405332565e-02" rms="2.0199494063854218e-01" purity="8.4033685922622681e-01" nType="0">
          <Node pos="l" depth="2" NCoef="0" IVar="-1" Cut="0.0000000000000000e+00" cType="1" res="2.8736876323819160e-02" rms="2.0598599314689636e-01" purity="9.0549737215042114e-01" nType="-99"/>
          <Node pos="r" depth="2" NCoef="0" IVar="-1" Cut="0.0000000000000000e+00" cType="1" res="-5.1469758152961731e-02" rms="9.3962252140045166e-02" purity="5.9682093560695648e-03" nType="-99"/>
        </Node>
        <Node pos="r" depth="1" NCoef="0" IVar="1" Cut="6.3265407085418701e-01" cType="1" res="-4.2768795043230057e-02" rms="1.6250026226043701e-01" purity="9.6455171704292297e-02" nType="0">
          <Node pos="l" depth="2" NCoef="0" IVar="-1" Cut="0.0000000000000000e+00" cType="1" res="-2.9595341533422470e-02" rms="1.6459059715270996e-01" purity="1.0370995849370956e-01" nType="-99"/>
          <Node pos="r" depth="2" NCoef="0" IVar="-1" Cut="0.0000000000000000e+00" cType="1" res="-6.0618013143539429e-02" rms="1.1413693428039551e-01" purity="3.5465047694742680e-03" nType="-99"/>
        </Node>
      </Node>
    </BinaryTree>
    <BinaryTree type="DecisionTree" boostWeight="1.0000000000000000e+00" itree="27">
      <Node pos="s" depth="0" NCoef="0" IVar="2" Cut="2.3809523880481720e-01" cType="1" res="3.2442482188344002e-04" rms="1.8451562523841858e-01" purity="4.9829611182212830e-01" nType="0">
        <Node pos="l" depth="1" NCoef="0" IVar="1" Cut="4.7619047760963440e-01" cType="1" res="3.0810952186584473e-02" rms="2.2138296067714691e-01" purity="8.1792563199996948e-01" nType="0">
          <Node pos="l" depth="2" NCoef="0" IVar="-1" Cut="0.0000000000000000e+00" cType="1" res="2.3537551984190941e-02" rms="2.2083291411399841e-01" purity="8.5855770111083984e-01" nType="-99"/>
          <Node pos="r" depth="2" NCoef="0" IVar="-1" Cut="0.0000000000000000e+00" cType="1" res="-4.6756949275732040e-02" rms="1.9382871687412262e-01" purity="3.1249014660716057e-02" nType="-99"/>
        </Node>
        <Node pos="r" depth="1" NCoef="0" IVar="2" Cut="5.6463205814361572e-01" cType="1" res="-4.6459354460239410e-02" rms="8.6412154138088226e-02" purity="7.8015476465225220e-03" nType="0">
          <Node pos="l" depth="2" NCoef="0" IVar="-1" Cut="0.0000000000000000e+00" cType="1" res="-4.3846908956766129e-02" rms="9.1145098209381104e-02" purity="9.2519074678421021e-03" nType="-99"/>
          <Node pos="r" depth="2" NCoef="0" IVar="-1" Cut="0.0000000000000000e+00" cType="1" res="-5.5798571556806564e-02" rms="5.0160963088274002e-02" purity="0.0000000000000000e+00" nType="-99"/>
        </Node>
      </Node>
    </BinaryTree>
    <BinaryTree type="DecisionTree" boostWeight="1.0000000000000000e+00" itree="28">
      <Node pos="s" depth="0" NCoef="0" IVar="5" Cut="3.0796957015991211e-01" cType="1" res="-5.7217862922698259e-04" rms="1.8498235940933228e-01" purity="5.0076073408126831e-01" nType="0">
        <Node pos="l" depth="1" NCoef="0" IVar="4" Cut="6.7277909256517887e-03" cType="1" res="-2.6839330792427063e-02" rms="2.0986439287662506e-01" purity="2.2539496421813965e-01" nType="0">
          <Node pos="l" depth="2" NCoef="0" IVar="-1" Cut="0.0000000000000000e+00" cType="1" res="-6.6225007176399231e-02" rms="2.9087412357330322e-01" purity="3.6826583743095398e-01" nType="-99"/>
          <Node pos="r" depth="2" NCoef="0" IVar="-1" Cut="0.0000000000000000e+00" cType="1" res="-1.4847688376903534e-02" rms="2.0090952515602112e-01" purity="2.1429452300071716e-01" nType="-99"/>
        </Node>
        <Node pos="r" depth="1" NCoef="0" IVar="3" Cut="8.6720362305641174e-02" cType="1" res="4.4904779642820358e-02" rms="1.1809407919645309e-01" purity="9.7750806808471680e-01" nType="0">
          <Node pos="l" depth="2" NCoef="0" IVar="-1" Cut="0.0000000000000000e+00" cType="1" res="4.8212066292762756e-02" rms="7.6929740607738495e-02" purity="9.9079060554504395e-01" nType="-99"/>
          <Node pos="r" depth="2" NCoef="0" IVar="-1" Cut="0.0000000000000000e+00" cType="1" res="2.6279387995600700e-02" rms="1.6934128105640411e-01" purity="9.5277035236358643e-01" nType="-99"/>
        </Node>
      </Node>
    </BinaryTree>
    <BinaryTree type="DecisionTree" boostWeight="1.0000000000000000e+00" itree="29">
      <Node pos="s" depth="0" NCoef="0" IVar="2" Cut="9.5238097012042999e-02" cType="1" res="-1.6232796479016542e-03" rms="1.8020139634609222e-01" purity="4.9658435583114624e-01" nType="0">
        <Node pos="l" depth="1" NCoef="0" IVar="2" Cut="6.3455842435359955e-02" cType="1" res="3.4164689481258392e-02" rms="1.8062174320220947e-01" purity="9.4157993793487549e-01" nType="0">
          <Node pos="l" depth="2" NCoef="0" IVar="-1" Cut="0.0000000000000000e+00" cType="1" res="3.2632194459438324e-02" rms="1.5581832826137543e-01" purity="9.6057224273681641e-01" nType="-99"/>
          <Node pos="r" depth="2" NCoef="0" IVar="-1" Cut="0.0000000000000000e+00" cType="1" res="-3.5797453019768000e-03" rms="2.8524333238601685e-01" purity="8.2625591754913330e-01" nType="-99"/>
        </Node>
        <Node pos="r" depth="1" NCoef="0" IVar="4" Cut="1.0611542500555515e-02" cType="1" res="-3.5149570554494858e-02" rms="1.7322413623332977e-01" purity="7.9710982739925385e-02" nType="0">
          <Node pos="l" depth="2" NCoef="0" IVar="-1" Cut="0.0000000000000000e+00" cType="1" res="-5.1925543695688248e-02" rms="1.8018379807472229e-01" purity="8.7724626064300537e-02" nType="-99"/>
          <Node pos="r" depth="2" NCoef="0" IVar="-1" Cut="0.0000000000000000e+00" cType="1" res="-2.2562693804502487e-02" rms="1.7036612331867218e-01" purity="7.7940374612808228e-02" nType="-99"/>
        </Node>
      </Node>
    </BinaryTree>
    <BinaryTree type="DecisionTree" boostWeight="1.0000000000000000e+00" itree="30">
      <Node pos="s" depth="0" NCoef="0" IVar="2" Cut="2.3809523880481720e-01" cType="1" res="-3.9645942160859704e-04" rms="1.8535573780536652e-01" purity="4.9806836247444153e-01" nType="0">
        <Node pos="l" depth="1" NCoef="0" IVar="3" Cut="5.9396755695343018e-01" cType="1" res="2.3336926475167274e-02" rms="2.2365468740463257e-01" purity="8.1737077236175537e-01" nType="0">
          <Node pos="l" depth="2" NCoef="0" IVar="-1" Cut="0.0000000000000000e+00" cType="1" res="2.2777555510401726e-02" rms="2.1039623022079468e-01" purity="8.2168227434158325e-01" nType="-99"/>
          <Node pos="r" depth="2" NCoef="0" IVar="-1" Cut="0.0000000000000000e+00" cType="1" res="-2.7609471231698990e-02" rms="2.9674610495567322e-01" purity="7.8447943925857544e-01" nType="-99"/>
        </Node>
        <Node pos="r" depth="1" NCoef="0" IVar="2" Cut="3.1067648530006409e-01" cType="1" res="-3.6792896687984467e-02" rms="9.0253077447414398e-02" purity="8.4007643163204193e-03" nType="0">
          <Node pos="l" depth="2" NCoef="0" IVar="-1" Cut="0.0000000000000000e+00" cType="1" res="-2.1573226898908615e-02" rms="1.6197310388088226e-01" purity="2.9994096606969833e-02" nType="-99"/>
          <Node pos="r" depth="2" NCoef="0" IVar="-1" Cut="0.0000000000000000e+00" cType="1" res="-4.8115570098161697e-02" rms="6.6717192530632019e-02" purity="4.0696868672966957e-03" nType="-99"/>
        </Node>
      </Node>
    </BinaryTree>
    <BinaryTree type="DecisionTree" boostWeight="1.0000000000000000e+00" itree="31">
      <Node pos="s" depth="0" NCoef="0" IVar="5" Cut="3.0785295367240906e-01" cType="1" res="-2.1295864135026932e-03" rms="1.8367929756641388e-01" purity="5.0103116035461426e-01" nType="0">
        <Node pos="l" depth="1" NCoef="0" IVar="4" Cut="6.7277909256517887e-03" cType="1" res="-2.4531822651624680e-02" rms="2.0881126821041107e-01" purity="2.2692249715328217e-01" nType="0">
          <Node pos="l" depth="2" NCoef="0" IVar="-1" Cut="0.0000000000000000e+00" cType="1" res="-6.2998108565807343e-02" rms="2.8940570354461670e-01" purity="3.6363637447357178e-01" nType="-99"/>
          <Node pos="r" depth="2" NCoef="0" IVar="-1" Cut="0.0000000000000000e+00" cType="1" res="-1.4548341743648052e-02" rms="2.0061706006526947e-01" purity="2.1698477864265442e-01" nType="-99"/>
        </Node>
        <Node pos="r" depth="1" NCoef="0" IVar="4" Cut="5.6455736048519611e-03" cType="1" res="3.6700475960969925e-02" rms="1.1942753195762634e-01" purity="9.7614699602127075e-01" nType="0">
          <Node pos="l" depth="2" NCoef="0" IVar="-1" Cut="0.0000000000000000e+00" cType="1" res="9.7276624292135239e-03" rms="1.8006166815757751e-01" purity="9.4745939970016479e-01" nType="-99"/>
          <Node pos="r" depth="2" NCoef="0" IVar="-1" Cut="0.0000000000000000e+00" cType="1" res="4.3138589709997177e-02" rms="9.8662331700325012e-02" purity="9.8295331001281738e-01" nType="-99"/>
        </Node>
      </Node>
    </BinaryTree>
    <BinaryTree type="DecisionTree" boostWeight="1.0000000000000000e+00" itree="32">
      <Node pos="s" depth="0" NCoef="0" IVar="5" Cut="1.4070700109004974e-01" cType="1" res="4.9007660709321499e-04" rms="1.7897509038448334e-01" purity="5.0669533014297485e-01" nType="0">
        <Node pos="l" depth="1" NCoef="0" IVar="3" Cut="4.3212321400642395e-01" cType="1" res="-3.1589444726705551e-02" rms="1.4751021564006805e-01" purity="2.5657288730144501e-02" nType="0">
          <Node pos="l" depth="2" NCoef="0" IVar="-1" Cut="0.0000000000000000e+00" cType="1" res="-2.8824230656027794e-02" rms="1.4357677102088928e-01" purity="2.5307444855570793e-02" nType="-99"/>
          <Node pos="r" depth="2" NCoef="0" IVar="-1" Cut="0.0000000000000000e+00" cType="1" res="-4.7854609787464142e-02" rms="1.7952303588390350e-01" purity="3.0013764277100563e-02" nType="-99"/>
        </Node>
        <Node pos="r" depth="1" NCoef="0" IVar="2" Cut="3.4093374013900757e-01" cType="1" res="2.3430977016687393e-02" rms="1.9523377716541290e-01" purity="8.5069811344146729e-01" nType="0">
          <Node pos="l" depth="2" NCoef="0" IVar="-1" Cut="0.0000000000000000e+00" cType="1" res="2.3133428767323494e-02" rms="2.0013178884983063e-01" purity="9.1868531703948975e-01" nType="-99"/>
          <Node pos="r" depth="2" NCoef="0" IVar="-1" Cut="0.0000000000000000e+00" cType="1" res="-5.2541069686412811e-02" rms="8.1082880496978760e-02" purity="4.0246667340397835e-03" nType="-99"/>
        </Node>
      </Node>
    </BinaryTree>
    <BinaryTree type="DecisionTree" boostWeight="1.0000000000000000e+00" itree="33">
      <Node pos="s" depth="0" NCoef="0" IVar="5" Cut="1.4070700109004974e-01" cType="1" res="1.7627335619181395e-03" rms="1.7963649332523346e-01" purity="5.0537639856338501e-01" nType="0">
        <Node pos="l" depth="1" NCoef="0" IVar="5" Cut="1.1426555365324020e-01" cType="1" res="-2.8405068442225456e-02" rms="1.4662221074104309e-01" purity="2.5098182260990143e-02" nType="0">
          <Node pos="l" depth="2" NCoef="0" IVar="-1" Cut="0.0000000000000000e+00" cType="1" res="-3.7212617695331573e-02" rms="1.2550202012062073e-01" purity="1.6650494188070297e-02" nType="-99"/>
          <Node pos="r" depth="2" NCoef="0" IVar="-1" Cut="0.0000000000000000e+00" cType="1" res="8.7403692305088043e-03" rms="2.5103083252906799e-01" purity="8.8704913854598999e-02" nType="-99"/>
        </Node>
        <Node pos="r" depth="1" NCoef="0" IVar="2" Cut="3.4396472573280334e-01" cType="1" res="2.3400504142045975e-02" rms="1.9716471433639526e-01" purity="8.4985458850860596e-01" nType="0">
          <Node pos="l" depth="2" NCoef="0" IVar="-1" Cut="0.0000000000000000e+00" cType="1" res="2.2912563756108284e-02" rms="2.0166321098804474e-01" purity="9.1606539487838745e-01" nType="-99"/>
          <Node pos="r" depth="2" NCoef="0" IVar="-1" Cut="0.0000000000000000e+00" cType="1" res="-4.7820601612329483e-02" rms="1.0105963796377182e-01" purity="8.1824781373143196e-03" nType="-99"/>
        </Node>
      </Node>
    </BinaryTree>
    <BinaryTree type="DecisionTree" boostWeight="1.0000000000000000e+00" itree="34">
      <Node pos="s" depth="0" NCoef="0" IVar="5" Cut="2.7927985787391663e-01" cType="1" res="-1.3716997345909476e-03" rms="1.8006706237792969e-01" purity="4.9639433622360229e-01" nType="0">
        <Node pos="l" depth="1" NCoef="0" IVar="3" Cut="5.7142859697341919e-01" cType="1" res="-2.0935581997036934e-02" rms="2.0140232145786285e-01" purity="1.7757235467433929e-01" nType="0">
          <Node pos="l" depth="2" NCoef="0" IVar="-1" Cut="0.0000000000000000e+00" cType="1" res="-1.4101244509220123e-02" rms="1.8827129900455475e-01" purity="1.6318711638450623e-01" nType="-99"/>
          <Node pos="r" depth="2" NCoef="0" IVar="-1" Cut="0.0000000000000000e+00" cType="1" res="-4.3920554220676422e-02" rms="3.6543646454811096e-01" purity="4.6609529852867126e-01" nType="-99"/>
        </Node>
        <Node pos="r" depth="1" NCoef="0" IVar="4" Cut="6.7918398417532444e-03" cType="1" res="2.7626203373074532e-02" rms="1.3766837120056152e-01" purity="9.6895736455917358e-01" nType="0">
          <Node pos="l" depth="2" NCoef="0" IVar="-1" Cut="0.0000000000000000e+00" cType="1" res="9.9238501861691475e-03" rms="1.7070527374744415e-01" purity="9.4773584604263306e-01" nType="-99"/>
          <Node pos="r" depth="2" NCoef="0" IVar="-1" Cut="0.0000000000000000e+00" cType="1" res="3.8254454731941223e-02" rms="1.2000443041324615e-01" purity="9.7798681259155273e-01" nType="-99"/>
        </Node>
      </Node>
    </BinaryTree>
    <BinaryTree type="DecisionTree" boostWeight="1.0000000000000000e+00" itree="35">
      <Node pos="s" depth="0" NCoef="0" IVar="2" Cut="4.3683417141437531e-02" cType="1" res="-5.5780506227165461e-04" rms="1.8361261487007141e-01" purity="5.0013297796249390e-01" nType="0">
        <Node pos="l" depth="1" NCoef="0" IVar="2" Cut="6.2371278181672096e-03" cType="1" res="2.9673801735043526e-02" rms="1.4342281222343445e-01" purity="9.6616488695144653e-01" nType="0">
          <Node pos="l" depth="2" NCoef="0" IVar="-1" Cut="0.0000000000000000e+00" cType="1" res="6.3381353393197060e-03" rms="1.4484684169292450e-01" purity="9.0568393468856812e-01" nType="-99"/>
          <Node pos="r" depth="2" NCoef="0" IVar="-1" Cut="0.0000000000000000e+00" cType="1" res="3.3851746469736099e-02" rms="1.4293792843818665e-01" purity="9.7456198930740356e-01" nType="-99"/>
        </Node>
        <Node pos="r" depth="1" NCoef="0" IVar="3" Cut="5.8568608760833740e-01" cType="1" res="-1.5644015744328499e-02" rms="1.9896933436393738e-01" purity="2.6757323741912842e-01" nType="0">
          <Node pos="l" depth="2" NCoef="0" IVar="-1" Cut="0.0000000000000000e+00" cType="1" res="-1.0047567076981068e-02" rms="1.8606053292751312e-01" purity="2.4547737836837769e-01" nType="-99"/>
          <Node pos="r" depth="2" NCoef="0" IVar="-1" Cut="0.0000000000000000e+00" cType="1" res="-5.0301320850849152e-02" rms="3.3597016334533691e-01" purity="6.2508445978164673e-01" nType="-99"/>
        </Node>
      </Node>
    </BinaryTree>
    <BinaryTree type="DecisionTree" boostWeight="1.0000000000000000e+00" itree="36">
      <Node pos="s" depth="0" NCoef="0" IVar="5" Cut="3.2547083497047424e-01" cType="1" res="-2.0513188792392612e-04" rms="1.8288691341876984e-01" purity="4.9648299813270569e-01" nType="0">
        <Node pos="l" depth="1" NCoef="0" IVar="4" Cut="5.9287617914378643e-03" cType="1" res="-1.5037227421998978e-02" rms="2.1016645431518555e-01" purity="2.4225766956806183e-01" nType="0">
          <Node pos="l" depth="2" NCoef="0" IVar="-1" Cut="0.0000000000000000e+00" cType="1" res="-8.2346156239509583e-02" rms="2.9096937179565430e-01" purity="3.5872340202331543e-01" nType="-99"/>
          <Node pos="r" depth="2" NCoef="0" IVar="-1" Cut="0.0000000000000000e+00" cType="1" res="-8.6176833137869835e-03" rms="2.0407554507255554e-01" purity="2.3651976883411407e-01" nType="-99"/>
        </Node>
        <Node pos="r" depth="1" NCoef="0" IVar="4" Cut="6.3362852670252323e-03" cType="1" res="2.8026184067130089e-02" rms="1.0873404890298843e-01" purity="9.8037403821945190e-01" nType="0">
          <Node pos="l" depth="2" NCoef="0" IVar="-1" Cut="0.0000000000000000e+00" cType="1" res="1.8655493855476379e-02" rms="1.4400693774223328e-01" purity="9.6249425411224365e-01" nType="-99"/>
          <Node pos="r" depth="2" NCoef="0" IVar="-1" Cut="0.0000000000000000e+00" cType="1" res="4.2296942323446274e-02" rms="9.1364152729511261e-02" purity="9.8716115951538086e-01" nType="-99"/>
        </Node>
      </Node>
    </BinaryTree>
    <BinaryTree type="DecisionTree" boostWeight="1.0000000000000000e+00" itree="37">
      <Node pos="s" depth="0" NCoef="0" IVar="2" Cut="2.3809523880481720e-01" cType="1" res="9.4926898600533605e-04" rms="1.8202035129070282e-01" purity="5.0111299753189087e-01" nType="0">
        <Node pos="l" depth="1" NCoef="0" IVar="3" Cut="1.3706943392753601e-01" cType="1" res="1.7853526398539543e-02" rms="2.2021473944187164e-01" purity="8.1671941280364990e-01" nType="0">
          <Node pos="l" depth="2" NCoef="0" IVar="-1" Cut="0.0000000000000000e+00" cType="1" res="3.8202956318855286e-02" rms="1.7195381224155426e-01" purity="9.0834575891494751e-01" nType="-99"/>
          <Node pos="r" depth="2" NCoef="0" IVar="-1" Cut="0.0000000000000000e+00" cType="1" res="-1.9391778623685241e-03" rms="2.6389244198799133e-01" purity="7.1035671234130859e-01" nType="-99"/>
        </Node>
        <Node pos="r" depth="1" NCoef="0" IVar="2" Cut="5.6463778018951416e-01" cType="1" res="-2.5390798225998878e-02" rms="8.9742250740528107e-02" purity="9.3377726152539253e-03" nType="0">
          <Node pos="l" depth="2" NCoef="0" IVar="-1" Cut="0.0000000000000000e+00" cType="1" res="-3.5246714949607849e-02" rms="9.6006020903587341e-02" purity="1.1090116575360298e-02" nType="-99"/>
          <Node pos="r" depth="2" NCoef="0" IVar="-1" Cut="0.0000000000000000e+00" cType="1" res="-5.4279025644063950e-02" rms="3.9367578923702240e-02" purity="0.0000000000000000e+00" nType="-99"/>
        </Node>
      </Node>
    </BinaryTree>
    <BinaryTree type="DecisionTree" boostWeight="1.0000000000000000e+00" itree="38">
      <Node pos="s" depth="0" NCoef="0" IVar="1" Cut="1.9047619402408600e-01" cType="1" res="-8.6267542792484164e-04" rms="1.8123386800289154e-01" purity="5.0231277942657471e-01" nType="0">
        <Node pos="l" depth="1" NCoef="0" IVar="3" Cut="6.3965731859207153e-01" cType="1" res="1.4385635033249855e-02" rms="1.9681966304779053e-01" purity="7.8492403030395508e-01" nType="0">
          <Node pos="l" depth="2" NCoef="0" IVar="-1" Cut="0.0000000000000000e+00" cType="1" res="1.8537804484367371e-02" rms="1.8464706838130951e-01" purity="7.8347796201705933e-01" nType="-99"/>
          <Node pos="r" depth="2" NCoef="0" IVar="-1" Cut="0.0000000000000000e+00" cType="1" res="-3.3393766731023788e-02" rms="2.9822003841400146e-01" purity="8.0205732583999634e-01" nType="-99"/>
        </Node>
        <Node pos="r" depth="1" NCoef="0" IVar="3" Cut="3.7212654948234558e-01" cType="1" res="-2.5708116590976715e-02" rms="1.4916023612022400e-01" purity="4.1828952729701996e-02" nType="0">
          <Node pos="l" depth="2" NCoef="0" IVar="-1" Cut="0.0000000000000000e+00" cType="1" res="-2.6541287079453468e-02" rms="1.4086893200874329e-01" purity="4.0150210261344910e-02" nType="-99"/>
          <Node pos="r" depth="2" NCoef="0" IVar="-1" Cut="0.0000000000000000e+00" cType="1" res="-5.8245006948709488e-02" rms="2.2018775343894958e-01" purity="6.2984660267829895e-02" nType="-99"/>
        </Node>
      </Node>
    </BinaryTree>
    <BinaryTree type="DecisionTree" boostWeight="1.0000000000000000e+00" itree="39">
      <Node pos="s" depth="0" NCoef="0" IVar="1" Cut="2.3809523880481720e-01" cType="1" res="-6.4237909100484103e-05" rms="1.7879216372966766e-01" purity="5.0209730863571167e-01" nType="0">
        <Node pos="l" depth="1" NCoef="0" IVar="3" Cut="9.1379620134830475e-02" cType="1" res="1.2352347373962402e-02" rms="1.9808173179626465e-01" purity="7.2585868835449219e-01" nType="0">
          <Node pos="l" depth="2" NCoef="0" IVar="-1" Cut="0.0000000000000000e+00" cType="1" res="4.2255491018295288e-02" rms="1.3476508855819702e-01" purity="9.4238168001174927e-01" nType="-99"/>
          <Node pos="r" depth="2" NCoef="0" IVar="-1" Cut="0.0000000000000000e+00" cType="1" res="-2.8383834287524223e-03" rms="2.3400655388832092e-01" purity="5.6023776531219482e-01" nType="-99"/>
        </Node>
        <Node pos="r" depth="1" NCoef="0" IVar="1" Cut="6.3720160722732544e-01" cType="1" res="-2.6708431541919708e-02" rms="1.2379861623048782e-01" purity="2.1937852725386620e-02" nType="0">
          <Node pos="l" depth="2" NCoef="0" IVar="-1" Cut="0.0000000000000000e+00" cType="1" res="-3.1095655634999275e-02" rms="1.2378286570310593e-01" purity="2.3760074749588966e-02" nType="-99"/>
          <Node pos="r" depth="2" NCoef="0" IVar="-1" Cut="0.0000000000000000e+00" cType="1" res="-5.6939557194709778e-02" rms="1.1450076848268509e-01" purity="5.4618329741060734e-03" nType="-99"/>
        </Node>
      </Node>
    </BinaryTree>
    <BinaryTree type="DecisionTree" boostWeight="1.0000000000000000e+00" itree="40">
      <Node pos="s" depth="0" NCoef="0" IVar="2" Cut="2.3809523880481720e-01" cType="1" res="1.3992952881380916e-03" rms="1.7752061784267426e-01" purity="5.0195837020874023e-01" nType="0">
        <Node pos="l" depth="1" NCoef="0" IVar="1" Cut="4.7619047760963440e-01" cType="1" res="1.6053402796387672e-02" rms="2.1466617286205292e-01" purity="8.1724536418914795e-01" nType="0">
          <Node pos="l" depth="2" NCoef="0" IVar="-1" Cut="0.0000000000000000e+00" cType="1" res="1.6888299956917763e-02" rms="2.1633675694465637e-01" purity="8.5314255952835083e-01" nType="-99"/>
          <Node pos="r" depth="2" NCoef="0" IVar="-1" Cut="0.0000000000000000e+00" cType="1" res="-5.1880892366170883e-02" rms="1.4276960492134094e-01" purity="1.3281207531690598e-02" nType="-99"/>
        </Node>
        <Node pos="r" depth="1" NCoef="0" IVar="2" Cut="4.9209329485893250e-01" cType="1" res="-2.1552244201302528e-02" rms="8.8508710265159607e-02" purity="8.1499405205249786e-03" nType="0">
          <Node pos="l" depth="2" NCoef="0" IVar="-1" Cut="0.0000000000000000e+00" cType="1" res="-3.0745629221200943e-02" rms="1.0430254787206650e-01" purity="1.1774841696023941e-02" nType="-99"/>
          <Node pos="r" depth="2" NCoef="0" IVar="-1" Cut="0.0000000000000000e+00" cType="1" res="-5.3074475377798080e-02" rms="2.8805255889892578e-02" purity="0.0000000000000000e+00" nType="-99"/>
        </Node>
      </Node>
    </BinaryTree>
    <BinaryTree type="DecisionTree" boostWeight="1.0000000000000000e+00" itree="41">
      <Node pos="s" depth="0" NCoef="0" IVar="2" Cut="4.7619048506021500e-02" cType="1" res="-7.3499180143699050e-04" rms="1.7829884588718414e-01" purity="4.9772810935974121e-01" nType="0">
        <Node pos="l" depth="1" NCoef="0" IVar="4" Cut="4.6565514057874680e-03" cType="1" res="2.1669002249836922e-02" rms="1.4129000902175903e-01" purity="9.6575748920440674e-01" nType="0">
          <Node pos="l" depth="2" NCoef="0" IVar="-1" Cut="0.0000000000000000e+00" cType="1" res="-8.6823310703039169e-03" rms="1.9457249343395233e-01" purity="9.4904452562332153e-01" nType="-99"/>
          <Node pos="r" depth="2" NCoef="0" IVar="-1" Cut="0.0000000000000000e+00" cType="1" res="2.9725976288318634e-02" rms="1.3281947374343872e-01" purity="9.6782243251800537e-01" nType="-99"/>
        </Node>
        <Node pos="r" depth="1" NCoef="0" IVar="4" Cut="7.1378168649971485e-03" cType="1" res="-1.3004441745579243e-02" rms="1.9453121721744537e-01" purity="2.4141384661197662e-01" nType="0">
          <Node pos="l" depth="2" NCoef="0" IVar="-1" Cut="0.0000000000000000e+00" cType="1" res="-7.2011865675449371e-02" rms="2.6337260007858276e-01" purity="3.0264005064964294e-01" nType="-99"/>
          <Node pos="r" depth="2" NCoef="0" IVar="-1" Cut="0.0000000000000000e+00" cType="1" res="-7.2310524992644787e-03" rms="1.8643960356712341e-01" purity="2.3633830249309540e-01" nType="-99"/>
        </Node>
      </Node>
    </BinaryTree>
    <BinaryTree type="DecisionTree" boostWeight="1.0000000000000000e+00" itree="42">
      <Node pos="s" depth="0" NCoef="0" IVar="2" Cut="3.1868115067481995e-01" cType="1" res="2.7074781246483326e-03" rms="1.7363828420639038e-01" purity="5.0586402416229248e-01" nType="0">
        <Node pos="l" depth="1" NCoef="0" IVar="1" Cut="4.2857143282890320e-01" cType="1" res="1.3511371798813343e-02" rms="2.0358696579933167e-01" purity="7.3871874809265137e-01" nType="0">
          <Node pos="l" depth="2" NCoef="0" IVar="-1" Cut="0.0000000000000000e+00" cType="1" res="1.6850410029292107e-02" rms="2.0830461382865906e-01" purity="8.0743271112442017e-01" nType="-99"/>
          <Node pos="r" depth="2" NCoef="0" IVar="-1" Cut="0.0000000000000000e+00" cType="1" res="-4.3967816978693008e-02" rms="1.3235281407833099e-01" purity="1.4737108722329140e-02" nType="-99"/>
        </Node>
        <Node pos="r" depth="1" NCoef="0" IVar="2" Cut="6.2220525741577148e-01" cType="1" res="-2.0533872768282890e-02" rms="7.1105599403381348e-02" purity="4.9465745687484741e-03" nType="0">
          <Node pos="l" depth="2" NCoef="0" IVar="-1" Cut="0.0000000000000000e+00" cType="1" res="-3.9748892188072205e-02" rms="7.3604792356491089e-02" purity="5.4990989156067371e-03" nType="-99"/>
          <Node pos="r" depth="2" NCoef="0" IVar="-1" Cut="0.0000000000000000e+00" cType="1" res="-5.4206389933824539e-02" rms="3.8773111999034882e-02" purity="0.0000000000000000e+00" nType="-99"/>
        </Node>
      </Node>
    </BinaryTree>
    <BinaryTree type="DecisionTree" boostWeight="1.0000000000000000e+00" itree="43">
      <Node pos="s" depth="0" NCoef="0" IVar="3" Cut="8.6782656610012054e-02" cType="1" res="-6.0331472195684910e-04" rms="1.7675773799419403e-01" purity="5.0000190734863281e-01" nType="0">
        <Node pos="l" depth="1" NCoef="0" IVar="1" Cut="4.7619047760963440e-01" cType="1" res="1.6334300860762596e-02" rms="1.4017681777477264e-01" purity="6.8648064136505127e-01" nType="0">
          <Node pos="l" depth="2" NCoef="0" IVar="-1" Cut="0.0000000000000000e+00" cType="1" res="3.6258667707443237e-02" rms="1.4441649615764618e-01" purity="8.1026619672775269e-01" nType="-99"/>
          <Node pos="r" depth="2" NCoef="0" IVar="-1" Cut="0.0000000000000000e+00" cType="1" res="-4.3802194297313690e-02" rms="1.0294786840677261e-01" purity="8.2924654707312584e-03" nType="-99"/>
        </Node>
        <Node pos="r" depth="1" NCoef="0" IVar="0" Cut="-8.9985537528991699e-01" cType="1" res="-1.2467445805668831e-02" rms="1.9754128158092499e-01" purity="3.6938086152076721e-01" nType="0">
          <Node pos="l" depth="2" NCoef="0" IVar="-1" Cut="0.0000000000000000e+00" cType="1" res="2.9233988374471664e-02" rms="1.7941194772720337e-01" purity="4.2889991402626038e-01" nType="-99"/>
          <Node pos="r" depth="2" NCoef="0" IVar="-1" Cut="0.0000000000000000e+00" cType="1" res="-1.7334923148155212e-02" rms="1.9921828806400299e-01" purity="3.6122280359268188e-01" nType="-99"/>
        </Node>
      </Node>
    </BinaryTree>
    <BinaryTree type="DecisionTree" boostWeight="1.0000000000000000e+00" itree="44">
      <Node pos="s" depth="0" NCoef="0" IVar="2" Cut="9.1051757335662842e-02" cType="1" res="-4.3240099330432713e-04" rms="1.7354717850685120e-01" purity="5.0501209497451782e-01" nType="0">
        <Node pos="l" depth="1" NCoef="0" IVar="3" Cut="4.6691662073135376e-01" cType="1" res="1.3875717297196388e-02" rms="1.7109686136245728e-01" purity="9.4440037012100220e-01" nType="0">
          <Node pos="l" depth="2" NCoef="0" IVar="-1" Cut="0.0000000000000000e+00" cType="1" res="2.5135301053524017e-02" rms="1.4496845006942749e-01" purity="9.5784080028533936e-01" nType="-99"/>
          <Node pos="r" depth="2" NCoef="0" IVar="-1" Cut="0.0000000000000000e+00" cType="1" res="-6.9413967430591583e-03" rms="2.4354740977287292e-01" purity="8.9438372850418091e-01" nType="-99"/>
        </Node>
        <Node pos="r" depth="1" NCoef="0" IVar="4" Cut="1.2531499378383160e-02" cType="1" res="-1.3909521512687206e-02" rms="1.7475582659244537e-01" purity="9.1142959892749786e-02" nType="0">
          <Node pos="l" depth="2" NCoef="0" IVar="-1" Cut="0.0000000000000000e+00" cType="1" res="-3.9793826639652252e-02" rms="1.7947936058044434e-01" purity="1.1975593864917755e-01" nType="-99"/>
          <Node pos="r" depth="2" NCoef="0" IVar="-1" Cut="0.0000000000000000e+00" cType="1" res="-5.3780097514390945e-03" rms="1.7198391258716583e-01" purity="8.0824062228202820e-02" nType="-99"/>
        </Node>
      </Node>
    </BinaryTree>
    <BinaryTree type="DecisionTree" boostWeight="1.0000000000000000e+00" itree="45">
      <Node pos="s" depth="0" NCoef="0" IVar="1" Cut="1.4285714924335480e-01" cType="1" res="1.2529947562143207e-03" rms="1.7240755259990692e-01" purity="5.0258976221084595e-01" nType="0">
        <Node pos="l" depth="1" NCoef="0" IVar="4" Cut="5.8976016007363796e-03" cType="1" res="1.3978457078337669e-02" rms="1.8374641239643097e-01" purity="8.4268784523010254e-01" nType="0">
          <Node pos="l" depth="2" NCoef="0" IVar="-1" Cut="0.0000000000000000e+00" cType="1" res="-3.1954582780599594e-02" rms="2.1766926348209381e-01" purity="8.6152058839797974e-01" nType="-99"/>
          <Node pos="r" depth="2" NCoef="0" IVar="-1" Cut="0.0000000000000000e+00" cType="1" res="2.2366087883710861e-02" rms="1.7455311119556427e-01" purity="8.3869248628616333e-01" nType="-99"/>
        </Node>
        <Node pos="r" depth="1" NCoef="0" IVar="3" Cut="4.3873685598373413e-01" cType="1" res="-1.4085689559578896e-02" rms="1.5628890693187714e-01" purity="9.2651255428791046e-02" nType="0">
          <Node pos="l" depth="2" NCoef="0" IVar="-1" Cut="0.0000000000000000e+00" cType="1" res="-1.2647993862628937e-02" rms="1.4775802195072174e-01" purity="8.7045297026634216e-02" nType="-99"/>
          <Node pos="r" depth="2" NCoef="0" IVar="-1" Cut="0.0000000000000000e+00" cType="1" res="-5.8354225009679794e-02" rms="2.4160741269588470e-01" purity="1.8605828285217285e-01" nType="-99"/>
        </Node>
      </Node>
    </BinaryTree>
    <BinaryTree type="DecisionTree" boostWeight="1.0000000000000000e+00" itree="46">
      <Node pos="s" depth="0" NCoef="0" IVar="2" Cut="2.7315527200698853e-01" cType="1" res="1.8054388929158449e-03" rms="1.7680548131465912e-01" purity="5.0768941640853882e-01" nType="0">
        <Node pos="l" depth="1" NCoef="0" IVar="3" Cut="4.7619047760963440e-01" cType="1" res="1.2155978009104729e-02" rms="2.1186505258083344e-01" purity="7.8735941648483276e-01" nType="0">
          <Node pos="l" depth="2" NCoef="0" IVar="-1" Cut="0.0000000000000000e+00" cType="1" res="2.2291436791419983e-02" rms="1.9711875915527344e-01" purity="7.9775822162628174e-01" nType="-99"/>
          <Node pos="r" depth="2" NCoef="0" IVar="-1" Cut="0.0000000000000000e+00" cType="1" res="-1.2918842025101185e-02" rms="2.5657805800437927e-01" purity="7.4892592430114746e-01" nType="-99"/>
        </Node>
        <Node pos="r" depth="1" NCoef="0" IVar="5" Cut="1.6939607262611389e-01" cType="1" res="-1.6749592497944832e-02" rms="7.9346641898155212e-02" purity="6.3352906145155430e-03" nType="0">
          <Node pos="l" depth="2" NCoef="0" IVar="-1" Cut="0.0000000000000000e+00" cType="1" res="-3.6958944052457809e-02" rms="7.5073607265949249e-02" purity="5.6917448528110981e-03" nType="-99"/>
          <Node pos="r" depth="2" NCoef="0" IVar="-1" Cut="0.0000000000000000e+00" cType="1" res="-4.0350891649723053e-02" rms="1.1327145248651505e-01" purity="1.3113168068230152e-02" nType="-99"/>
        </Node>
      </Node>
    </BinaryTree>
    <BinaryTree type="DecisionTree" boostWeight="1.0000000000000000e+00" itree="47">
      <Node pos="s" depth="0" NCoef="0" IVar="2" Cut="3.8095238804817200e-01" cType="1" res="5.7821284281089902e-04" rms="1.7582178115844727e-01" purity="4.9852257966995239e-01" nType="0">
        <Node pos="l" depth="1" NCoef="0" IVar="3" Cut="6.3965731859207153e-01" cType="1" res="7.2189923375844955e-03" rms="2.0074141025543213e-01" purity="6.6159772872924805e-01" nType="0">
          <Node pos="l" depth="2" NCoef="0" IVar="-1" Cut="0.0000000000000000e+00" cType="1" res="1.1576319113373756e-02" rms="1.9284754991531372e-01" purity="6.5239191055297852e-01" nType="-99"/>
          <Node pos="r" depth="2" NCoef="0" IVar="-1" Cut="0.0000000000000000e+00" cType="1" res="-2.8205864131450653e-02" rms="2.9006239771842957e-01" purity="8.0035555362701416e-01" nType="-99"/>
        </Node>
        <Node pos="r" depth="1" NCoef="0" IVar="5" Cut="1.4863699674606323e-01" cType="1" res="-1.9655056297779083e-02" rms="4.2175184935331345e-02" purity="1.6620010137557983e-03" nType="0">
          <Node pos="l" depth="2" NCoef="0" IVar="-1" Cut="0.0000000000000000e+00" cType="1" res="-4.7924108803272247e-02" rms="3.3474732190370560e-02" purity="1.1168579803779721e-03" nType="-99"/>
          <Node pos="r" depth="2" NCoef="0" IVar="-1" Cut="0.0000000000000000e+00" cType="1" res="-4.6747088432312012e-02" rms="7.3198653757572174e-02" purity="4.7595282085239887e-03" nType="-99"/>
        </Node>
      </Node>
    </BinaryTree>
    <BinaryTree type="DecisionTree" boostWeight="1.0000000000000000e+00" itree="48">
      <Node pos="s" depth="0" NCoef="0" IVar="2" Cut="4.7619048506021500e-02" cType="1" res="-8.2048279000446200e-04" rms="1.7474007606506348e-01" purity="4.9592176079750061e-01" nType="0">
        <Node pos="l" depth="1" NCoef="0" IVar="4" Cut="6.1135306023061275e-03" cType="1" res="1.5371408313512802e-02" rms="1.3826248049736023e-01" purity="9.6779084205627441e-01" nType="0">
          <Node pos="l" depth="2" NCoef="0" IVar="-1" Cut="0.0000000000000000e+00" cType="1" res="2.1470058709383011e-03" rms="1.7122299969196320e-01" purity="9.6190774440765381e-01" nType="-99"/>
          <Node pos="r" depth="2" NCoef="0" IVar="-1" Cut="0.0000000000000000e+00" cType="1" res="2.7670048177242279e-02" rms="1.2508741021156311e-01" purity="9.6974271535873413e-01" nType="-99"/>
        </Node>
        <Node pos="r" depth="1" NCoef="0" IVar="3" Cut="6.0747855901718140e-01" cType="1" res="-9.4187753275036812e-03" rms="1.9074578583240509e-01" purity="2.4534763395786285e-01" nType="0">
          <Node pos="l" depth="2" NCoef="0" IVar="-1" Cut="0.0000000000000000e+00" cType="1" res="-6.2924367375671864e-03" rms="1.8051503598690033e-01" purity="2.2894103825092316e-01" nType="-99"/>
          <Node pos="r" depth="2" NCoef="0" IVar="-1" Cut="0.0000000000000000e+00" cType="1" res="-4.5824147760868073e-02" rms="3.3147448301315308e-01" purity="5.9948390722274780e-01" nType="-99"/>
        </Node>
      </Node>
    </BinaryTree>
    <BinaryTree type="DecisionTree" boostWeight="1.0000000000000000e+00" itree="49">
      <Node pos="s" depth="0" NCoef="0" IVar="5" Cut="3.1724706292152405e-01" cType="1" res="-1.0649472242221236e-03" rms="1.7097777128219604e-01" purity="5.0038796663284302e-01" nType="0">
        <Node pos="l" depth="1" NCoef="0" IVar="4" Cut="6.7277909256517887e-03" cType="1" res="-1.1013954877853394e-02" rms="1.9703790545463562e-01" purity="2.3454043269157410e-01" nType="0">
          <Node pos="l" depth="2" NCoef="0" IVar="-1" Cut="0.0000000000000000e+00" cType="1" res="-6.7369498312473297e-02" rms="2.6885604858398438e-01" purity="3.8235670328140259e-01" nType="-99"/>
          <Node pos="r" depth="2" NCoef="0" IVar="-1" Cut="0.0000000000000000e+00" cType="1" res="-6.1232009902596474e-03" rms="1.8967157602310181e-01" purity="2.2366613149642944e-01" nType="-99"/>
        </Node>
        <Node pos="r" depth="1" NCoef="0" IVar="1" Cut="4.0782582014799118e-02" cType="1" res="1.6923092305660248e-02" rms="1.0672836750745773e-01" purity="9.8104637861251831e-01" nType="0">
          <Node pos="l" depth="2" NCoef="0" IVar="-1" Cut="0.0000000000000000e+00" cType="1" res="5.5742808617651463e-03" rms="1.5892054140567780e-01" purity="9.7109466791152954e-01" nType="-99"/>
          <Node pos="r" depth="2" NCoef="0" IVar="-1" Cut="0.0000000000000000e+00" cType="1" res="3.5754486918449402e-02" rms="9.0995438396930695e-02" purity="9.8324245214462280e-01" nType="-99"/>
        </Node>
      </Node>
    </BinaryTree>
    <BinaryTree type="DecisionTree" boostWeight="1.0000000000000000e+00" itree="50">
      <Node pos="s" depth="0" NCoef="0" IVar="1" Cut="2.8571429848670959e-01" cType="1" res="1.0814550478244200e-04" rms="1.7625172436237335e-01" purity="5.0932729244232178e-01" nType="0">
        <Node pos="l" depth="1" NCoef="0" IVar="3" Cut="9.1379620134830475e-02" cType="1" res="6.6197020933032036e-03" rms="1.9187840819358826e-01" purity="6.8063503503799438e-01" nType="0">
          <Node pos="l" depth="2" NCoef="0" IVar="-1" Cut="0.0000000000000000e+00" cType="1" res="3.8140721619129181e-02" rms="1.3659520447254181e-01" purity="9.2255926132202148e-01" nType="-99"/>
          <Node pos="r" depth="2" NCoef="0" IVar="-1" Cut="0.0000000000000000e+00" cType="1" res="-3.9110872894525528e-03" rms="2.2182931005954742e-01" purity="5.1157003641128540e-01" nType="-99"/>
        </Node>
        <Node pos="r" depth="1" NCoef="0" IVar="1" Cut="6.5986484289169312e-01" cType="1" res="-1.8610181286931038e-02" rms="1.1855657398700714e-01" purity="1.6880609095096588e-02" nType="0">
          <Node pos="l" depth="2" NCoef="0" IVar="-1" Cut="0.0000000000000000e+00" cType="1" res="-2.8102574869990349e-02" rms="1.1439548432826996e-01" purity="1.7211137339472771e-02" nType="-99"/>
          <Node pos="r" depth="2" NCoef="0" IVar="-1" Cut="0.0000000000000000e+00" cType="1" res="-4.9885656684637070e-02" rms="1.4488857984542847e-01" purity="1.3826940208673477e-02" nType="-99"/>
        </Node>
      </Node>
    </BinaryTree>
    <BinaryTree type="DecisionTree" boostWeight="1.0000000000000000e+00" itree="51">
      <Node pos="s" depth="0" NCoef="0" IVar="0" Cut="7.8006237745285034e-01" cType="1" res="-7.3094759136438370e-04" rms="1.7764389514923096e-01" purity="4.9531441926956177e-01" nType="0">
        <Node pos="l" depth="1" NCoef="0" IVar="0" Cut="-4.8264342546463013e-01" cType="1" res="-5.5830474011600018e-03" rms="1.7906637489795685e-01" purity="4.9522590637207031e-01" nType="0">
          <Node pos="l" depth="2" NCoef="0" IVar="-1" Cut="0.0000000000000000e+00" cType="1" res="1.3955001719295979e-02" rms="1.6819958388805389e-01" purity="4.9866321682929993e-01" nType="-99"/>
          <Node pos="r" depth="2" NCoef="0" IVar="-1" Cut="0.0000000000000000e+00" cType="1" res="-1.7571775242686272e-02" rms="1.8428063392639160e-01" purity="4.9328467249870300e-01" nType="-99"/>
        </Node>
        <Node pos="r" depth="1" NCoef="0" IVar="2" Cut="2.8571429848670959e-01" cType="1" res="2.1516356617212296e-02" rms="1.6919785737991333e-01" purity="4.9572011828422546e-01" nType="0">
          <Node pos="l" depth="2" NCoef="0" IVar="-1" Cut="0.0000000000000000e+00" cType="1" res="4.2732480913400650e-02" rms="2.0002472400665283e-01" purity="8.2458317279815674e-01" nType="-99"/>
          <Node pos="r" depth="2" NCoef="0" IVar="-1" Cut="0.0000000000000000e+00" cType="1" res="-2.1689284592866898e-02" rms="1.0199417918920517e-01" purity="1.0570768266916275e-02" nType="-99"/>
        </Node>
      </Node>
    </BinaryTree>
    <BinaryTree type="DecisionTree" boostWeight="1.0000000000000000e+00" itree="52">
      <Node pos="s" depth="0" NCoef="0" IVar="2" Cut="4.7619048506021500e-02" cType="1" res="-2.8923482750542462e-04" rms="1.7180676758289337e-01" purity="4.9924528598785400e-01" nType="0">
        <Node pos="l" depth="1" NCoef="0" IVar="4" Cut="6.4220731146633625e-03" cType="1" res="1.3574843294918537e-02" rms="1.3353221118450165e-01" purity="9.6948528289794922e-01" nType="0">
          <Node pos="l" depth="2" NCoef="0" IVar="-1" Cut="0.0000000000000000e+00" cType="1" res="3.8860549684613943e-03" rms="1.6328532993793488e-01" purity="9.6598631143569946e-01" nType="-99"/>
          <Node pos="r" depth="2" NCoef="0" IVar="-1" Cut="0.0000000000000000e+00" cType="1" res="2.7075918391346931e-02" rms="1.1847793310880661e-01" purity="9.7095954418182373e-01" nType="-99"/>
        </Node>
        <Node pos="r" depth="1" NCoef="0" IVar="3" Cut="6.1129212379455566e-01" cType="1" res="-7.8570386394858360e-03" rms="1.8903610110282898e-01" purity="2.4256141483783722e-01" nType="0">
          <Node pos="l" depth="2" NCoef="0" IVar="-1" Cut="0.0000000000000000e+00" cType="1" res="-5.1947482861578465e-03" rms="1.7836533486843109e-01" purity="2.2596333920955658e-01" nType="-99"/>
          <Node pos="r" depth="2" NCoef="0" IVar="-1" Cut="0.0000000000000000e+00" cType="1" res="-4.1941747069358826e-02" rms="3.3987513184547424e-01" purity="6.1173528432846069e-01" nType="-99"/>
        </Node>
      </Node>
    </BinaryTree>
    <BinaryTree type="DecisionTree" boostWeight="1.0000000000000000e+00" itree="53">
      <Node pos="s" depth="0" NCoef="0" IVar="1" Cut="2.8571429848670959e-01" cType="1" res="4.9201666843146086e-04" rms="1.7317651212215424e-01" purity="5.0087910890579224e-01" nType="0">
        <Node pos="l" depth="1" NCoef="0" IVar="4" Cut="1.1974954046308994e-02" cType="1" res="6.9402954541146755e-03" rms="1.9081561267375946e-01" purity="6.7791545391082764e-01" nType="0">
          <Node pos="l" depth="2" NCoef="0" IVar="-1" Cut="0.0000000000000000e+00" cType="1" res="-5.3162463009357452e-03" rms="1.7503890395164490e-01" purity="8.0922937393188477e-01" nType="-99"/>
          <Node pos="r" depth="2" NCoef="0" IVar="-1" Cut="0.0000000000000000e+00" cType="1" res="2.3470347747206688e-02" rms="2.1170683205127716e-01" purity="4.7556859254837036e-01" nType="-99"/>
        </Node>
        <Node pos="r" depth="1" NCoef="0" IVar="1" Cut="6.5986585617065430e-01" cType="1" res="-1.7240529879927635e-02" rms="1.0911084711551666e-01" purity="1.4035011641681194e-02" nType="0">
          <Node pos="l" depth="2" NCoef="0" IVar="-1" Cut="0.0000000000000000e+00" cType="1" res="-2.7805930003523827e-02" rms="1.0735397040843964e-01" purity="1.4815889298915863e-02" nType="-99"/>
          <Node pos="r" depth="2" NCoef="0" IVar="-1" Cut="0.0000000000000000e+00" cType="1" res="-5.4449297487735748e-02" rms="1.1678149551153183e-01" purity="6.7747216671705246e-03" nType="-99"/>
        </Node>
      </Node>
    </BinaryTree>
    <BinaryTree type="DecisionTree" boostWeight="1.0000000000000000e+00" itree="54">
      <Node pos="s" depth="0" NCoef="0" IVar="2" Cut="3.0712091922760010e-01" cType="1" res="1.1315511073917150e-03" rms="1.7155382037162781e-01" purity="5.0407660007476807e-01" nType="0">
        <Node pos="l" depth="1" NCoef="0" IVar="0" Cut="-7.7885919809341431e-01" cType="1" res="8.7720109149813652e-03" rms="2.0476229488849640e-01" purity="7.4686771631240845e-01" nType="0">
          <Node pos="l" depth="2" NCoef="0" IVar="-1" Cut="0.0000000000000000e+00" cType="1" res="4.2507015168666840e-02" rms="1.8997709453105927e-01" purity="8.0821198225021362e-01" nType="-99"/>
          <Node pos="r" depth="2" NCoef="0" IVar="-1" Cut="0.0000000000000000e+00" cType="1" res="2.4925000034272671e-03" rms="2.0694836974143982e-01" purity="7.3488336801528931e-01" nType="-99"/>
        </Node>
        <Node pos="r" depth="1" NCoef="0" IVar="2" Cut="6.2893819808959961e-01" cType="1" res="-1.4627086929976940e-02" rms="5.7330880314111710e-02" purity="3.3138853032141924e-03" nType="0">
          <Node pos="l" depth="2" NCoef="0" IVar="-1" Cut="0.0000000000000000e+00" cType="1" res="-4.0052708238363266e-02" rms="5.9060506522655487e-02" purity="3.6416302900761366e-03" nType="-99"/>
          <Node pos="r" depth="2" NCoef="0" IVar="-1" Cut="0.0000000000000000e+00" cType="1" res="-5.3424090147018433e-02" rms="3.1917471438646317e-02" purity="0.0000000000000000e+00" nType="-99"/>
        </Node>
      </Node>
    </BinaryTree>
    <BinaryTree type="DecisionTree" boostWeight="1.0000000000000000e+00" itree="55">
      <Node pos="s" depth="0" NCoef="0" IVar="1" Cut="2.3809523880481720e-01" cType="1" res="3.9436182123608887e-04" rms="1.7071554064750671e-01" purity="5.0199609994888306e-01" nType="0">
        <Node pos="l" depth="1" NCoef="0" IVar="0" Cut="7.8010964393615723e-01" cType="1" res="7.7089988626539707e-03" rms="1.9055660068988800e-01" purity="7.2797381877899170e-01" nType="0">
          <Node pos="l" depth="2" NCoef="0" IVar="-1" Cut="0.0000000000000000e+00" cType="1" res="2.5723269209265709e-03" rms="1.9075210392475128e-01" purity="7.1280026435852051e-01" nType="-99"/>
          <Node pos="r" depth="2" NCoef="0" IVar="-1" Cut="0.0000000000000000e+00" cType="1" res="4.3937537819147110e-02" rms="1.8664069473743439e-01" purity="8.1190413236618042e-01" nType="-99"/>
        </Node>
        <Node pos="r" depth="1" NCoef="0" IVar="5" Cut="1.4110313355922699e-01" cType="1" res="-1.5208023600280285e-02" rms="1.1617481708526611e-01" purity="1.9977474585175514e-02" nType="0">
          <Node pos="l" depth="2" NCoef="0" IVar="-1" Cut="0.0000000000000000e+00" cType="1" res="-2.5006225332617760e-02" rms="1.0932931303977966e-01" purity="1.3522378169000149e-02" nType="-99"/>
          <Node pos="r" depth="2" NCoef="0" IVar="-1" Cut="0.0000000000000000e+00" cType="1" res="-5.7341847568750381e-02" rms="1.6794142127037048e-01" purity="8.7958119809627533e-02" nType="-99"/>
        </Node>
      </Node>
    </BinaryTree>
    <BinaryTree type="DecisionTree" boostWeight="1.0000000000000000e+00" itree="56">
      <Node pos="s" depth="0" NCoef="0" IVar="1" Cut="6.6666668653488159e-01" cType="1" res="1.1986925965175033e-03" rms="1.7461587488651276e-01" purity="4.9835938215255737e-01" nType="0">
        <Node pos="l" depth="1" NCoef="0" IVar="3" Cut="9.1379620134830475e-02" cType="1" res="2.7509022038429976e-03" rms="1.7596842348575592e-01" purity="5.1125013828277588e-01" nType="0">
          <Node pos="l" depth="2" NCoef="0" IVar="-1" Cut="0.0000000000000000e+00" cType="1" res="3.3145368099212646e-02" rms="1.3478992879390717e-01" purity="7.0186716318130493e-01" nType="-99"/>
          <Node pos="r" depth="2" NCoef="0" IVar="-1" Cut="0.0000000000000000e+00" cType="1" res="-6.7010545171797276e-03" rms="1.9812120497226715e-01" purity="3.8475152850151062e-01" nType="-99"/>
        </Node>
        <Node pos="r" depth="1" NCoef="0" IVar="-1" Cut="0.0000000000000000e+00" cType="1" res="-5.7868830859661102e-02" rms="9.2645607888698578e-02" purity="2.3109752219170332e-03" nType="-99"/>
      </Node>
    </BinaryTree>
    <BinaryTree type="DecisionTree" boostWeight="1.0000000000000000e+00" itree="57">
      <Node pos="s" depth="0" NCoef="0" IVar="2" Cut="3.8095238804817200e-01" cType="1" res="2.7702930383384228e-03" rms="1.7409233748912811e-01" purity="5.0223773717880249e-01" nType="0">
        <Node pos="l" depth="1" NCoef="0" IVar="1" Cut="4.7619047760963440e-01" cType="1" res="7.8218597918748856e-03" rms="1.9736495614051819e-01" purity="6.6483759880065918e-01" nType="0">
          <Node pos="l" depth="2" NCoef="0" IVar="-1" Cut="0.0000000000000000e+00" cType="1" res="1.2429332360625267e-02" rms="2.0491731166839600e-01" purity="7.3733067512512207e-01" nType="-99"/>
          <Node pos="r" depth="2" NCoef="0" IVar="-1" Cut="0.0000000000000000e+00" cType="1" res="-4.2343020439147949e-02" rms="1.0092679411172867e-01" purity="8.4777893498539925e-03" nType="-99"/>
        </Node>
        <Node pos="r" depth="1" NCoef="0" IVar="2" Cut="5.5784773826599121e-01" cType="1" res="-1.2723396532237530e-02" rms="5.8952186256647110e-02" purity="3.5266815684735775e-03" nType="0">
          <Node pos="l" depth="2" NCoef="0" IVar="-1" Cut="0.0000000000000000e+00" cType="1" res="-3.3774603158235550e-02" rms="6.7947953939437866e-02" purity="4.9024131149053574e-03" nType="-99"/>
          <Node pos="r" depth="2" NCoef="0" IVar="-1" Cut="0.0000000000000000e+00" cType="1" res="-5.2249874919652939e-02" rms="2.1509958431124687e-02" purity="0.0000000000000000e+00" nType="-99"/>
        </Node>
      </Node>
    </BinaryTree>
    <BinaryTree type="DecisionTree" boostWeight="1.0000000000000000e+00" itree="58">
      <Node pos="s" depth="0" NCoef="0" IVar="5" Cut="3.1200817227363586e-01" cType="1" res="2.8048979584127665e-04" rms="1.6965325176715851e-01" purity="4.9836611747741699e-01" nType="0">
        <Node pos="l" depth="1" NCoef="0" IVar="3" Cut="5.7142859697341919e-01" cType="1" res="-6.3879690133035183e-03" rms="1.9405300915241241e-01" purity="2.3284646868705750e-01" nType="0">
          <Node pos="l" depth="2" NCoef="0" IVar="-1" Cut="0.0000000000000000e+00" cType="1" res="-2.5161535013467073e-03" rms="1.8229129910469055e-01" purity="2.1379968523979187e-01" nType="-99"/>
          <Node pos="r" depth="2" NCoef="0" IVar="-1" Cut="0.0000000000000000e+00" cType="1" res="-3.4130427986383438e-02" rms="3.2435309886932373e-01" purity="5.4717671871185303e-01" nType="-99"/>
        </Node>
        <Node pos="r" depth="1" NCoef="0" IVar="1" Cut="3.6518163979053497e-02" cType="1" res="1.2349394150078297e-02" rms="1.1178037524223328e-01" purity="9.7891652584075928e-01" nType="0">
          <Node pos="l" depth="2" NCoef="0" IVar="-1" Cut="0.0000000000000000e+00" cType="1" res="-5.0471480935811996e-03" rms="1.6121855378150940e-01" purity="9.6548724174499512e-01" nType="-99"/>
          <Node pos="r" depth="2" NCoef="0" IVar="-1" Cut="0.0000000000000000e+00" cType="1" res="3.0475679785013199e-02" rms="1.0196397453546524e-01" purity="9.8096519708633423e-01" nType="-99"/>
        </Node>
      </Node>
    </BinaryTree>
    <BinaryTree type="DecisionTree" boostWeight="1.0000000000000000e+00" itree="59">
      <Node pos="s" depth="0" NCoef="0" IVar="0" Cut="7.8009921312332153e-01" cType="1" res="-7.7643740223720670e-04" rms="1.6912044584751129e-01" purity="4.9644067883491516e-01" nType="0">
        <Node pos="l" depth="1" NCoef="0" IVar="3" Cut="4.7619047760963440e-01" cType="1" res="-5.2398140542209148e-03" rms="1.7250807583332062e-01" purity="4.9332311749458313e-01" nType="0">
          <Node pos="l" depth="2" NCoef="0" IVar="-1" Cut="0.0000000000000000e+00" cType="1" res="-4.6004241448827088e-04" rms="1.5434339642524719e-01" purity="4.6235713362693787e-01" nType="-99"/>
          <Node pos="r" depth="2" NCoef="0" IVar="-1" Cut="0.0000000000000000e+00" cType="1" res="-2.2560417652130127e-02" rms="2.5313711166381836e-01" purity="6.7761439085006714e-01" nType="-99"/>
        </Node>
        <Node pos="r" depth="1" NCoef="0" IVar="2" Cut="2.8100660443305969e-01" cType="1" res="1.9400324672460556e-02" rms="1.5123797953128815e-01" purity="5.1053357124328613e-01" nType="0">
          <Node pos="l" depth="2" NCoef="0" IVar="-1" Cut="0.0000000000000000e+00" cType="1" res="4.0570925921201706e-02" rms="1.7618843913078308e-01" purity="8.3947378396987915e-01" nType="-99"/>
          <Node pos="r" depth="2" NCoef="0" IVar="-1" Cut="0.0000000000000000e+00" cType="1" res="-1.8608629703521729e-02" rms="9.6993260085582733e-02" purity="9.6593890339136124e-03" nType="-99"/>
        </Node>
      </Node>
    </BinaryTree>
    <BinaryTree type="DecisionTree" boostWeight="1.0000000000000000e+00" itree="60">
      <Node pos="s" depth="0" NCoef="0" IVar="5" Cut="2.7937144041061401e-01" cType="1" res="-1.0958669008687139e-03" rms="1.6421408951282501e-01" purity="5.0171267986297607e-01" nType="0">
        <Node pos="l" depth="1" NCoef="0" IVar="3" Cut="5.7142859697341919e-01" cType="1" res="-8.6913062259554863e-03" rms="1.8729355931282043e-01" purity="1.7863211035728455e-01" nType="0">
          <Node pos="l" depth="2" NCoef="0" IVar="-1" Cut="0.0000000000000000e+00" cType="1" res="-6.1145178042352200e-03" rms="1.7650789022445679e-01" purity="1.6474069654941559e-01" nType="-99"/>
          <Node pos="r" depth="2" NCoef="0" IVar="-1" Cut="0.0000000000000000e+00" cType="1" res="-3.4273687750101089e-02" rms="3.2469001412391663e-01" purity="4.4923159480094910e-01" nType="-99"/>
        </Node>
        <Node pos="r" depth="1" NCoef="0" IVar="1" Cut="4.3466694653034210e-02" cType="1" res="9.9208364263176918e-03" rms="1.2245162576436996e-01" purity="9.7032058238983154e-01" nType="0">
          <Node pos="l" depth="2" NCoef="0" IVar="-1" Cut="0.0000000000000000e+00" cType="1" res="-1.0576329194009304e-02" rms="1.7988702654838562e-01" purity="9.6151638031005859e-01" nType="-99"/>
          <Node pos="r" depth="2" NCoef="0" IVar="-1" Cut="0.0000000000000000e+00" cType="1" res="2.6745431125164032e-02" rms="1.0334349423646927e-01" purity="9.7247105836868286e-01" nType="-99"/>
        </Node>
      </Node>
    </BinaryTree>
    <BinaryTree type="DecisionTree" boostWeight="1.0000000000000000e+00" itree="61">
      <Node pos="s" depth="0" NCoef="0" IVar="3" Cut="6.5495586395263672e-01" cType="1" res="6.5800925949588418e-04" rms="1.7613485455513000e-01" purity="5.0507688522338867e-01" nType="0">
        <Node pos="l" depth="1" NCoef="0" IVar="2" Cut="3.8095238804817200e-01" cType="1" res="2.4995955172926188e-03" rms="1.6880364716053009e-01" purity="4.9259811639785767e-01" nType="0">
          <Node pos="l" depth="2" NCoef="0" IVar="-1" Cut="0.0000000000000000e+00" cType="1" res="9.5557421445846558e-03" rms="1.9382794201374054e-01" purity="6.6165363788604736e-01" nType="-99"/>
          <Node pos="r" depth="2" NCoef="0" IVar="-1" Cut="0.0000000000000000e+00" cType="1" res="-4.4879011809825897e-02" rms="4.2783036828041077e-02" purity="1.8972755642607808e-03" nType="-99"/>
        </Node>
        <Node pos="r" depth="1" NCoef="0" IVar="-1" Cut="0.0000000000000000e+00" cType="1" res="-2.7435962110757828e-02" rms="2.9991996288299561e-01" purity="8.0600368976593018e-01" nType="-99"/>
      </Node>
    </BinaryTree>
    <BinaryTree type="DecisionTree" boostWeight="1.0000000000000000e+00" itree="62">
      <Node pos="s" depth="0" NCoef="0" IVar="0" Cut="6.6005951166152954e-01" cType="1" res="1.2423113221302629e-03" rms="1.7331010103225708e-01" purity="5.0296813249588013e-01" nType="0">
        <Node pos="l" depth="1" NCoef="0" IVar="0" Cut="-5.2836102247238159e-01" cType="1" res="-3.1495231669396162e-03" rms="1.7675626277923584e-01" purity="4.9904489517211914e-01" nType="0">
          <Node pos="l" depth="2" NCoef="0" IVar="-1" Cut="0.0000000000000000e+00" cType="1" res="1.8468029797077179e-02" rms="1.6161295771598816e-01" purity="4.9844986200332642e-01" nType="-99"/>
          <Node pos="r" depth="2" NCoef="0" IVar="-1" Cut="0.0000000000000000e+00" cType="1" res="-1.4622685499489307e-02" rms="1.8408353626728058e-01" purity="4.9937605857849121e-01" nType="-99"/>
        </Node>
        <Node pos="r" depth="1" NCoef="0" IVar="2" Cut="3.4936851263046265e-01" cType="1" res="1.6600318253040314e-02" rms="1.5973232686519623e-01" purity="5.1668745279312134e-01" nType="0">
          <Node pos="l" depth="2" NCoef="0" IVar="-1" Cut="0.0000000000000000e+00" cType="1" res="3.4262262284755707e-02" rms="1.8546697497367859e-01" purity="7.4820548295974731e-01" nType="-99"/>
          <Node pos="r" depth="2" NCoef="0" IVar="-1" Cut="0.0000000000000000e+00" cType="1" res="-3.0656954273581505e-02" rms="7.0934034883975983e-02" purity="5.0564431585371494e-03" nType="-99"/>
        </Node>
      </Node>
    </BinaryTree>
    <BinaryTree type="DecisionTree" boostWeight="1.0000000000000000e+00" itree="63">
      <Node pos="s" depth="0" NCoef="0" IVar="3" Cut="9.5238097012042999e-02" cType="1" res="1.1435466585680842e-03" rms="1.6541209816932678e-01" purity="5.0011664628982544e-01" nType="0">
