<?xml version="1.0"?>
<MethodSetup Method="BDT::BDTG">
  <GeneralInfo>
    <Info name="TMVA Release" value="4.2.1 [262657]"/>
    <Info name="ROOT Release" value="6.30/04 [400900]"/>
    <Info name="Creator" value="gkopp"/>
    <Info name="Date" value="Sat Mar  2 04:38:04 2024"/>
    <Info name="Host" value="Linux buildvm-x86-22.iad2.fedoraproject.org 6.6.9-100.fc38.x86_64 #1 SMP PREEMPT_DYNAMIC Mon Jan 1 20:31:07 UTC 2024 x86_64 x86_64 x86_64 GNU/Linux"/>
    <Info name="Dir" value="/afs/cern.ch/work/g/gkopp/2022_LLP_analysis/Run3-HCAL-LLP-Analysis/TMVAStudies"/>
    <Info name="Training events" value="47391"/>
    <Info name="TrainingTime" value="2.33436680e+01"/>
    <Info name="AnalysisType" value="Classification"/>
  </GeneralInfo>
  <Options>
    <Option name="V" modified="Yes">False</Option>
    <Option name="VerbosityLevel" modified="No">Default</Option>
    <Option name="VarTransform" modified="No">None</Option>
    <Option name="H" modified="Yes">False</Option>
    <Option name="CreateMVAPdfs" modified="No">False</Option>
    <Option name="IgnoreNegWeightsInTraining" modified="No">False</Option>
    <Option name="NTrees" modified="Yes">1000</Option>
    <Option name="MaxDepth" modified="Yes">2</Option>
    <Option name="MinNodeSize" modified="Yes">2.5%</Option>
    <Option name="nCuts" modified="Yes">20</Option>
    <Option name="BoostType" modified="Yes">Grad</Option>
    <Option name="AdaBoostR2Loss" modified="No">quadratic</Option>
    <Option name="UseBaggedBoost" modified="Yes">True</Option>
    <Option name="Shrinkage" modified="Yes">1.000000e-01</Option>
    <Option name="AdaBoostBeta" modified="No">5.000000e-01</Option>
    <Option name="UseRandomisedTrees" modified="No">False</Option>
    <Option name="UseNvars" modified="No">3</Option>
    <Option name="UsePoissonNvars" modified="No">True</Option>
    <Option name="BaggedSampleFraction" modified="Yes">5.000000e-01</Option>
    <Option name="UseYesNoLeaf" modified="No">True</Option>
    <Option name="NegWeightTreatment" modified="No">pray</Option>
    <Option name="Css" modified="No">1.000000e+00</Option>
    <Option name="Cts_sb" modified="No">1.000000e+00</Option>
    <Option name="Ctb_ss" modified="No">1.000000e+00</Option>
    <Option name="Cbb" modified="No">1.000000e+00</Option>
    <Option name="NodePurityLimit" modified="No">5.000000e-01</Option>
    <Option name="SeparationType" modified="No">giniindex</Option>
    <Option name="RegressionLossFunctionBDTG" modified="No">huber</Option>
    <Option name="HuberQuantile" modified="No">7.000000e-01</Option>
    <Option name="DoBoostMonitor" modified="No">False</Option>
    <Option name="UseFisherCuts" modified="No">False</Option>
    <Option name="MinLinCorrForFisher" modified="No">8.000000e-01</Option>
    <Option name="UseExclusiveVars" modified="No">False</Option>
    <Option name="DoPreselection" modified="No">False</Option>
    <Option name="SigToBkgFraction" modified="No">1.000000e+00</Option>
    <Option name="PruneMethod" modified="No">nopruning</Option>
    <Option name="PruneStrength" modified="No">0.000000e+00</Option>
    <Option name="PruningValFraction" modified="No">5.000000e-01</Option>
    <Option name="SkipNormalization" modified="No">False</Option>
    <Option name="nEventsMin" modified="No">0</Option>
    <Option name="UseBaggedGrad" modified="No">False</Option>
    <Option name="GradBaggingFraction" modified="No">5.000000e-01</Option>
    <Option name="UseNTrainEvents" modified="No">0</Option>
    <Option name="NNodesMax" modified="No">0</Option>
  </Options>
  <Variables NVar="6">
    <Variable VarIndex="0" Expression="perJet_Eta" Label="perJet_Eta" Title="perJet_Eta" Unit="" Internal="perJet_Eta" Type="F" Min="-1.25989270e+00" Max="1.25999463e+00"/>
    <Variable VarIndex="1" Expression="perJet_EnergyFrac_Depth1" Label="perJet_EnergyFrac_Depth1" Title="perJet_EnergyFrac_Depth1" Unit="" Internal="perJet_EnergyFrac_Depth1" Type="F" Min="0.00000000e+00" Max="1.00000000e+00"/>
    <Variable VarIndex="2" Expression="perJet_EnergyFrac_Depth2" Label="perJet_EnergyFrac_Depth2" Title="perJet_EnergyFrac_Depth2" Unit="" Internal="perJet_EnergyFrac_Depth2" Type="F" Min="0.00000000e+00" Max="1.00000000e+00"/>
    <Variable VarIndex="3" Expression="perJet_EnergyFrac_Depth3" Label="perJet_EnergyFrac_Depth3" Title="perJet_EnergyFrac_Depth3" Unit="" Internal="perJet_EnergyFrac_Depth3" Type="F" Min="0.00000000e+00" Max="1.00000000e+00"/>
    <Variable VarIndex="4" Expression="perJet_S_phiphi" Label="perJet_S_phiphi" Title="perJet_S_phiphi" Unit="" Internal="perJet_S_phiphi" Type="F" Min="1.04859195e-04" Max="1.22406811e-01"/>
    <Variable VarIndex="5" Expression="perJet_LeadingRechitE/perJet_E" Label="perJet_LeadingRechitE/perJet_E" Title="perJet_LeadingRechtE / perJet_E" Unit="" Internal="perJet_LeadingRechitE_D_perJet_E" Type="F" Min="2.13412056e-03" Max="1.60591221e+00"/>
  </Variables>
  <Spectators NSpec="0"/>
  <Classes NClass="2">
    <Class Name="Signal" Index="0"/>
    <Class Name="Background" Index="1"/>
  </Classes>
  <Transformations NTransformations="0"/>
  <MVAPdfs/>
  <Weights NTrees="1000" AnalysisType="1">
    <BinaryTree type="DecisionTree" boostWeight="1.0000000000000000e+00" itree="0">
      <Node pos="s" depth="0" NCoef="0" IVar="2" Cut="1.3101319968700409e-01" cType="1" res="-4.5884349383413792e-03" rms="4.9997895956039429e-01" purity="4.9541154503822327e-01" nType="0">
        <Node pos="l" depth="1" NCoef="0" IVar="5" Cut="1.5487489104270935e-01" cType="1" res="4.1154724359512329e-01" rms="2.8395223617553711e-01" purity="9.1154724359512329e-01" nType="0">
          <Node pos="l" depth="2" NCoef="0" IVar="-1" Cut="0.0000000000000000e+00" cType="1" res="-2.7869543060660362e-02" rms="4.8018977046012878e-01" purity="3.6065226793289185e-01" nType="-99"/>
          <Node pos="r" depth="2" NCoef="0" IVar="-1" Cut="0.0000000000000000e+00" cType="1" res="9.1890752315521240e-02" rms="1.9723649322986603e-01" purity="9.5945376157760620e-01" nType="-99"/>
        </Node>
        <Node pos="r" depth="1" NCoef="0" IVar="5" Cut="2.3103396594524384e-01" cType="1" res="-4.2956447601318359e-01" rms="2.5587958097457886e-01" purity="7.0435531437397003e-02" nType="0">
          <Node pos="l" depth="2" NCoef="0" IVar="-1" Cut="0.0000000000000000e+00" cType="1" res="-9.2016078531742096e-02" rms="1.9577032327651978e-01" purity="3.9919596165418625e-02" nType="-99"/>
          <Node pos="r" depth="2" NCoef="0" IVar="-1" Cut="0.0000000000000000e+00" cType="1" res="2.8071543201804161e-03" rms="4.9980294704437256e-01" purity="5.1403576135635376e-01" nType="-99"/>
        </Node>
      </Node>
    </BinaryTree>
    <BinaryTree type="DecisionTree" boostWeight="1.0000000000000000e+00" itree="1">
      <Node pos="s" depth="0" NCoef="0" IVar="2" Cut="1.4285714924335480e-01" cType="1" res="2.7164856437593699e-03" rms="4.6117252111434937e-01" purity="5.0276863574981689e-01" nType="0">
        <Node pos="l" depth="1" NCoef="0" IVar="5" Cut="1.5487489104270935e-01" cType="1" res="3.6441627144813538e-01" rms="2.8381592035293579e-01" purity="9.0402370691299438e-01" nType="0">
          <Node pos="l" depth="2" NCoef="0" IVar="-1" Cut="0.0000000000000000e+00" cType="1" res="-3.0233396217226982e-02" rms="4.6953254938125610e-01" purity="3.3186823129653931e-01" nType="-99"/>
          <Node pos="r" depth="2" NCoef="0" IVar="-1" Cut="0.0000000000000000e+00" cType="1" res="8.3319514989852905e-02" rms="1.9961467385292053e-01" purity="9.5811086893081665e-01" nType="-99"/>
        </Node>
        <Node pos="r" depth="1" NCoef="0" IVar="5" Cut="2.2510732710361481e-01" cType="1" res="-3.9383614063262939e-01" rms="2.3843960464000702e-01" purity="6.2849164009094238e-02" nType="0">
          <Node pos="l" depth="2" NCoef="0" IVar="-1" Cut="0.0000000000000000e+00" cType="1" res="-8.3982855081558228e-02" rms="1.9057285785675049e-01" purity="3.7742510437965393e-02" nType="-99"/>
          <Node pos="r" depth="2" NCoef="0" IVar="-1" Cut="0.0000000000000000e+00" cType="1" res="-6.1964686028659344e-03" rms="4.9755182862281799e-01" purity="4.6699410676956177e-01" nType="-99"/>
        </Node>
      </Node>
    </BinaryTree>
    <BinaryTree type="DecisionTree" boostWeight="1.0000000000000000e+00" itree="2">
      <Node pos="s" depth="0" NCoef="0" IVar="2" Cut="1.4285714924335480e-01" cType="1" res="-1.3837303267791867e-03" rms="4.2687511444091797e-01" purity="4.9857264757156372e-01" nType="0">
        <Node pos="l" depth="1" NCoef="0" IVar="5" Cut="1.3891595602035522e-01" cType="1" res="3.2726651430130005e-01" rms="2.7657139301300049e-01" purity="9.0255510807037354e-01" nType="0">
          <Node pos="l" depth="2" NCoef="0" IVar="-1" Cut="0.0000000000000000e+00" cType="1" res="-3.5712387412786484e-02" rms="4.5242416858673096e-01" purity="2.8976330161094666e-01" nType="-99"/>
          <Node pos="r" depth="2" NCoef="0" IVar="-1" Cut="0.0000000000000000e+00" cType="1" res="7.6083421707153320e-02" rms="2.0706966519355774e-01" purity="9.5348793268203735e-01" nType="-99"/>
        </Node>
        <Node pos="r" depth="1" NCoef="0" IVar="5" Cut="2.2164076566696167e-01" cType="1" res="-3.5882192850112915e-01" rms="2.2799159586429596e-01" purity="5.9203431010246277e-02" nType="0">
          <Node pos="l" depth="2" NCoef="0" IVar="-1" Cut="0.0000000000000000e+00" cType="1" res="-7.8486174345016479e-02" rms="1.7699728906154633e-01" purity="3.2376259565353394e-02" nType="-99"/>
          <Node pos="r" depth="2" NCoef="0" IVar="-1" Cut="0.0000000000000000e+00" cType="1" res="-9.6490457653999329e-03" rms="4.9436119198799133e-01" purity="4.4327953457832336e-01" nType="-99"/>
        </Node>
      </Node>
    </BinaryTree>
    <BinaryTree type="DecisionTree" boostWeight="1.0000000000000000e+00" itree="3">
      <Node pos="s" depth="0" NCoef="0" IVar="2" Cut="1.4285714924335480e-01" cType="1" res="5.8425385504961014e-03" rms="3.9763054251670837e-01" purity="5.0712585449218750e-01" nType="0">
        <Node pos="l" depth="1" NCoef="0" IVar="5" Cut="1.3712747395038605e-01" cType="1" res="2.9835540056228638e-01" rms="2.6604035496711731e-01" purity="9.0643382072448730e-01" nType="0">
          <Node pos="l" depth="2" NCoef="0" IVar="-1" Cut="0.0000000000000000e+00" cType="1" res="-2.7698548510670662e-02" rms="4.6225625276565552e-01" purity="3.1280264258384705e-01" nType="-99"/>
          <Node pos="r" depth="2" NCoef="0" IVar="-1" Cut="0.0000000000000000e+00" cType="1" res="7.0632882416248322e-02" rms="2.0907144248485565e-01" purity="9.5270407199859619e-01" nType="-99"/>
        </Node>
        <Node pos="r" depth="1" NCoef="0" IVar="2" Cut="2.2449462115764618e-01" cType="1" res="-3.1879132986068726e-01" rms="2.3385019600391388e-01" purity="6.3969634473323822e-02" nType="0">
          <Node pos="l" depth="2" NCoef="0" IVar="-1" Cut="0.0000000000000000e+00" cType="1" res="-2.3948891088366508e-02" rms="4.2666259407997131e-01" purity="2.8580603003501892e-01" nType="-99"/>
          <Node pos="r" depth="2" NCoef="0" IVar="-1" Cut="0.0000000000000000e+00" cType="1" res="-7.5451768934726715e-02" rms="1.5392237901687622e-01" purity="2.5062970817089081e-02" nType="-99"/>
        </Node>
      </Node>
    </BinaryTree>
    <BinaryTree type="DecisionTree" boostWeight="1.0000000000000000e+00" itree="4">
      <Node pos="s" depth="0" NCoef="0" IVar="2" Cut="9.5238097012042999e-02" cType="1" res="3.6751518491655588e-03" rms="3.7090238928794861e-01" purity="5.0652384757995605e-01" nType="0">
        <Node pos="l" depth="1" NCoef="0" IVar="5" Cut="1.5719379484653473e-01" cType="1" res="2.9453465342521667e-01" rms="2.1735425293445587e-01" purity="9.3979012966156006e-01" nType="0">
          <Node pos="l" depth="2" NCoef="0" IVar="-1" Cut="0.0000000000000000e+00" cType="1" res="-8.9949499815702438e-03" rms="4.8527967929840088e-01" purity="4.2054837942123413e-01" nType="-99"/>
          <Node pos="r" depth="2" NCoef="0" IVar="-1" Cut="0.0000000000000000e+00" cType="1" res="6.9537244737148285e-02" rms="1.7160874605178833e-01" purity="9.6962797641754150e-01" nType="-99"/>
        </Node>
        <Node pos="r" depth="1" NCoef="0" IVar="5" Cut="2.2631892561912537e-01" cType="1" res="-2.6357322931289673e-01" rms="2.6722365617752075e-01" purity="1.0842877626419067e-01" nType="0">
          <Node pos="l" depth="2" NCoef="0" IVar="-1" Cut="0.0000000000000000e+00" cType="1" res="-6.6560216248035431e-02" rms="2.0872518420219421e-01" purity="5.2446436136960983e-02" nType="-99"/>
          <Node pos="r" depth="2" NCoef="0" IVar="-1" Cut="0.0000000000000000e+00" cType="1" res="2.1424638107419014e-02" rms="4.3838742375373840e-01" purity="6.4867377281188965e-01" nType="-99"/>
        </Node>
      </Node>
    </BinaryTree>
    <BinaryTree type="DecisionTree" boostWeight="1.0000000000000000e+00" itree="5">
      <Node pos="s" depth="0" NCoef="0" IVar="2" Cut="1.7473366856575012e-01" cType="1" res="2.8622592799365520e-03" rms="3.5117939114570618e-01" purity="5.0339543819427490e-01" nType="0">
        <Node pos="l" depth="1" NCoef="0" IVar="5" Cut="1.6385675966739655e-01" cType="1" res="2.2810858488082886e-01" rms="2.7755108475685120e-01" purity="8.7475991249084473e-01" nType="0">
          <Node pos="l" depth="2" NCoef="0" IVar="-1" Cut="0.0000000000000000e+00" cType="1" res="-2.0702758803963661e-02" rms="4.4442522525787354e-01" purity="3.3363285660743713e-01" nType="-99"/>
          <Node pos="r" depth="2" NCoef="0" IVar="-1" Cut="0.0000000000000000e+00" cType="1" res="6.3556566834449768e-02" rms="2.0462161302566528e-01" purity="9.5322346687316895e-01" nType="-99"/>
        </Node>
        <Node pos="r" depth="1" NCoef="0" IVar="2" Cut="2.4549949169158936e-01" cType="1" res="-2.7258712053298950e-01" rms="2.0498944818973541e-01" purity="4.9260947853326797e-02" nType="0">
          <Node pos="l" depth="2" NCoef="0" IVar="-1" Cut="0.0000000000000000e+00" cType="1" res="-3.0580835416913033e-02" rms="3.8370463252067566e-01" purity="2.1273909509181976e-01" nType="-99"/>
          <Node pos="r" depth="2" NCoef="0" IVar="-1" Cut="0.0000000000000000e+00" cType="1" res="-6.7872323095798492e-02" rms="1.5154871344566345e-01" purity="2.4599235504865646e-02" nType="-99"/>
        </Node>
      </Node>
    </BinaryTree>
    <BinaryTree type="DecisionTree" boostWeight="1.0000000000000000e+00" itree="6">
      <Node pos="s" depth="0" NCoef="0" IVar="2" Cut="1.4285714924335480e-01" cType="1" res="3.2834841404110193e-03" rms="3.3008098602294922e-01" purity="5.0391715764999390e-01" nType="0">
        <Node pos="l" depth="1" NCoef="0" IVar="1" Cut="1.4285714924335480e-01" cType="1" res="2.2276672720909119e-01" rms="2.4855652451515198e-01" purity="9.0687090158462524e-01" nType="0">
          <Node pos="l" depth="2" NCoef="0" IVar="-1" Cut="0.0000000000000000e+00" cType="1" res="6.0739174485206604e-02" rms="1.9770385324954987e-01" purity="9.5202428102493286e-01" nType="-99"/>
          <Node pos="r" depth="2" NCoef="0" IVar="-1" Cut="0.0000000000000000e+00" cType="1" res="-1.5752542763948441e-02" rms="4.4555053114891052e-01" purity="4.4433856010437012e-01" nType="-99"/>
        </Node>
        <Node pos="r" depth="1" NCoef="0" IVar="1" Cut="8.1600613892078400e-02" cType="1" res="-2.3675301671028137e-01" rms="2.2414843738079071e-01" purity="6.3229352235794067e-02" nType="0">
          <Node pos="l" depth="2" NCoef="0" IVar="-1" Cut="0.0000000000000000e+00" cType="1" res="1.6773418756201863e-03" rms="4.3474674224853516e-01" purity="3.7899944186210632e-01" nType="-99"/>
          <Node pos="r" depth="2" NCoef="0" IVar="-1" Cut="0.0000000000000000e+00" cType="1" res="-6.1302762478590012e-02" rms="1.9073817133903503e-01" purity="4.1617337614297867e-02" nType="-99"/>
        </Node>
      </Node>
    </BinaryTree>
    <BinaryTree type="DecisionTree" boostWeight="1.0000000000000000e+00" itree="7">
      <Node pos="s" depth="0" NCoef="0" IVar="2" Cut="9.5238097012042999e-02" cType="1" res="1.8997086954186670e-05" rms="3.1469291448593140e-01" purity="5.0013536214828491e-01" nType="0">
        <Node pos="l" depth="1" NCoef="0" IVar="5" Cut="1.5675692260265350e-01" cType="1" res="2.1860665082931519e-01" rms="2.1279592812061310e-01" purity="9.3874508142471313e-01" nType="0">
          <Node pos="l" depth="2" NCoef="0" IVar="-1" Cut="0.0000000000000000e+00" cType="1" res="-1.5410864725708961e-03" rms="4.8509615659713745e-01" purity="4.5447197556495667e-01" nType="-99"/>
          <Node pos="r" depth="2" NCoef="0" IVar="-1" Cut="0.0000000000000000e+00" cType="1" res="5.9807267040014267e-02" rms="1.7425227165222168e-01" purity="9.6831732988357544e-01" nType="-99"/>
        </Node>
        <Node pos="r" depth="1" NCoef="0" IVar="5" Cut="2.2942270338535309e-01" cType="1" res="-1.9248721003532410e-01" rms="2.5928699970245361e-01" purity="1.1385967582464218e-01" nType="0">
          <Node pos="l" depth="2" NCoef="0" IVar="-1" Cut="0.0000000000000000e+00" cType="1" res="-5.6455560028553009e-02" rms="2.1348737180233002e-01" purity="5.5788405239582062e-02" nType="-99"/>
          <Node pos="r" depth="2" NCoef="0" IVar="-1" Cut="0.0000000000000000e+00" cType="1" res="1.9446015357971191e-02" rms="4.2507919669151306e-01" purity="6.5321063995361328e-01" nType="-99"/>
        </Node>
      </Node>
    </BinaryTree>
    <BinaryTree type="DecisionTree" boostWeight="1.0000000000000000e+00" itree="8">
      <Node pos="s" depth="0" NCoef="0" IVar="5" Cut="1.8212527036666870e-01" cType="1" res="2.6182916481047869e-03" rms="2.9860359430313110e-01" purity="5.0454097986221313e-01" nType="0">
        <Node pos="l" depth="1" NCoef="0" IVar="2" Cut="9.5238097012042999e-02" cType="1" res="-1.9111995398998260e-01" rms="2.3457862436771393e-01" purity="8.6138300597667694e-02" nType="0">
          <Node pos="l" depth="2" NCoef="0" IVar="-1" Cut="0.0000000000000000e+00" cType="1" res="1.0180920362472534e-02" rms="4.5911601185798645e-01" purity="6.0139775276184082e-01" nType="-99"/>
          <Node pos="r" depth="2" NCoef="0" IVar="-1" Cut="0.0000000000000000e+00" cType="1" res="-5.7037796825170517e-02" rms="1.8773511052131653e-01" purity="3.9196502417325974e-02" nType="-99"/>
        </Node>
        <Node pos="r" depth="1" NCoef="0" IVar="2" Cut="3.0492651462554932e-01" cType="1" res="1.8836994469165802e-01" rms="2.2672219574451447e-01" purity="9.0569549798965454e-01" nType="0">
          <Node pos="l" depth="2" NCoef="0" IVar="-1" Cut="0.0000000000000000e+00" cType="1" res="5.6787323206663132e-02" rms="1.9889990985393524e-01" purity="9.4990128278732300e-01" nType="-99"/>
          <Node pos="r" depth="2" NCoef="0" IVar="-1" Cut="0.0000000000000000e+00" cType="1" res="-6.5873198211193085e-02" rms="2.2674760222434998e-01" purity="4.6253141015768051e-02" nType="-99"/>
        </Node>
      </Node>
    </BinaryTree>
    <BinaryTree type="DecisionTree" boostWeight="1.0000000000000000e+00" itree="9">
      <Node pos="s" depth="0" NCoef="0" IVar="2" Cut="1.8210351467132568e-01" cType="1" res="-4.3864506296813488e-03" rms="2.8520745038986206e-01" purity="4.9336296319961548e-01" nType="0">
        <Node pos="l" depth="1" NCoef="0" IVar="1" Cut="1.4285714924335480e-01" cType="1" res="1.4871050417423248e-01" rms="2.6293838024139404e-01" purity="8.6411809921264648e-01" nType="0">
          <Node pos="l" depth="2" NCoef="0" IVar="-1" Cut="0.0000000000000000e+00" cType="1" res="5.1082946360111237e-02" rms="2.1655234694480896e-01" purity="9.3428528308868408e-01" nType="-99"/>
          <Node pos="r" depth="2" NCoef="0" IVar="-1" Cut="0.0000000000000000e+00" cType="1" res="-2.2892763838171959e-02" rms="4.0631866455078125e-01" purity="3.4536394476890564e-01" nType="-99"/>
        </Node>
        <Node pos="r" depth="1" NCoef="0" IVar="1" Cut="1.1674315482378006e-01" cType="1" res="-1.9267407059669495e-01" rms="1.7910137772560120e-01" purity="3.7386495620012283e-02" nType="0">
          <Node pos="l" depth="2" NCoef="0" IVar="-1" Cut="0.0000000000000000e+00" cType="1" res="-2.8220014646649361e-02" rms="3.3836656808853149e-01" purity="1.7068620026111603e-01" nType="-99"/>
          <Node pos="r" depth="2" NCoef="0" IVar="-1" Cut="0.0000000000000000e+00" cType="1" res="-5.8001209050416946e-02" rms="1.5103439986705780e-01" purity="2.3673459887504578e-02" nType="-99"/>
        </Node>
      </Node>
    </BinaryTree>
    <BinaryTree type="DecisionTree" boostWeight="1.0000000000000000e+00" itree="10">
      <Node pos="s" depth="0" NCoef="0" IVar="2" Cut="9.5238097012042999e-02" cType="1" res="-1.3845578068867326e-03" rms="2.7337875962257385e-01" purity="5.0174802541732788e-01" nType="0">
        <Node pos="l" depth="1" NCoef="0" IVar="5" Cut="2.3124527931213379e-01" cType="1" res="1.6010610759258270e-01" rms="2.1019519865512848e-01" purity="9.3744564056396484e-01" nType="0">
          <Node pos="l" depth="2" NCoef="0" IVar="-1" Cut="0.0000000000000000e+00" cType="1" res="1.2786939740180969e-02" rms="3.7818092107772827e-01" purity="7.3948043584823608e-01" nType="-99"/>
          <Node pos="r" depth="2" NCoef="0" IVar="-1" Cut="0.0000000000000000e+00" cType="1" res="5.6501127779483795e-02" rms="1.4178220927715302e-01" purity="9.7930324077606201e-01" nType="-99"/>
        </Node>
        <Node pos="r" depth="1" NCoef="0" IVar="5" Cut="2.2942270338535309e-01" cType="1" res="-1.4637988805770874e-01" rms="2.4027055501937866e-01" purity="1.1055442690849304e-01" nType="0">
          <Node pos="l" depth="2" NCoef="0" IVar="-1" Cut="0.0000000000000000e+00" cType="1" res="-4.9980916082859039e-02" rms="2.0550721883773804e-01" purity="5.4311882704496384e-02" nType="-99"/>
          <Node pos="r" depth="2" NCoef="0" IVar="-1" Cut="0.0000000000000000e+00" cType="1" res="1.2760915793478489e-02" rms="4.0121087431907654e-01" purity="6.4748412370681763e-01" nType="-99"/>
        </Node>
      </Node>
    </BinaryTree>
    <BinaryTree type="DecisionTree" boostWeight="1.0000000000000000e+00" itree="11">
      <Node pos="s" depth="0" NCoef="0" IVar="2" Cut="1.8210351467132568e-01" cType="1" res="2.7883907314389944e-03" rms="2.6454743742942810e-01" purity="5.0614869594573975e-01" nType="0">
        <Node pos="l" depth="1" NCoef="0" IVar="1" Cut="1.9047619402408600e-01" cType="1" res="1.2748068571090698e-01" rms="2.5166988372802734e-01" purity="8.6860251426696777e-01" nType="0">
          <Node pos="l" depth="2" NCoef="0" IVar="-1" Cut="0.0000000000000000e+00" cType="1" res="4.6393711119890213e-02" rms="2.2034592926502228e-01" purity="9.2565870285034180e-01" nType="-99"/>
          <Node pos="r" depth="2" NCoef="0" IVar="-1" Cut="0.0000000000000000e+00" cType="1" res="-3.0810486525297165e-02" rms="3.9676800370216370e-01" purity="2.3050902783870697e-01" nType="-99"/>
        </Node>
        <Node pos="r" depth="1" NCoef="0" IVar="2" Cut="2.9278245568275452e-01" cType="1" res="-1.5769426524639130e-01" rms="1.8103973567485809e-01" purity="3.9660025388002396e-02" nType="0">
          <Node pos="l" depth="2" NCoef="0" IVar="-1" Cut="0.0000000000000000e+00" cType="1" res="-2.5528000667691231e-02" rms="3.1356573104858398e-01" purity="1.3660092651844025e-01" nType="-99"/>
          <Node pos="r" depth="2" NCoef="0" IVar="-1" Cut="0.0000000000000000e+00" cType="1" res="-5.8328390121459961e-02" rms="1.0960320383310318e-01" purity="1.1823688633739948e-02" nType="-99"/>
        </Node>
      </Node>
    </BinaryTree>
    <BinaryTree type="DecisionTree" boostWeight="1.0000000000000000e+00" itree="12">
      <Node pos="s" depth="0" NCoef="0" IVar="5" Cut="1.7441597580909729e-01" cType="1" res="-1.4449756126850843e-03" rms="2.5866615772247314e-01" purity="4.9778366088867188e-01" nType="0">
        <Node pos="l" depth="1" NCoef="0" IVar="2" Cut="8.7748833000659943e-02" cType="1" res="-1.3544176518917084e-01" rms="2.2231686115264893e-01" purity="7.7507473528385162e-02" nType="0">
          <Node pos="l" depth="2" NCoef="0" IVar="-1" Cut="0.0000000000000000e+00" cType="1" res="1.2713153846561909e-03" rms="4.6191862225532532e-01" purity="5.5938023328781128e-01" nType="-99"/>
          <Node pos="r" depth="2" NCoef="0" IVar="-1" Cut="0.0000000000000000e+00" cType="1" res="-4.9326848238706589e-02" rms="1.8712356686592102e-01" purity="4.0060624480247498e-02" nType="-99"/>
        </Node>
        <Node pos="r" depth="1" NCoef="0" IVar="2" Cut="3.0096915364265442e-01" cType="1" res="1.2447385489940643e-01" rms="2.2496514022350311e-01" purity="8.9272367954254150e-01" nType="0">
          <Node pos="l" depth="2" NCoef="0" IVar="-1" Cut="0.0000000000000000e+00" cType="1" res="4.7105420380830765e-02" rms="2.1151597797870636e-01" purity="9.3924129009246826e-01" nType="-99"/>
          <Node pos="r" depth="2" NCoef="0" IVar="-1" Cut="0.0000000000000000e+00" cType="1" res="-5.9319302439689636e-02" rms="2.0247031748294830e-01" purity="3.3756293356418610e-02" nType="-99"/>
        </Node>
      </Node>
    </BinaryTree>
    <BinaryTree type="DecisionTree" boostWeight="1.0000000000000000e+00" itree="13">
      <Node pos="s" depth="0" NCoef="0" IVar="2" Cut="1.9047619402408600e-01" cType="1" res="7.8575639054179192e-04" rms="2.5015541911125183e-01" purity="4.9982145428657532e-01" nType="0">
        <Node pos="l" depth="1" NCoef="0" IVar="1" Cut="1.4285714924335480e-01" cType="1" res="1.0517136007547379e-01" rms="2.5144809484481812e-01" purity="8.6294412612915039e-01" nType="0">
          <Node pos="l" depth="2" NCoef="0" IVar="-1" Cut="0.0000000000000000e+00" cType="1" res="4.4172130525112152e-02" rms="2.1241836249828339e-01" purity="9.3547123670578003e-01" nType="-99"/>
          <Node pos="r" depth="2" NCoef="0" IVar="-1" Cut="0.0000000000000000e+00" cType="1" res="-1.3286063447594643e-02" rms="4.0253013372421265e-01" purity="3.5485994815826416e-01" nType="-99"/>
        </Node>
        <Node pos="r" depth="1" NCoef="0" IVar="2" Cut="2.2907236218452454e-01" cType="1" res="-1.3230417668819427e-01" rms="1.7362433671951294e-01" purity="3.6845915019512177e-02" nType="0">
          <Node pos="l" depth="2" NCoef="0" IVar="-1" Cut="0.0000000000000000e+00" cType="1" res="-1.1566068977117538e-02" rms="3.6183613538742065e-01" purity="1.9709198176860809e-01" nType="-99"/>
          <Node pos="r" depth="2" NCoef="0" IVar="-1" Cut="0.0000000000000000e+00" cType="1" res="-5.1726404577493668e-02" rms="1.4521905779838562e-01" purity="2.3670980706810951e-02" nType="-99"/>
        </Node>
      </Node>
    </BinaryTree>
    <BinaryTree type="DecisionTree" boostWeight="1.0000000000000000e+00" itree="14">
      <Node pos="s" depth="0" NCoef="0" IVar="5" Cut="1.8258979916572571e-01" cType="1" res="-5.0557294161990285e-04" rms="2.4351482093334198e-01" purity="4.9667251110076904e-01" nType="0">
        <Node pos="l" depth="1" NCoef="0" IVar="2" Cut="8.7748833000659943e-02" cType="1" res="-1.1024985462427139e-01" rms="2.2428800165653229e-01" purity="8.3319582045078278e-02" nType="0">
          <Node pos="l" depth="2" NCoef="0" IVar="-1" Cut="0.0000000000000000e+00" cType="1" res="-2.3600063286721706e-04" rms="4.5346242189407349e-01" purity="5.8106571435928345e-01" nType="-99"/>
          <Node pos="r" depth="2" NCoef="0" IVar="-1" Cut="0.0000000000000000e+00" cType="1" res="-4.5139767229557037e-02" rms="1.9163399934768677e-01" purity="4.3132744729518890e-02" nType="-99"/>
        </Node>
        <Node pos="r" depth="1" NCoef="0" IVar="2" Cut="2.6136559247970581e-01" cType="1" res="1.0715775936841965e-01" rms="2.1146266162395477e-01" purity="9.0218752622604370e-01" nType="0">
          <Node pos="l" depth="2" NCoef="0" IVar="-1" Cut="0.0000000000000000e+00" cType="1" res="4.5005079358816147e-02" rms="1.9785235822200775e-01" purity="9.4929075241088867e-01" nType="-99"/>
          <Node pos="r" depth="2" NCoef="0" IVar="-1" Cut="0.0000000000000000e+00" cType="1" res="-4.0793720632791519e-02" rms="2.8005450963973999e-01" purity="8.8298581540584564e-02" nType="-99"/>
        </Node>
      </Node>
    </BinaryTree>
    <BinaryTree type="DecisionTree" boostWeight="1.0000000000000000e+00" itree="15">
      <Node pos="s" depth="0" NCoef="0" IVar="5" Cut="1.7253245413303375e-01" cType="1" res="-2.0897487411275506e-04" rms="2.3591154813766479e-01" purity="5.0170576572418213e-01" nType="0">
        <Node pos="l" depth="1" NCoef="0" IVar="3" Cut="1.7356531322002411e-01" cType="1" res="-1.0280860960483551e-01" rms="2.1794162690639496e-01" purity="7.3698468506336212e-02" nType="0">
          <Node pos="l" depth="2" NCoef="0" IVar="-1" Cut="0.0000000000000000e+00" cType="1" res="-3.1167024746537209e-02" rms="2.3583443462848663e-01" purity="8.1130094826221466e-02" nType="-99"/>
          <Node pos="r" depth="2" NCoef="0" IVar="-1" Cut="0.0000000000000000e+00" cType="1" res="-4.7563470900058746e-02" rms="1.9315584003925323e-01" purity="6.5638504922389984e-02" nType="-99"/>
        </Node>
        <Node pos="r" depth="1" NCoef="0" IVar="2" Cut="2.9322537779808044e-01" cType="1" res="9.3308269977569580e-02" rms="2.1153651177883148e-01" purity="8.9182484149932861e-01" nType="0">
          <Node pos="l" depth="2" NCoef="0" IVar="-1" Cut="0.0000000000000000e+00" cType="1" res="4.2120419442653656e-02" rms="2.0225441455841064e-01" purity="9.4374555349349976e-01" nType="-99"/>
          <Node pos="r" depth="2" NCoef="0" IVar="-1" Cut="0.0000000000000000e+00" cType="1" res="-4.7476135194301605e-02" rms="2.2095899283885956e-01" purity="4.9031581729650497e-02" nType="-99"/>
        </Node>
      </Node>
    </BinaryTree>
    <BinaryTree type="DecisionTree" boostWeight="1.0000000000000000e+00" itree="16">
      <Node pos="s" depth="0" NCoef="0" IVar="2" Cut="9.5238097012042999e-02" cType="1" res="1.9602477550506592e-03" rms="2.3227933049201965e-01" purity="5.0217616558074951e-01" nType="0">
        <Node pos="l" depth="1" NCoef="0" IVar="2" Cut="4.9823716282844543e-02" cType="1" res="9.8971188068389893e-02" rms="1.9880132377147675e-01" purity="9.4308024644851685e-01" nType="0">
          <Node pos="l" depth="2" NCoef="0" IVar="-1" Cut="0.0000000000000000e+00" cType="1" res="4.8593297600746155e-02" rms="1.5321926772594452e-01" purity="9.6898221969604492e-01" nType="-99"/>
          <Node pos="r" depth="2" NCoef="0" IVar="-1" Cut="0.0000000000000000e+00" cType="1" res="1.5231465920805931e-02" rms="3.0623725056648254e-01" purity="8.4855461120605469e-01" nType="-99"/>
        </Node>
        <Node pos="r" depth="1" NCoef="0" IVar="5" Cut="2.7911058068275452e-01" cType="1" res="-8.4067948162555695e-02" rms="2.2584296762943268e-01" purity="1.1118748784065247e-01" nType="0">
          <Node pos="l" depth="2" NCoef="0" IVar="-1" Cut="0.0000000000000000e+00" cType="1" res="-3.8927901536226273e-02" rms="2.1199941635131836e-01" purity="6.9481633603572845e-02" nType="-99"/>
          <Node pos="r" depth="2" NCoef="0" IVar="-1" Cut="0.0000000000000000e+00" cType="1" res="2.5082902982831001e-02" rms="3.3394277095794678e-01" purity="7.4951308965682983e-01" nType="-99"/>
        </Node>
      </Node>
    </BinaryTree>
    <BinaryTree type="DecisionTree" boostWeight="1.0000000000000000e+00" itree="17">
      <Node pos="s" depth="0" NCoef="0" IVar="2" Cut="8.7366834282875061e-02" cType="1" res="-1.5860095154494047e-03" rms="2.2534769773483276e-01" purity="4.9713626503944397e-01" nType="0">
        <Node pos="l" depth="1" NCoef="0" IVar="3" Cut="1.3706943392753601e-01" cType="1" res="8.9001029729843140e-02" rms="1.9281740486621857e-01" purity="9.4668245315551758e-01" nType="0">
          <Node pos="l" depth="2" NCoef="0" IVar="-1" Cut="0.0000000000000000e+00" cType="1" res="5.0068393349647522e-02" rms="1.3415017724037170e-01" purity="9.7380149364471436e-01" nType="-99"/>
          <Node pos="r" depth="2" NCoef="0" IVar="-1" Cut="0.0000000000000000e+00" cType="1" res="2.3969417437911034e-02" rms="2.5185254216194153e-01" purity="9.0703892707824707e-01" nType="-99"/>
        </Node>
        <Node pos="r" depth="1" NCoef="0" IVar="1" Cut="1.3031689822673798e-01" cType="1" res="-7.8135289251804352e-02" rms="2.2244654595851898e-01" purity="1.1725369840860367e-01" nType="0">
          <Node pos="l" depth="2" NCoef="0" IVar="-1" Cut="0.0000000000000000e+00" cType="1" res="1.1614437680691481e-03" rms="3.3708527684211731e-01" purity="4.3494763970375061e-01" nType="-99"/>
          <Node pos="r" depth="2" NCoef="0" IVar="-1" Cut="0.0000000000000000e+00" cType="1" res="-4.3937172740697861e-02" rms="1.7800445854663849e-01" purity="3.9220876991748810e-02" nType="-99"/>
        </Node>
      </Node>
    </BinaryTree>
    <BinaryTree type="DecisionTree" boostWeight="1.0000000000000000e+00" itree="18">
      <Node pos="s" depth="0" NCoef="0" IVar="5" Cut="1.8304850161075592e-01" cType="1" res="-3.5561912227421999e-03" rms="2.2273346781730652e-01" purity="4.9552792310714722e-01" nType="0">
        <Node pos="l" depth="1" NCoef="0" IVar="1" Cut="6.1904764175415039e-01" cType="1" res="-8.2789018750190735e-02" rms="2.1214127540588379e-01" purity="8.1020884215831757e-02" nType="0">
          <Node pos="l" depth="2" NCoef="0" IVar="-1" Cut="0.0000000000000000e+00" cType="1" res="-3.4166540950536728e-02" rms="2.1622750163078308e-01" purity="8.6732707917690277e-02" nType="-99"/>
          <Node pos="r" depth="2" NCoef="0" IVar="-1" Cut="0.0000000000000000e+00" cType="1" res="-6.4608044922351837e-02" rms="1.1195287108421326e-01" purity="1.9247666932642460e-03" nType="-99"/>
        </Node>
        <Node pos="r" depth="1" NCoef="0" IVar="1" Cut="1.3813823461532593e-01" cType="1" res="7.4373207986354828e-02" rms="2.0467813313007355e-01" purity="9.0321606397628784e-01" nType="0">
          <Node pos="l" depth="2" NCoef="0" IVar="-1" Cut="0.0000000000000000e+00" cType="1" res="4.0329337120056152e-02" rms="1.8675020337104797e-01" purity="9.4434422254562378e-01" nType="-99"/>
          <Node pos="r" depth="2" NCoef="0" IVar="-1" Cut="0.0000000000000000e+00" cType="1" res="-2.4553546682000160e-02" rms="3.1886249780654907e-01" purity="4.1325348615646362e-01" nType="-99"/>
        </Node>
      </Node>
    </BinaryTree>
    <BinaryTree type="DecisionTree" boostWeight="1.0000000000000000e+00" itree="19">
      <Node pos="s" depth="0" NCoef="0" IVar="1" Cut="9.5238097012042999e-02" cType="1" res="7.7702116686850786e-04" rms="2.2685341536998749e-01" purity="5.0062984228134155e-01" nType="0">
        <Node pos="l" depth="1" NCoef="0" IVar="5" Cut="1.8144057691097260e-01" cType="1" res="7.4283786118030548e-02" rms="2.0233160257339478e-01" purity="9.0751194953918457e-01" nType="0">
          <Node pos="l" depth="2" NCoef="0" IVar="-1" Cut="0.0000000000000000e+00" cType="1" res="-3.4818153362721205e-03" rms="3.3971685171127319e-01" purity="4.1222551465034485e-01" nType="-99"/>
          <Node pos="r" depth="2" NCoef="0" IVar="-1" Cut="0.0000000000000000e+00" cType="1" res="4.1092116385698318e-02" rms="1.8153126537799835e-01" purity="9.5545917749404907e-01" nType="-99"/>
        </Node>
        <Node pos="r" depth="1" NCoef="0" IVar="2" Cut="4.2479071766138077e-02" cType="1" res="-6.1019863933324814e-02" rms="2.2792312502861023e-01" purity="1.5856538712978363e-01" nType="0">
          <Node pos="l" depth="2" NCoef="0" IVar="-1" Cut="0.0000000000000000e+00" cType="1" res="2.6766840368509293e-02" rms="2.7443867921829224e-01" purity="8.5498279333114624e-01" nType="-99"/>
          <Node pos="r" depth="2" NCoef="0" IVar="-1" Cut="0.0000000000000000e+00" cType="1" res="-3.3608097583055496e-02" rms="2.2055301070213318e-01" purity="1.0445164144039154e-01" nType="-99"/>
        </Node>
      </Node>
    </BinaryTree>
    <BinaryTree type="DecisionTree" boostWeight="1.0000000000000000e+00" itree="20">
      <Node pos="s" depth="0" NCoef="0" IVar="5" Cut="2.1800158917903900e-01" cType="1" res="-2.1104128099977970e-03" rms="2.2039648890495300e-01" purity="4.9543166160583496e-01" nType="0">
        <Node pos="l" depth="1" NCoef="0" IVar="2" Cut="4.7619048506021500e-02" cType="1" res="-6.1231806874275208e-02" rms="2.2925159335136414e-01" purity="1.3217467069625854e-01" nType="0">
          <Node pos="l" depth="2" NCoef="0" IVar="-1" Cut="0.0000000000000000e+00" cType="1" res="1.5692671760916710e-02" rms="3.2890751957893372e-01" purity="8.0561214685440063e-01" nType="-99"/>
          <Node pos="r" depth="2" NCoef="0" IVar="-1" Cut="0.0000000000000000e+00" cType="1" res="-3.4499172121286392e-02" rms="2.1656577289104462e-01" purity="7.6445251703262329e-02" nType="-99"/>
        </Node>
        <Node pos="r" depth="1" NCoef="0" IVar="1" Cut="1.2622871994972229e-01" cType="1" res="6.9601893424987793e-02" rms="1.8537147343158722e-01" purity="9.3605047464370728e-01" nType="0">
          <Node pos="l" depth="2" NCoef="0" IVar="-1" Cut="0.0000000000000000e+00" cType="1" res="4.0565595030784607e-02" rms="1.6938075423240662e-01" purity="9.6052658557891846e-01" nType="-99"/>
          <Node pos="r" depth="2" NCoef="0" IVar="-1" Cut="0.0000000000000000e+00" cType="1" res="-8.3409231156110764e-03" rms="3.1797063350677490e-01" purity="6.0668396949768066e-01" nType="-99"/>
        </Node>
      </Node>
    </BinaryTree>
    <BinaryTree type="DecisionTree" boostWeight="1.0000000000000000e+00" itree="21">
      <Node pos="s" depth="0" NCoef="0" IVar="2" Cut="2.1841709315776825e-01" cType="1" res="-1.0524754179641604e-03" rms="2.1840405464172363e-01" purity="4.9751791357994080e-01" nType="0">
        <Node pos="l" depth="1" NCoef="0" IVar="1" Cut="4.7619047760963440e-01" cType="1" res="4.9365330487489700e-02" rms="2.4314650893211365e-01" purity="8.3285492658615112e-01" nType="0">
          <Node pos="l" depth="2" NCoef="0" IVar="-1" Cut="0.0000000000000000e+00" cType="1" res="2.7964565902948380e-02" rms="2.3749195039272308e-01" purity="8.6935442686080933e-01" nType="-99"/>
          <Node pos="r" depth="2" NCoef="0" IVar="-1" Cut="0.0000000000000000e+00" cType="1" res="-4.3136090040206909e-02" rms="2.8787490725517273e-01" purity="7.8033842146396637e-02" nType="-99"/>
        </Node>
        <Node pos="r" depth="1" NCoef="0" IVar="2" Cut="3.5155090689659119e-01" cType="1" res="-7.1717031300067902e-02" rms="1.5211248397827148e-01" purity="2.7516528964042664e-02" nType="0">
          <Node pos="l" depth="2" NCoef="0" IVar="-1" Cut="0.0000000000000000e+00" cType="1" res="-2.4191962555050850e-02" rms="2.1982869505882263e-01" purity="6.4458236098289490e-02" nType="-99"/>
          <Node pos="r" depth="2" NCoef="0" IVar="-1" Cut="0.0000000000000000e+00" cType="1" res="-5.0187483429908752e-02" rms="1.0237090289592743e-01" purity="9.7370650619268417e-03" nType="-99"/>
        </Node>
      </Node>
    </BinaryTree>
    <BinaryTree type="DecisionTree" boostWeight="1.0000000000000000e+00" itree="22">
      <Node pos="s" depth="0" NCoef="0" IVar="2" Cut="1.9047619402408600e-01" cType="1" res="2.0566538441926241e-03" rms="2.1522888541221619e-01" purity="5.0670522451400757e-01" nType="0">
        <Node pos="l" depth="1" NCoef="0" IVar="1" Cut="3.3333334326744080e-01" cType="1" res="5.0561036914587021e-02" rms="2.3383055627346039e-01" purity="8.6404639482498169e-01" nType="0">
          <Node pos="l" depth="2" NCoef="0" IVar="-1" Cut="0.0000000000000000e+00" cType="1" res="2.9374703764915466e-02" rms="2.2520524263381958e-01" purity="9.0120738744735718e-01" nType="-99"/>
          <Node pos="r" depth="2" NCoef="0" IVar="-1" Cut="0.0000000000000000e+00" cType="1" res="-3.2231710851192474e-02" rms="3.3287969231605530e-01" purity="1.2094771116971970e-01" nType="-99"/>
        </Node>
        <Node pos="r" depth="1" NCoef="0" IVar="2" Cut="3.0622074007987976e-01" cType="1" res="-6.1666451394557953e-02" rms="1.6792204976081848e-01" purity="3.7244770675897598e-02" nType="0">
          <Node pos="l" depth="2" NCoef="0" IVar="-1" Cut="0.0000000000000000e+00" cType="1" res="-1.1837963014841080e-02" rms="2.7013546228408813e-01" purity="1.1286564171314240e-01" nType="-99"/>
          <Node pos="r" depth="2" NCoef="0" IVar="-1" Cut="0.0000000000000000e+00" cType="1" res="-4.7135837376117706e-02" rms="1.1452935636043549e-01" purity="1.2767067179083824e-02" nType="-99"/>
        </Node>
      </Node>
    </BinaryTree>
    <BinaryTree type="DecisionTree" boostWeight="1.0000000000000000e+00" itree="23">
      <Node pos="s" depth="0" NCoef="0" IVar="5" Cut="2.3161999881267548e-01" cType="1" res="9.4731745775789022e-05" rms="2.1651543676853180e-01" purity="5.0184118747711182e-01" nType="0">
        <Node pos="l" depth="1" NCoef="0" IVar="2" Cut="4.7619048506021500e-02" cType="1" res="-4.3502774089574814e-02" rms="2.3573711514472961e-01" purity="1.6249641776084900e-01" nType="0">
          <Node pos="l" depth="2" NCoef="0" IVar="-1" Cut="0.0000000000000000e+00" cType="1" res="1.9077619537711143e-02" rms="3.0010527372360229e-01" purity="8.4375464916229248e-01" nType="-99"/>
          <Node pos="r" depth="2" NCoef="0" IVar="-1" Cut="0.0000000000000000e+00" cType="1" res="-2.9861347749829292e-02" rms="2.2529007494449615e-01" purity="8.8450394570827484e-02" nType="-99"/>
        </Node>
        <Node pos="r" depth="1" NCoef="0" IVar="2" Cut="7.9901359975337982e-02" cType="1" res="5.6774225085973740e-02" rms="1.7289815843105316e-01" purity="9.4301068782806396e-01" nType="0">
          <Node pos="l" depth="2" NCoef="0" IVar="-1" Cut="0.0000000000000000e+00" cType="1" res="4.4315110892057419e-02" rms="1.2181285768747330e-01" purity="9.8476999998092651e-01" nType="-99"/>
          <Node pos="r" depth="2" NCoef="0" IVar="-1" Cut="0.0000000000000000e+00" cType="1" res="1.3653399655595422e-03" rms="3.3564233779907227e-01" purity="7.0435696840286255e-01" nType="-99"/>
        </Node>
      </Node>
    </BinaryTree>
    <BinaryTree type="DecisionTree" boostWeight="1.0000000000000000e+00" itree="24">
      <Node pos="s" depth="0" NCoef="0" IVar="5" Cut="1.6410800814628601e-01" cType="1" res="-3.1962769571691751e-03" rms="2.0746482908725739e-01" purity="4.9550706148147583e-01" nType="0">
        <Node pos="l" depth="1" NCoef="0" IVar="3" Cut="9.5238097012042999e-02" cType="1" res="-5.4430980235338211e-02" rms="1.9272243976593018e-01" purity="5.7245202362537384e-02" nType="0">
          <Node pos="l" depth="2" NCoef="0" IVar="-1" Cut="0.0000000000000000e+00" cType="1" res="-1.2461591511964798e-02" rms="2.2874106466770172e-01" purity="8.5812896490097046e-02" nType="-99"/>
          <Node pos="r" depth="2" NCoef="0" IVar="-1" Cut="0.0000000000000000e+00" cType="1" res="-3.9926704019308090e-02" rms="1.7322412133216858e-01" purity="4.5102655887603760e-02" nType="-99"/>
        </Node>
        <Node pos="r" depth="1" NCoef="0" IVar="2" Cut="3.9204838871955872e-01" cType="1" res="4.1766189038753510e-02" rms="2.0950861275196075e-01" purity="8.8011622428894043e-01" nType="0">
          <Node pos="l" depth="2" NCoef="0" IVar="-1" Cut="0.0000000000000000e+00" cType="1" res="2.9663059860467911e-02" rms="2.0964384078979492e-01" purity="9.2709928750991821e-01" nType="-99"/>
          <Node pos="r" depth="2" NCoef="0" IVar="-1" Cut="0.0000000000000000e+00" cType="1" res="-5.5892944335937500e-02" rms="1.2641620635986328e-01" purity="9.4348285347223282e-03" nType="-99"/>
        </Node>
      </Node>
    </BinaryTree>
    <BinaryTree type="DecisionTree" boostWeight="1.0000000000000000e+00" itree="25">
      <Node pos="s" depth="0" NCoef="0" IVar="2" Cut="1.8210351467132568e-01" cType="1" res="1.6845710342749953e-03" rms="2.0860277116298676e-01" purity="5.0036799907684326e-01" nType="0">
        <Node pos="l" depth="1" NCoef="0" IVar="3" Cut="1.3706943392753601e-01" cType="1" res="4.2218606919050217e-02" rms="2.2854337096214294e-01" purity="8.7361395359039307e-01" nType="0">
          <Node pos="l" depth="2" NCoef="0" IVar="-1" Cut="0.0000000000000000e+00" cType="1" res="4.4265698641538620e-02" rms="1.7442598938941956e-01" purity="9.3606680631637573e-01" nType="-99"/>
          <Node pos="r" depth="2" NCoef="0" IVar="-1" Cut="0.0000000000000000e+00" cType="1" res="4.5654689893126488e-03" rms="2.7527925372123718e-01" purity="8.0043369531631470e-01" nType="-99"/>
        </Node>
        <Node pos="r" depth="1" NCoef="0" IVar="2" Cut="3.2961073517799377e-01" cType="1" res="-4.8625458031892776e-02" rms="1.6770640015602112e-01" purity="3.7102460861206055e-02" nType="0">
          <Node pos="l" depth="2" NCoef="0" IVar="-1" Cut="0.0000000000000000e+00" cType="1" res="-1.1206692084670067e-02" rms="2.5974825024604797e-01" purity="9.8469503223896027e-02" nType="-99"/>
          <Node pos="r" depth="2" NCoef="0" IVar="-1" Cut="0.0000000000000000e+00" cType="1" res="-4.6655744314193726e-02" rms="1.0168188810348511e-01" purity="1.0142338462173939e-02" nType="-99"/>
        </Node>
      </Node>
    </BinaryTree>
    <BinaryTree type="DecisionTree" boostWeight="1.0000000000000000e+00" itree="26">
      <Node pos="s" depth="0" NCoef="0" IVar="1" Cut="1.4285714924335480e-01" cType="1" res="-1.6801749588921666e-03" rms="2.1463900804519653e-01" purity="4.9965417385101318e-01" nType="0">
        <Node pos="l" depth="1" NCoef="0" IVar="2" Cut="3.8095238804817200e-01" cType="1" res="3.2421331852674484e-02" rms="2.1883244812488556e-01" purity="8.3904492855072021e-01" nType="0">
          <Node pos="l" depth="2" NCoef="0" IVar="-1" Cut="0.0000000000000000e+00" cType="1" res="2.4176204577088356e-02" rms="2.2193542122840881e-01" purity="8.8880050182342529e-01" nType="-99"/>
          <Node pos="r" depth="2" NCoef="0" IVar="-1" Cut="0.0000000000000000e+00" cType="1" res="-5.4112914949655533e-02" rms="9.5743030309677124e-02" purity="6.1472202651202679e-03" nType="-99"/>
        </Node>
        <Node pos="r" depth="1" NCoef="0" IVar="3" Cut="4.1318324208259583e-01" cType="1" res="-4.4621322304010391e-02" rms="2.0117823779582977e-01" purity="7.2287946939468384e-02" nType="0">
          <Node pos="l" depth="2" NCoef="0" IVar="-1" Cut="0.0000000000000000e+00" cType="1" res="-2.5085959583520889e-02" rms="1.9533149898052216e-01" purity="7.1396924555301666e-02" nType="-99"/>
          <Node pos="r" depth="2" NCoef="0" IVar="-1" Cut="0.0000000000000000e+00" cType="1" res="-5.8701198548078537e-02" rms="2.4888408184051514e-01" purity="8.4701627492904663e-02" nType="-99"/>
        </Node>
      </Node>
    </BinaryTree>
    <BinaryTree type="DecisionTree" boostWeight="1.0000000000000000e+00" itree="27">
      <Node pos="s" depth="0" NCoef="0" IVar="2" Cut="4.7619048506021500e-02" cType="1" res="9.2980376211926341e-04" rms="2.1189342439174652e-01" purity="4.9750232696533203e-01" nType="0">
        <Node pos="l" depth="1" NCoef="0" IVar="3" Cut="1.3706943392753601e-01" cType="1" res="4.8949208110570908e-02" rms="1.5315198898315430e-01" purity="9.6668791770935059e-01" nType="0">
          <Node pos="l" depth="2" NCoef="0" IVar="-1" Cut="0.0000000000000000e+00" cType="1" res="4.5325577259063721e-02" rms="1.0921977460384369e-01" purity="9.8220890760421753e-01" nType="-99"/>
          <Node pos="r" depth="2" NCoef="0" IVar="-1" Cut="0.0000000000000000e+00" cType="1" res="2.3122491315007210e-02" rms="2.0441173017024994e-01" purity="9.4161552190780640e-01" nType="-99"/>
        </Node>
        <Node pos="r" depth="1" NCoef="0" IVar="5" Cut="3.0761566758155823e-01" cType="1" res="-2.6388304308056831e-02" rms="2.3460558056831360e-01" purity="2.3058390617370605e-01" nType="0">
          <Node pos="l" depth="2" NCoef="0" IVar="-1" Cut="0.0000000000000000e+00" cType="1" res="-2.2066641598939896e-02" rms="2.3433491587638855e-01" purity="1.4272435009479523e-01" nType="-99"/>
          <Node pos="r" depth="2" NCoef="0" IVar="-1" Cut="0.0000000000000000e+00" cType="1" res="2.6113359257578850e-02" rms="2.2314774990081787e-01" purity="9.0745598077774048e-01" nType="-99"/>
        </Node>
      </Node>
    </BinaryTree>
    <BinaryTree type="DecisionTree" boostWeight="1.0000000000000000e+00" itree="28">
      <Node pos="s" depth="0" NCoef="0" IVar="2" Cut="4.5525878667831421e-02" cType="1" res="-5.7904905406758189e-04" rms="2.0896205306053162e-01" purity="4.9866059422492981e-01" nType="0">
        <Node pos="l" depth="1" NCoef="0" IVar="1" Cut="9.8286390304565430e-02" cType="1" res="4.4956251978874207e-02" rms="1.4874899387359619e-01" purity="9.6802228689193726e-01" nType="0">
          <Node pos="l" depth="2" NCoef="0" IVar="-1" Cut="0.0000000000000000e+00" cType="1" res="4.0819108486175537e-02" rms="1.2342577427625656e-01" purity="9.8355251550674438e-01" nType="-99"/>
          <Node pos="r" depth="2" NCoef="0" IVar="-1" Cut="0.0000000000000000e+00" cType="1" res="6.1155371367931366e-03" rms="2.9661521315574646e-01" purity="8.1731653213500977e-01" nType="-99"/>
        </Node>
        <Node pos="r" depth="1" NCoef="0" IVar="3" Cut="5.8568608760833740e-01" cType="1" res="-2.5601537898182869e-02" rms="2.3180945217609406e-01" purity="2.4073769152164459e-01" nType="0">
          <Node pos="l" depth="2" NCoef="0" IVar="-1" Cut="0.0000000000000000e+00" cType="1" res="-1.2279402464628220e-02" rms="2.1822077035903931e-01" purity="2.1918345987796783e-01" nType="-99"/>
          <Node pos="r" depth="2" NCoef="0" IVar="-1" Cut="0.0000000000000000e+00" cType="1" res="-5.6082449853420258e-02" rms="3.7705764174461365e-01" purity="5.9732526540756226e-01" nType="-99"/>
        </Node>
      </Node>
    </BinaryTree>
    <BinaryTree type="DecisionTree" boostWeight="1.0000000000000000e+00" itree="29">
      <Node pos="s" depth="0" NCoef="0" IVar="2" Cut="2.3809523880481720e-01" cType="1" res="8.3294714568182826e-04" rms="2.0861449837684631e-01" purity="4.9760398268699646e-01" nType="0">
        <Node pos="l" depth="1" NCoef="0" IVar="1" Cut="5.2380955219268799e-01" cType="1" res="2.6668604463338852e-02" rms="2.3546797037124634e-01" purity="8.1509065628051758e-01" nType="0">
          <Node pos="l" depth="2" NCoef="0" IVar="-1" Cut="0.0000000000000000e+00" cType="1" res="2.0376890897750854e-02" rms="2.3379413783550262e-01" purity="8.5070586204528809e-01" nType="-99"/>
          <Node pos="r" depth="2" NCoef="0" IVar="-1" Cut="0.0000000000000000e+00" cType="1" res="-4.8311401158571243e-02" rms="2.3045116662979126e-01" purity="4.0936931967735291e-02" nType="-99"/>
        </Node>
        <Node pos="r" depth="1" NCoef="0" IVar="2" Cut="3.8322874903678894e-01" cType="1" res="-3.7462547421455383e-02" rms="1.5293054282665253e-01" purity="2.7002094313502312e-02" nType="0">
          <Node pos="l" depth="2" NCoef="0" IVar="-1" Cut="0.0000000000000000e+00" cType="1" res="-1.5259969048202038e-02" rms="2.0806528627872467e-01" purity="5.3852245211601257e-02" nType="-99"/>
          <Node pos="r" depth="2" NCoef="0" IVar="-1" Cut="0.0000000000000000e+00" cType="1" res="-4.4382281601428986e-02" rms="1.0304223001003265e-01" purity="1.0207402519881725e-02" nType="-99"/>
        </Node>
      </Node>
    </BinaryTree>
    <BinaryTree type="DecisionTree" boostWeight="1.0000000000000000e+00" itree="30">
      <Node pos="s" depth="0" NCoef="0" IVar="2" Cut="2.8571429848670959e-01" cType="1" res="2.5844620540738106e-03" rms="2.1136736869812012e-01" purity="5.0066155195236206e-01" nType="0">
        <Node pos="l" depth="1" NCoef="0" IVar="1" Cut="6.1904764175415039e-01" cType="1" res="2.5879260152578354e-02" rms="2.4261504411697388e-01" purity="7.6546859741210938e-01" nType="0">
          <Node pos="l" depth="2" NCoef="0" IVar="-1" Cut="0.0000000000000000e+00" cType="1" res="1.9804980605840683e-02" rms="2.4260567128658295e-01" purity="7.9816645383834839e-01" nType="-99"/>
          <Node pos="r" depth="2" NCoef="0" IVar="-1" Cut="0.0000000000000000e+00" cType="1" res="-5.2912041544914246e-02" rms="1.9816946983337402e-01" purity="2.7843829244375229e-02" nType="-99"/>
        </Node>
        <Node pos="r" depth="1" NCoef="0" IVar="4" Cut="1.7459465190768242e-02" cType="1" res="-4.0001038461923599e-02" rms="1.2624268233776093e-01" purity="1.6564760357141495e-02" nType="0">
          <Node pos="l" depth="2" NCoef="0" IVar="-1" Cut="0.0000000000000000e+00" cType="1" res="-4.6259421855211258e-02" rms="9.2684485018253326e-02" purity="9.5702037215232849e-03" nType="-99"/>
          <Node pos="r" depth="2" NCoef="0" IVar="-1" Cut="0.0000000000000000e+00" cType="1" res="-3.0340997502207756e-02" rms="1.4754094183444977e-01" purity="2.2323077544569969e-02" nType="-99"/>
        </Node>
      </Node>
    </BinaryTree>
    <BinaryTree type="DecisionTree" boostWeight="1.0000000000000000e+00" itree="31">
      <Node pos="s" depth="0" NCoef="0" IVar="5" Cut="2.1811820566654205e-01" cType="1" res="-1.5759794041514397e-04" rms="2.0856755971908569e-01" purity="4.9781468510627747e-01" nType="0">
        <Node pos="l" depth="1" NCoef="0" IVar="3" Cut="2.1120664477348328e-01" cType="1" res="-2.6165096089243889e-02" rms="2.2762636840343475e-01" purity="1.3767239451408386e-01" nType="0">
          <Node pos="l" depth="2" NCoef="0" IVar="-1" Cut="0.0000000000000000e+00" cType="1" res="-3.9605810306966305e-03" rms="2.1773055195808411e-01" purity="1.0973834246397018e-01" nType="-99"/>
          <Node pos="r" depth="2" NCoef="0" IVar="-1" Cut="0.0000000000000000e+00" cType="1" res="-3.2847654074430466e-02" rms="2.3784166574478149e-01" purity="1.7778731882572174e-01" nType="-99"/>
        </Node>
        <Node pos="r" depth="1" NCoef="0" IVar="3" Cut="6.1129212379455566e-01" cType="1" res="3.1432393938302994e-02" rms="1.7771641910076141e-01" purity="9.3526118993759155e-01" nType="0">
          <Node pos="l" depth="2" NCoef="0" IVar="-1" Cut="0.0000000000000000e+00" cType="1" res="3.0565051361918449e-02" rms="1.5871557593345642e-01" purity="9.4003111124038696e-01" nType="-99"/>
          <Node pos="r" depth="2" NCoef="0" IVar="-1" Cut="0.0000000000000000e+00" cType="1" res="-1.4778595417737961e-02" rms="2.7664652466773987e-01" purity="8.9943021535873413e-01" nType="-99"/>
        </Node>
      </Node>
    </BinaryTree>
    <BinaryTree type="DecisionTree" boostWeight="1.0000000000000000e+00" itree="32">
      <Node pos="s" depth="0" NCoef="0" IVar="1" Cut="9.5238097012042999e-02" cType="1" res="1.0813507251441479e-03" rms="2.0191487669944763e-01" purity="5.0263351202011108e-01" nType="0">
        <Node pos="l" depth="1" NCoef="0" IVar="0" Cut="-7.7915382385253906e-01" cType="1" res="3.2310847193002701e-02" rms="1.9192557036876678e-01" purity="9.0906471014022827e-01" nType="0">
          <Node pos="l" depth="2" NCoef="0" IVar="-1" Cut="0.0000000000000000e+00" cType="1" res="5.1952604204416275e-02" rms="1.4903548359870911e-01" purity="9.6339619159698486e-01" nType="-99"/>
          <Node pos="r" depth="2" NCoef="0" IVar="-1" Cut="0.0000000000000000e+00" cType="1" res="1.8236381933093071e-02" rms="2.0073176920413971e-01" purity="8.9481323957443237e-01" nType="-99"/>
        </Node>
        <Node pos="r" depth="1" NCoef="0" IVar="3" Cut="1.6585533320903778e-01" cType="1" res="-2.5929579511284828e-02" rms="2.0639581978321075e-01" purity="1.5110412240028381e-01" nType="0">
          <Node pos="l" depth="2" NCoef="0" IVar="-1" Cut="0.0000000000000000e+00" cType="1" res="-2.6336705777794123e-03" rms="2.1134343743324280e-01" purity="1.8628992140293121e-01" nType="-99"/>
          <Node pos="r" depth="2" NCoef="0" IVar="-1" Cut="0.0000000000000000e+00" cType="1" res="-3.5532172769308090e-02" rms="1.9735528528690338e-01" purity="1.1044898629188538e-01" nType="-99"/>
        </Node>
      </Node>
    </BinaryTree>
    <BinaryTree type="DecisionTree" boostWeight="1.0000000000000000e+00" itree="33">
      <Node pos="s" depth="0" NCoef="0" IVar="2" Cut="3.3333334326744080e-01" cType="1" res="1.8805717118084431e-03" rms="2.0787782967090607e-01" purity="4.9885490536689758e-01" nType="0">
        <Node pos="l" depth="1" NCoef="0" IVar="1" Cut="6.1904764175415039e-01" cType="1" res="1.8860574811697006e-02" rms="2.3662312328815460e-01" purity="7.1317899227142334e-01" nType="0">
          <Node pos="l" depth="2" NCoef="0" IVar="-1" Cut="0.0000000000000000e+00" cType="1" res="1.7022788524627686e-02" rms="2.3908658325672150e-01" purity="7.5064629316329956e-01" nType="-99"/>
          <Node pos="r" depth="2" NCoef="0" IVar="-1" Cut="0.0000000000000000e+00" cType="1" res="-5.6695207953453064e-02" rms="1.3974617421627045e-01" purity="1.0876389220356941e-02" nType="-99"/>
        </Node>
        <Node pos="r" depth="1" NCoef="0" IVar="2" Cut="5.8733755350112915e-01" cType="1" res="-3.6667373031377792e-02" rms="1.0984392464160919e-01" purity="1.2297158129513264e-02" nType="0">
          <Node pos="l" depth="2" NCoef="0" IVar="-1" Cut="0.0000000000000000e+00" cType="1" res="-3.6622676998376846e-02" rms="1.1705750226974487e-01" purity="1.4397752471268177e-02" nType="-99"/>
          <Node pos="r" depth="2" NCoef="0" IVar="-1" Cut="0.0000000000000000e+00" cType="1" res="-5.3541760891675949e-02" rms="5.4072249680757523e-02" purity="1.2996296864002943e-03" nType="-99"/>
        </Node>
      </Node>
    </BinaryTree>
    <BinaryTree type="DecisionTree" boostWeight="1.0000000000000000e+00" itree="34">
      <Node pos="s" depth="0" NCoef="0" IVar="5" Cut="3.0771940946578979e-01" cType="1" res="-4.9137719906866550e-04" rms="2.0244717597961426e-01" purity="5.0132101774215698e-01" nType="0">
        <Node pos="l" depth="1" NCoef="0" IVar="2" Cut="4.5525878667831421e-02" cType="1" res="-1.7739525064826012e-02" rms="2.2688899934291840e-01" purity="2.8467869758605957e-01" nType="0">
          <Node pos="l" depth="2" NCoef="0" IVar="-1" Cut="0.0000000000000000e+00" cType="1" res="2.0143095403909683e-02" rms="2.0324935019016266e-01" purity="9.3106901645660400e-01" nType="-99"/>
          <Node pos="r" depth="2" NCoef="0" IVar="-1" Cut="0.0000000000000000e+00" cType="1" res="-1.9803928211331367e-02" rms="2.3047086596488953e-01" purity="1.4453306794166565e-01" nType="-99"/>
        </Node>
        <Node pos="r" depth="1" NCoef="0" IVar="3" Cut="5.6762838363647461e-01" cType="1" res="3.7149548530578613e-02" rms="1.2656252086162567e-01" purity="9.7410327196121216e-01" nType="0">
          <Node pos="l" depth="2" NCoef="0" IVar="-1" Cut="0.0000000000000000e+00" cType="1" res="4.2462941259145737e-02" rms="1.0024966299533844e-01" purity="9.7958189249038696e-01" nType="-99"/>
          <Node pos="r" depth="2" NCoef="0" IVar="-1" Cut="0.0000000000000000e+00" cType="1" res="2.7940364088863134e-03" rms="2.4484586715698242e-01" purity="9.3260174989700317e-01" nType="-99"/>
        </Node>
      </Node>
    </BinaryTree>
    <BinaryTree type="DecisionTree" boostWeight="1.0000000000000000e+00" itree="35">
      <Node pos="s" depth="0" NCoef="0" IVar="5" Cut="3.0785295367240906e-01" cType="1" res="-9.1244321083649993e-04" rms="2.0423558354377747e-01" purity="4.9998557567596436e-01" nType="0">
        <Node pos="l" depth="1" NCoef="0" IVar="3" Cut="5.8657515048980713e-01" cType="1" res="-1.6429865732789040e-02" rms="2.2975826263427734e-01" purity="2.8458669781684875e-01" nType="0">
          <Node pos="l" depth="2" NCoef="0" IVar="-1" Cut="0.0000000000000000e+00" cType="1" res="-8.8491532951593399e-03" rms="2.2005136311054230e-01" purity="2.5685295462608337e-01" nType="-99"/>
          <Node pos="r" depth="2" NCoef="0" IVar="-1" Cut="0.0000000000000000e+00" cType="1" res="-4.2985495179891586e-02" rms="3.3498206734657288e-01" purity="6.9489586353302002e-01" nType="-99"/>
        </Node>
        <Node pos="r" depth="1" NCoef="0" IVar="4" Cut="4.5109377242624760e-03" cType="1" res="3.3327266573905945e-02" rms="1.2476949393749237e-01" purity="9.7527021169662476e-01" nType="0">
          <Node pos="l" depth="2" NCoef="0" IVar="-1" Cut="0.0000000000000000e+00" cType="1" res="1.7982216551899910e-02" rms="1.6085465252399445e-01" purity="9.5954835414886475e-01" nType="-99"/>
          <Node pos="r" depth="2" NCoef="0" IVar="-1" Cut="0.0000000000000000e+00" cType="1" res="3.8335245102643967e-02" rms="1.1623533815145493e-01" purity="9.7829914093017578e-01" nType="-99"/>
        </Node>
      </Node>
    </BinaryTree>
    <BinaryTree type="DecisionTree" boostWeight="1.0000000000000000e+00" itree="36">
      <Node pos="s" depth="0" NCoef="0" IVar="5" Cut="3.0771940946578979e-01" cType="1" res="-1.4807133702561259e-03" rms="2.0408502221107483e-01" purity="4.9540352821350098e-01" nType="0">
        <Node pos="l" depth="1" NCoef="0" IVar="3" Cut="5.8657515048980713e-01" cType="1" res="-1.5820117667317390e-02" rms="2.3011332750320435e-01" purity="2.7752169966697693e-01" nType="0">
          <Node pos="l" depth="2" NCoef="0" IVar="-1" Cut="0.0000000000000000e+00" cType="1" res="-8.6370082572102547e-03" rms="2.2128520905971527e-01" purity="2.5107675790786743e-01" nType="-99"/>
          <Node pos="r" depth="2" NCoef="0" IVar="-1" Cut="0.0000000000000000e+00" cType="1" res="-3.8357254117727280e-02" rms="3.2681879401206970e-01" purity="6.6498512029647827e-01" nType="-99"/>
        </Node>
        <Node pos="r" depth="1" NCoef="0" IVar="3" Cut="5.2396470308303833e-01" cType="1" res="3.0106276273727417e-02" rms="1.2371364235877991e-01" purity="9.7535580396652222e-01" nType="0">
          <Node pos="l" depth="2" NCoef="0" IVar="-1" Cut="0.0000000000000000e+00" cType="1" res="3.8980990648269653e-02" rms="9.8693557083606720e-02" purity="9.8052668571472168e-01" nType="-99"/>
          <Node pos="r" depth="2" NCoef="0" IVar="-1" Cut="0.0000000000000000e+00" cType="1" res="1.0026788339018822e-02" rms="2.2709658741950989e-01" purity="9.4132560491561890e-01" nType="-99"/>
        </Node>
      </Node>
    </BinaryTree>
    <BinaryTree type="DecisionTree" boostWeight="1.0000000000000000e+00" itree="37">
      <Node pos="s" depth="0" NCoef="0" IVar="2" Cut="3.0712091922760010e-01" cType="1" res="8.5705192759633064e-04" rms="2.0964857935905457e-01" purity="5.0297164916992188e-01" nType="0">
        <Node pos="l" depth="1" NCoef="0" IVar="1" Cut="6.1904764175415039e-01" cType="1" res="1.6287770122289658e-02" rms="2.4200913310050964e-01" purity="7.4396866559982300e-01" nType="0">
          <Node pos="l" depth="2" NCoef="0" IVar="-1" Cut="0.0000000000000000e+00" cType="1" res="1.5529015101492405e-02" rms="2.4483172595500946e-01" purity="7.8045374155044556e-01" nType="-99"/>
          <Node pos="r" depth="2" NCoef="0" IVar="-1" Cut="0.0000000000000000e+00" cType="1" res="-5.6059282273054123e-02" rms="1.3856372237205505e-01" purity="9.9826399236917496e-03" nType="-99"/>
        </Node>
        <Node pos="r" depth="1" NCoef="0" IVar="2" Cut="6.2886697053909302e-01" cType="1" res="-3.0498782172799110e-02" rms="1.1307259649038315e-01" purity="1.3256118632853031e-02" nType="0">
          <Node pos="l" depth="2" NCoef="0" IVar="-1" Cut="0.0000000000000000e+00" cType="1" res="-3.4532282501459122e-02" rms="1.1721327155828476e-01" purity="1.4583251439034939e-02" nType="-99"/>
          <Node pos="r" depth="2" NCoef="0" IVar="-1" Cut="0.0000000000000000e+00" cType="1" res="-5.5509299039840698e-02" rms="4.8763714730739594e-02" purity="0.0000000000000000e+00" nType="-99"/>
        </Node>
      </Node>
    </BinaryTree>
    <BinaryTree type="DecisionTree" boostWeight="1.0000000000000000e+00" itree="38">
      <Node pos="s" depth="0" NCoef="0" IVar="2" Cut="8.7366834282875061e-02" cType="1" res="-1.0153577895835042e-03" rms="2.0308712124824524e-01" purity="4.9527096748352051e-01" nType="0">
        <Node pos="l" depth="1" NCoef="0" IVar="3" Cut="9.5238097012042999e-02" cType="1" res="1.9873945042490959e-02" rms="1.8343850970268250e-01" purity="9.4474333524703979e-01" nType="0">
          <Node pos="l" depth="2" NCoef="0" IVar="-1" Cut="0.0000000000000000e+00" cType="1" res="4.0813442319631577e-02" rms="1.1213209480047226e-01" purity="9.7867494821548462e-01" nType="-99"/>
          <Node pos="r" depth="2" NCoef="0" IVar="-1" Cut="0.0000000000000000e+00" cType="1" res="5.2578211762011051e-04" rms="2.4285225570201874e-01" purity="9.0289831161499023e-01" nType="-99"/>
        </Node>
        <Node pos="r" depth="1" NCoef="0" IVar="0" Cut="6.6008222103118896e-01" cType="1" res="-1.8626997247338295e-02" rms="2.1672414243221283e-01" purity="1.1632364988327026e-01" nType="0">
          <Node pos="l" depth="2" NCoef="0" IVar="-1" Cut="0.0000000000000000e+00" cType="1" res="-2.1604029461741447e-02" rms="2.1345685422420502e-01" purity="1.0796087980270386e-01" nType="-99"/>
          <Node pos="r" depth="2" NCoef="0" IVar="-1" Cut="0.0000000000000000e+00" cType="1" res="9.8599251359701157e-03" rms="2.2483824193477631e-01" purity="1.4476387202739716e-01" nType="-99"/>
        </Node>
      </Node>
    </BinaryTree>
    <BinaryTree type="DecisionTree" boostWeight="1.0000000000000000e+00" itree="39">
      <Node pos="s" depth="0" NCoef="0" IVar="2" Cut="2.3809523880481720e-01" cType="1" res="9.0618887043092400e-05" rms="2.0457758009433746e-01" purity="5.0334978103637695e-01" nType="0">
        <Node pos="l" depth="1" NCoef="0" IVar="3" Cut="1.8275924026966095e-01" cType="1" res="1.4816256240010262e-02" rms="2.3585301637649536e-01" purity="8.1446588039398193e-01" nType="0">
          <Node pos="l" depth="2" NCoef="0" IVar="-1" Cut="0.0000000000000000e+00" cType="1" res="3.4206375479698181e-02" rms="2.0180977880954742e-01" purity="8.8702309131622314e-01" nType="-99"/>
          <Node pos="r" depth="2" NCoef="0" IVar="-1" Cut="0.0000000000000000e+00" cType="1" res="-6.2025398947298527e-03" rms="2.6934221386909485e-01" purity="7.2616922855377197e-01" nType="-99"/>
        </Node>
        <Node pos="r" depth="1" NCoef="0" IVar="1" Cut="1.0872838646173477e-01" cType="1" res="-2.2594613954424858e-02" rms="1.4065238833427429e-01" purity="2.4067254737019539e-02" nType="0">
          <Node pos="l" depth="2" NCoef="0" IVar="-1" Cut="0.0000000000000000e+00" cType="1" res="1.7625769600272179e-02" rms="3.0368295311927795e-01" purity="1.4768476784229279e-01" nType="-99"/>
          <Node pos="r" depth="2" NCoef="0" IVar="-1" Cut="0.0000000000000000e+00" cType="1" res="-3.4975126385688782e-02" rms="1.1568414419889450e-01" purity="1.3576999306678772e-02" nType="-99"/>
        </Node>
      </Node>
    </BinaryTree>
    <BinaryTree type="DecisionTree" boostWeight="1.0000000000000000e+00" itree="40">
      <Node pos="s" depth="0" NCoef="0" IVar="2" Cut="4.3671064078807831e-02" cType="1" res="-2.0059698726981878e-03" rms="1.9663268327713013e-01" purity="4.9620550870895386e-01" nType="0">
        <Node pos="l" depth="1" NCoef="0" IVar="4" Cut="1.3063053600490093e-02" cType="1" res="2.5243716314435005e-02" rms="1.3976721465587616e-01" purity="9.7071462869644165e-01" nType="0">
          <Node pos="l" depth="2" NCoef="0" IVar="-1" Cut="0.0000000000000000e+00" cType="1" res="2.6746399700641632e-02" rms="1.3225424289703369e-01" purity="9.7847539186477661e-01" nType="-99"/>
          <Node pos="r" depth="2" NCoef="0" IVar="-1" Cut="0.0000000000000000e+00" cType="1" res="3.2471548765897751e-02" rms="1.7035306990146637e-01" purity="9.3198287487030029e-01" nType="-99"/>
        </Node>
        <Node pos="r" depth="1" NCoef="0" IVar="0" Cut="7.8006464242935181e-01" cType="1" res="-1.6518410295248032e-02" rms="2.1965020895004272e-01" purity="2.4349482357501984e-01" nType="0">
          <Node pos="l" depth="2" NCoef="0" IVar="-1" Cut="0.0000000000000000e+00" cType="1" res="-2.0079933106899261e-02" rms="2.1928200125694275e-01" purity="2.2566930949687958e-01" nType="-99"/>
          <Node pos="r" depth="2" NCoef="0" IVar="-1" Cut="0.0000000000000000e+00" cType="1" res="1.5891464427113533e-02" rms="2.1743357181549072e-01" purity="3.1511962413787842e-01" nType="-99"/>
        </Node>
      </Node>
    </BinaryTree>
    <BinaryTree type="DecisionTree" boostWeight="1.0000000000000000e+00" itree="41">
      <Node pos="s" depth="0" NCoef="0" IVar="2" Cut="2.8571429848670959e-01" cType="1" res="2.6579811237752438e-03" rms="2.0450031757354736e-01" purity="5.0445383787155151e-01" nType="0">
        <Node pos="l" depth="1" NCoef="0" IVar="1" Cut="6.1904764175415039e-01" cType="1" res="1.5522806905210018e-02" rms="2.3584054410457611e-01" purity="7.6930487155914307e-01" nType="0">
          <Node pos="l" depth="2" NCoef="0" IVar="-1" Cut="0.0000000000000000e+00" cType="1" res="1.5354617498815060e-02" rms="2.3789100348949432e-01" purity="8.0235564708709717e-01" nType="-99"/>
          <Node pos="r" depth="2" NCoef="0" IVar="-1" Cut="0.0000000000000000e+00" cType="1" res="-5.8666333556175232e-02" rms="1.4292433857917786e-01" purity="9.4238724559545517e-03" nType="-99"/>
        </Node>
        <Node pos="r" depth="1" NCoef="0" IVar="4" Cut="1.8093490973114967e-02" cType="1" res="-2.1028501912951469e-02" rms="1.2468197941780090e-01" purity="1.6814909875392914e-02" nType="0">
          <Node pos="l" depth="2" NCoef="0" IVar="-1" Cut="0.0000000000000000e+00" cType="1" res="-4.3246425688266754e-02" rms="7.8870676457881927e-02" purity="8.2981511950492859e-03" nType="-99"/>
          <Node pos="r" depth="2" NCoef="0" IVar="-1" Cut="0.0000000000000000e+00" cType="1" res="-1.5310621820390224e-02" rms="1.5456596016883850e-01" purity="2.4656090885400772e-02" nType="-99"/>
        </Node>
      </Node>
    </BinaryTree>
    <BinaryTree type="DecisionTree" boostWeight="1.0000000000000000e+00" itree="42">
      <Node pos="s" depth="0" NCoef="0" IVar="1" Cut="6.1904764175415039e-01" cType="1" res="1.4319670153781772e-03" rms="2.0396795868873596e-01" purity="5.0491535663604736e-01" nType="0">
        <Node pos="l" depth="1" NCoef="0" IVar="3" Cut="1.3706943392753601e-01" cType="1" res="4.1485982947051525e-03" rms="2.0594190061092377e-01" purity="5.2325659990310669e-01" nType="0">
          <Node pos="l" depth="2" NCoef="0" IVar="-1" Cut="0.0000000000000000e+00" cType="1" res="2.6716172695159912e-02" rms="1.7458269000053406e-01" purity="6.3003510236740112e-01" nType="-99"/>
          <Node pos="r" depth="2" NCoef="0" IVar="-1" Cut="0.0000000000000000e+00" cType="1" res="-8.7625980377197266e-03" rms="2.2921241819858551e-01" purity="4.2802003026008606e-01" nType="-99"/>
        </Node>
        <Node pos="r" depth="1" NCoef="0" IVar="-1" Cut="0.0000000000000000e+00" cType="1" res="-5.5902272462844849e-02" rms="1.1836265027523041e-01" purity="7.1807187050580978e-03" nType="-99"/>
      </Node>
    </BinaryTree>
    <BinaryTree type="DecisionTree" boostWeight="1.0000000000000000e+00" itree="43">
      <Node pos="s" depth="0" NCoef="0" IVar="2" Cut="4.7619048506021500e-02" cType="1" res="-2.9135923832654953e-03" rms="1.9842465221881866e-01" purity="4.9770098924636841e-01" nType="0">
        <Node pos="l" depth="1" NCoef="0" IVar="4" Cut="5.6230439804494381e-03" cType="1" res="1.7534920945763588e-02" rms="1.4706590771675110e-01" purity="9.6573746204376221e-01" nType="0">
          <Node pos="l" depth="2" NCoef="0" IVar="-1" Cut="0.0000000000000000e+00" cType="1" res="-3.0400527175515890e-03" rms="1.7245271801948547e-01" purity="9.6298164129257202e-01" nType="-99"/>
          <Node pos="r" depth="2" NCoef="0" IVar="-1" Cut="0.0000000000000000e+00" cType="1" res="2.7087282389402390e-02" rms="1.3687452673912048e-01" purity="9.6666270494461060e-01" nType="-99"/>
        </Node>
        <Node pos="r" depth="1" NCoef="0" IVar="3" Cut="5.6671595573425293e-01" cType="1" res="-1.4624428935348988e-02" rms="2.2171530127525330e-01" purity="2.2965711355209351e-01" nType="0">
          <Node pos="l" depth="2" NCoef="0" IVar="-1" Cut="0.0000000000000000e+00" cType="1" res="-8.1863868981599808e-03" rms="2.0762218534946442e-01" purity="2.0251035690307617e-01" nType="-99"/>
          <Node pos="r" depth="2" NCoef="0" IVar="-1" Cut="0.0000000000000000e+00" cType="1" res="-3.6534816026687622e-02" rms="3.5571452975273132e-01" purity="6.0165417194366455e-01" nType="-99"/>
        </Node>
      </Node>
    </BinaryTree>
    <BinaryTree type="DecisionTree" boostWeight="1.0000000000000000e+00" itree="44">
      <Node pos="s" depth="0" NCoef="0" IVar="2" Cut="3.4946733713150024e-01" cType="1" res="1.5763031551614404e-03" rms="2.0084270834922791e-01" purity="5.0722175836563110e-01" nType="0">
        <Node pos="l" depth="1" NCoef="0" IVar="3" Cut="5.4827773571014404e-01" cType="1" res="1.0773513466119766e-02" rms="2.2614958882331848e-01" purity="6.9944244623184204e-01" nType="0">
          <Node pos="l" depth="2" NCoef="0" IVar="-1" Cut="0.0000000000000000e+00" cType="1" res="1.6299612820148468e-02" rms="2.1089206635951996e-01" purity="6.8744921684265137e-01" nType="-99"/>
          <Node pos="r" depth="2" NCoef="0" IVar="-1" Cut="0.0000000000000000e+00" cType="1" res="-2.1967859938740730e-02" rms="2.9737320542335510e-01" purity="7.7133017778396606e-01" nType="-99"/>
        </Node>
        <Node pos="r" depth="1" NCoef="0" IVar="2" Cut="5.1175087690353394e-01" cType="1" res="-2.2134207189083099e-02" rms="1.0816636681556702e-01" purity="1.1674710549414158e-02" nType="0">
          <Node pos="l" depth="2" NCoef="0" IVar="-1" Cut="0.0000000000000000e+00" cType="1" res="-2.4092633277177811e-02" rms="1.2682192027568817e-01" purity="1.6687687486410141e-02" nType="-99"/>
          <Node pos="r" depth="2" NCoef="0" IVar="-1" Cut="0.0000000000000000e+00" cType="1" res="-4.8847027122974396e-02" rms="6.2721341848373413e-02" purity="3.1019425950944424e-03" nType="-99"/>
        </Node>
      </Node>
    </BinaryTree>
    <BinaryTree type="DecisionTree" boostWeight="1.0000000000000000e+00" itree="45">
      <Node pos="s" depth="0" NCoef="0" IVar="2" Cut="2.3809523880481720e-01" cType="1" res="-7.6202774653211236e-04" rms="2.0006245374679565e-01" purity="4.9776718020439148e-01" nType="0">
        <Node pos="l" depth="1" NCoef="0" IVar="0" Cut="-7.7894169092178345e-01" cType="1" res="1.1463847011327744e-02" rms="2.3402422666549683e-01" purity="8.1227761507034302e-01" nType="0">
          <Node pos="l" depth="2" NCoef="0" IVar="-1" Cut="0.0000000000000000e+00" cType="1" res="4.5868143439292908e-02" rms="1.9454090297222137e-01" purity="8.9363145828247070e-01" nType="-99"/>
          <Node pos="r" depth="2" NCoef="0" IVar="-1" Cut="0.0000000000000000e+00" cType="1" res="1.0146202985197306e-03" rms="2.4160341918468475e-01" purity="7.9243350028991699e-01" nType="-99"/>
        </Node>
        <Node pos="r" depth="1" NCoef="0" IVar="2" Cut="4.1951704025268555e-01" cType="1" res="-1.9344216212630272e-02" rms="1.3055844604969025e-01" purity="1.9740642979741096e-02" nType="0">
          <Node pos="l" depth="2" NCoef="0" IVar="-1" Cut="0.0000000000000000e+00" cType="1" res="-1.3934951275587082e-02" rms="1.6940484941005707e-01" purity="3.4720823168754578e-02" nType="-99"/>
          <Node pos="r" depth="2" NCoef="0" IVar="-1" Cut="0.0000000000000000e+00" cType="1" res="-4.3750442564487457e-02" rms="7.5527541339397430e-02" purity="5.3129428997635841e-03" nType="-99"/>
        </Node>
      </Node>
    </BinaryTree>
    <BinaryTree type="DecisionTree" boostWeight="1.0000000000000000e+00" itree="46">
      <Node pos="s" depth="0" NCoef="0" IVar="2" Cut="2.8571429848670959e-01" cType="1" res="1.9297585822641850e-03" rms="2.0455782115459442e-01" purity="5.0275874137878418e-01" nType="0">
        <Node pos="l" depth="1" NCoef="0" IVar="0" Cut="7.7971124649047852e-01" cType="1" res="1.2586841359734535e-02" rms="2.3805364966392517e-01" purity="7.6777100563049316e-01" nType="0">
          <Node pos="l" depth="2" NCoef="0" IVar="-1" Cut="0.0000000000000000e+00" cType="1" res="2.0196815021336079e-03" rms="2.4353606998920441e-01" purity="7.4692267179489136e-01" nType="-99"/>
          <Node pos="r" depth="2" NCoef="0" IVar="-1" Cut="0.0000000000000000e+00" cType="1" res="4.6500921249389648e-02" rms="2.0775493979454041e-01" purity="8.5689622163772583e-01" nType="-99"/>
        </Node>
        <Node pos="r" depth="1" NCoef="0" IVar="4" Cut="1.2428212910890579e-02" cType="1" res="-1.7688143998384476e-02" rms="1.1814595013856888e-01" purity="1.4915533363819122e-02" nType="0">
          <Node pos="l" depth="2" NCoef="0" IVar="-1" Cut="0.0000000000000000e+00" cType="1" res="-4.6428315341472626e-02" rms="6.9741718471050262e-02" purity="5.0624953582882881e-03" nType="-99"/>
          <Node pos="r" depth="2" NCoef="0" IVar="-1" Cut="0.0000000000000000e+00" cType="1" res="-2.1642571315169334e-02" rms="1.3009265065193176e-01" purity="1.8226413056254387e-02" nType="-99"/>
        </Node>
      </Node>
    </BinaryTree>
    <BinaryTree type="DecisionTree" boostWeight="1.0000000000000000e+00" itree="47">
      <Node pos="s" depth="0" NCoef="0" IVar="1" Cut="6.6666668653488159e-01" cType="1" res="4.2339172068750486e-05" rms="2.0341323316097260e-01" purity="4.9998477101325989e-01" nType="0">
        <Node pos="l" depth="1" NCoef="0" IVar="3" Cut="9.0242333710193634e-02" cType="1" res="2.1438144613057375e-03" rms="2.0417404174804688e-01" purity="5.1265734434127808e-01" nType="0">
          <Node pos="l" depth="2" NCoef="0" IVar="-1" Cut="0.0000000000000000e+00" cType="1" res="2.9335176572203636e-02" rms="1.5966418385505676e-01" purity="6.9831496477127075e-01" nType="-99"/>
          <Node pos="r" depth="2" NCoef="0" IVar="-1" Cut="0.0000000000000000e+00" cType="1" res="-8.0716358497738838e-03" rms="2.2704590857028961e-01" purity="3.9544177055358887e-01" nType="-99"/>
        </Node>
        <Node pos="r" depth="1" NCoef="0" IVar="-1" Cut="0.0000000000000000e+00" cType="1" res="-5.4876342415809631e-02" rms="1.5083701908588409e-01" purity="1.2661644257605076e-02" nType="-99"/>
      </Node>
    </BinaryTree>
    <BinaryTree type="DecisionTree" boostWeight="1.0000000000000000e+00" itree="48">
      <Node pos="s" depth="0" NCoef="0" IVar="1" Cut="4.7619047760963440e-01" cType="1" res="4.0227221325039864e-03" rms="2.0420716702938080e-01" purity="5.0350588560104370e-01" nType="0">
        <Node pos="l" depth="1" NCoef="0" IVar="2" Cut="3.8095238804817200e-01" cType="1" res="8.9961420744657516e-03" rms="2.1003501117229462e-01" purity="5.5705124139785767e-01" nType="0">
          <Node pos="l" depth="2" NCoef="0" IVar="-1" Cut="0.0000000000000000e+00" cType="1" res="1.5156891196966171e-02" rms="2.3524858057498932e-01" purity="7.3975378274917603e-01" nType="-99"/>
          <Node pos="r" depth="2" NCoef="0" IVar="-1" Cut="0.0000000000000000e+00" cType="1" res="-3.3924438059329987e-02" rms="9.7444452345371246e-02" purity="9.6270814538002014e-03" nType="-99"/>
        </Node>
        <Node pos="r" depth="1" NCoef="0" IVar="1" Cut="6.5082156658172607e-01" cType="1" res="-4.1130915284156799e-02" rms="1.3236013054847717e-01" purity="1.7368543893098831e-02" nType="0">
          <Node pos="l" depth="2" NCoef="0" IVar="-1" Cut="0.0000000000000000e+00" cType="1" res="-3.1689714640378952e-02" rms="1.3087852299213409e-01" purity="2.1209407597780228e-02" nType="-99"/>
          <Node pos="r" depth="2" NCoef="0" IVar="-1" Cut="0.0000000000000000e+00" cType="1" res="-5.7417366653680801e-02" rms="1.2999267876148224e-01" purity="7.0928516797721386e-03" nType="-99"/>
        </Node>
      </Node>
    </BinaryTree>
    <BinaryTree type="DecisionTree" boostWeight="1.0000000000000000e+00" itree="49">
      <Node pos="s" depth="0" NCoef="0" IVar="0" Cut="-7.7991807460784912e-01" cType="1" res="-2.6054907357320189e-04" rms="1.9909118115901947e-01" purity="5.0350588560104370e-01" nType="0">
        <Node pos="l" depth="1" NCoef="0" IVar="2" Cut="2.9831701517105103e-01" cType="1" res="2.3507872596383095e-02" rms="1.7328889667987823e-01" purity="5.3697091341018677e-01" nType="0">
          <Node pos="l" depth="2" NCoef="0" IVar="-1" Cut="0.0000000000000000e+00" cType="1" res="3.9447948336601257e-02" rms="1.9506222009658813e-01" purity="8.3154910802841187e-01" nType="-99"/>
          <Node pos="r" depth="2" NCoef="0" IVar="-1" Cut="0.0000000000000000e+00" cType="1" res="-2.4216033518314362e-02" rms="1.1729687452316284e-01" purity="1.4391808770596981e-02" nType="-99"/>
        </Node>
        <Node pos="r" depth="1" NCoef="0" IVar="0" Cut="4.8289591073989868e-01" cType="1" res="-6.0863257385790348e-03" rms="2.0449921488761902e-01" purity="4.9530345201492310e-01" nType="0">
          <Node pos="l" depth="2" NCoef="0" IVar="-1" Cut="0.0000000000000000e+00" cType="1" res="-1.6358871012926102e-02" rms="2.1740999817848206e-01" purity="4.6902358531951904e-01" nType="-99"/>
          <Node pos="r" depth="2" NCoef="0" IVar="-1" Cut="0.0000000000000000e+00" cType="1" res="1.3901715166866779e-02" rms="1.7890809476375580e-01" purity="5.3969913721084595e-01" nType="-99"/>
        </Node>
      </Node>
    </BinaryTree>
    <BinaryTree type="DecisionTree" boostWeight="1.0000000000000000e+00" itree="50">
      <Node pos="s" depth="0" NCoef="0" IVar="3" Cut="9.5238097012042999e-02" cType="1" res="-1.7909716116264462e-03" rms="1.9727930426597595e-01" purity="5.0015693902969360e-01" nType="0">
        <Node pos="l" depth="1" NCoef="0" IVar="1" Cut="4.7793409228324890e-01" cType="1" res="1.5156511217355728e-02" rms="1.5944847464561462e-01" purity="6.5285432338714600e-01" nType="0">
          <Node pos="l" depth="2" NCoef="0" IVar="-1" Cut="0.0000000000000000e+00" cType="1" res="3.5365749150514603e-02" rms="1.6445736587047577e-01" purity="7.8004848957061768e-01" nType="-99"/>
          <Node pos="r" depth="2" NCoef="0" IVar="-1" Cut="0.0000000000000000e+00" cType="1" res="-3.7867523729801178e-02" rms="1.2093078345060349e-01" purity="1.6105107963085175e-02" nType="-99"/>
        </Node>
        <Node pos="r" depth="1" NCoef="0" IVar="0" Cut="5.3965926170349121e-01" cType="1" res="-1.3345092535018921e-02" rms="2.1861009299755096e-01" purity="3.9605388045310974e-01" nType="0">
          <Node pos="l" depth="2" NCoef="0" IVar="-1" Cut="0.0000000000000000e+00" cType="1" res="-1.9854394719004631e-02" rms="2.2004675865173340e-01" purity="3.6867642402648926e-01" nType="-99"/>
          <Node pos="r" depth="2" NCoef="0" IVar="-1" Cut="0.0000000000000000e+00" cType="1" res="1.2509220279753208e-02" rms="2.1202825009822845e-01" purity="4.7257295250892639e-01" nType="-99"/>
        </Node>
      </Node>
    </BinaryTree>
    <BinaryTree type="DecisionTree" boostWeight="1.0000000000000000e+00" itree="51">
      <Node pos="s" depth="0" NCoef="0" IVar="3" Cut="6.1904764175415039e-01" cType="1" res="-1.8168180249631405e-03" rms="2.0177081227302551e-01" purity="4.8976221680641174e-01" nType="0">
        <Node pos="l" depth="1" NCoef="0" IVar="2" Cut="2.8571429848670959e-01" cType="1" res="1.6237105010077357e-03" rms="1.9233904778957367e-01" purity="4.6902874112129211e-01" nType="0">
          <Node pos="l" depth="2" NCoef="0" IVar="-1" Cut="0.0000000000000000e+00" cType="1" res="9.8502831533551216e-03" rms="2.2660519182682037e-01" purity="7.5204408168792725e-01" nType="-99"/>
          <Node pos="r" depth="2" NCoef="0" IVar="-1" Cut="0.0000000000000000e+00" cType="1" res="-2.6162080466747284e-02" rms="1.1627984791994095e-01" purity="1.4569085091352463e-02" nType="-99"/>
        </Node>
        <Node pos="r" depth="1" NCoef="0" IVar="-1" Cut="0.0000000000000000e+00" cType="1" res="-3.2021440565586090e-02" rms="3.0536514520645142e-01" purity="7.9841428995132446e-01" nType="-99"/>
      </Node>
    </BinaryTree>
    <BinaryTree type="DecisionTree" boostWeight="1.0000000000000000e+00" itree="52">
      <Node pos="s" depth="0" NCoef="0" IVar="0" Cut="-6.5991950035095215e-01" cType="1" res="-1.3018770841881633e-03" rms="1.9890184700489044e-01" purity="4.9552452564239502e-01" nType="0">
        <Node pos="l" depth="1" NCoef="0" IVar="2" Cut="3.7563747167587280e-01" cType="1" res="2.0650591701269150e-02" rms="1.7254175245761871e-01" purity="5.2915942668914795e-01" nType="0">
          <Node pos="l" depth="2" NCoef="0" IVar="-1" Cut="0.0000000000000000e+00" cType="1" res="3.4864850342273712e-02" rms="1.9494332373142242e-01" purity="7.3295676708221436e-01" nType="-99"/>
          <Node pos="r" depth="2" NCoef="0" IVar="-1" Cut="0.0000000000000000e+00" cType="1" res="-3.6995485424995422e-02" rms="8.2059301435947418e-02" purity="6.5619200468063354e-03" nType="-99"/>
        </Node>
        <Node pos="r" depth="1" NCoef="0" IVar="0" Cut="4.3733930587768555e-01" cType="1" res="-8.3879977464675903e-03" rms="2.0619587600231171e-01" purity="4.8466742038726807e-01" nType="0">
          <Node pos="l" depth="2" NCoef="0" IVar="-1" Cut="0.0000000000000000e+00" cType="1" res="-2.2262737154960632e-02" rms="2.1971602737903595e-01" purity="4.4495809078216553e-01" nType="-99"/>
          <Node pos="r" depth="2" NCoef="0" IVar="-1" Cut="0.0000000000000000e+00" cType="1" res="1.2394063174724579e-02" rms="1.8436858057975769e-01" purity="5.3844535350799561e-01" nType="-99"/>
        </Node>
      </Node>
    </BinaryTree>
    <BinaryTree type="DecisionTree" boostWeight="1.0000000000000000e+00" itree="53">
      <Node pos="s" depth="0" NCoef="0" IVar="3" Cut="5.4827773571014404e-01" cType="1" res="1.6339087160304189e-03" rms="2.0278538763523102e-01" purity="5.0516974925994873e-01" nType="0">
        <Node pos="l" depth="1" NCoef="0" IVar="1" Cut="6.1904764175415039e-01" cType="1" res="6.3123088330030441e-03" rms="1.8748579919338226e-01" purity="4.7561404109001160e-01" nType="0">
          <Node pos="l" depth="2" NCoef="0" IVar="-1" Cut="0.0000000000000000e+00" cType="1" res="1.0038742795586586e-02" rms="1.8973767757415771e-01" purity="4.9483796954154968e-01" nType="-99"/>
          <Node pos="r" depth="2" NCoef="0" IVar="-1" Cut="0.0000000000000000e+00" cType="1" res="-5.3782895207405090e-02" rms="1.0183683782815933e-01" purity="5.4337587207555771e-03" nType="-99"/>
        </Node>
        <Node pos="r" depth="1" NCoef="0" IVar="1" Cut="6.8490616977214813e-02" cType="1" res="-3.9246518164873123e-02" rms="3.0238160490989685e-01" purity="7.6343089342117310e-01" nType="0">
          <Node pos="l" depth="2" NCoef="0" IVar="-1" Cut="0.0000000000000000e+00" cType="1" res="4.6542863128706813e-04" rms="2.6887309551239014e-01" purity="8.8634186983108521e-01" nType="-99"/>
          <Node pos="r" depth="2" NCoef="0" IVar="-1" Cut="0.0000000000000000e+00" cType="1" res="-4.8163782805204391e-02" rms="3.4277981519699097e-01" purity="5.4588544368743896e-01" nType="-99"/>
        </Node>
      </Node>
    </BinaryTree>
    <BinaryTree type="DecisionTree" boostWeight="1.0000000000000000e+00" itree="54">
      <Node pos="s" depth="0" NCoef="0" IVar="1" Cut="1.4285714924335480e-01" cType="1" res="7.0302328094840050e-04" rms="1.9723510742187500e-01" purity="5.0173395872116089e-01" nType="0">
        <Node pos="l" depth="1" NCoef="0" IVar="5" Cut="1.3906440138816833e-01" cType="1" res="1.2302407994866371e-02" rms="2.0636788010597229e-01" purity="8.4711575508117676e-01" nType="0">
          <Node pos="l" depth="2" NCoef="0" IVar="-1" Cut="0.0000000000000000e+00" cType="1" res="-2.4740476161241531e-02" rms="2.6171946525573730e-01" purity="1.0844729840755463e-01" nType="-99"/>
          <Node pos="r" depth="2" NCoef="0" IVar="-1" Cut="0.0000000000000000e+00" cType="1" res="1.8385289236903191e-02" rms="1.9946080446243286e-01" purity="9.1785252094268799e-01" nType="-99"/>
        </Node>
        <Node pos="r" depth="1" NCoef="0" IVar="3" Cut="4.1942900419235229e-01" cType="1" res="-1.3785521499812603e-02" rms="1.8417270481586456e-01" purity="7.0324853062629700e-02" nType="0">
          <Node pos="l" depth="2" NCoef="0" IVar="-1" Cut="0.0000000000000000e+00" cType="1" res="-7.9528102651238441e-03" rms="1.7721349000930786e-01" purity="6.9036334753036499e-02" nType="-99"/>
          <Node pos="r" depth="2" NCoef="0" IVar="-1" Cut="0.0000000000000000e+00" cType="1" res="-5.6213378906250000e-02" rms="2.4254930019378662e-01" purity="8.8849596679210663e-02" nType="-99"/>
        </Node>
      </Node>
    </BinaryTree>
    <BinaryTree type="DecisionTree" boostWeight="1.0000000000000000e+00" itree="55">
      <Node pos="s" depth="0" NCoef="0" IVar="0" Cut="-7.7991640567779541e-01" cType="1" res="2.0264412742108107e-03" rms="1.9743013381958008e-01" purity="5.0298583507537842e-01" nType="0">
        <Node pos="l" depth="1" NCoef="0" IVar="2" Cut="3.3511471748352051e-01" cType="1" res="2.5462923571467400e-02" rms="1.6863700747489929e-01" purity="5.6196117401123047e-01" nType="0">
          <Node pos="l" depth="2" NCoef="0" IVar="-1" Cut="0.0000000000000000e+00" cType="1" res="4.3664209544658661e-02" rms="1.9099074602127075e-01" purity="8.2331287860870361e-01" nType="-99"/>
          <Node pos="r" depth="2" NCoef="0" IVar="-1" Cut="0.0000000000000000e+00" cType="1" res="-2.8467783704400063e-02" rms="9.6733026206493378e-02" purity="9.9875545129179955e-03" nType="-99"/>
        </Node>
        <Node pos="r" depth="1" NCoef="0" IVar="3" Cut="1.7465488612651825e-01" cType="1" res="-3.7572130095213652e-03" rms="2.0349636673927307e-01" purity="4.8843196034431458e-01" nType="0">
          <Node pos="l" depth="2" NCoef="0" IVar="-1" Cut="0.0000000000000000e+00" cType="1" res="1.2182871811091900e-02" rms="1.7247015237808228e-01" purity="5.4687929153442383e-01" nType="-99"/>
          <Node pos="r" depth="2" NCoef="0" IVar="-1" Cut="0.0000000000000000e+00" cType="1" res="-1.3996781781315804e-02" rms="2.3326162993907928e-01" purity="4.2138758301734924e-01" nType="-99"/>
        </Node>
      </Node>
    </BinaryTree>
    <BinaryTree type="DecisionTree" boostWeight="1.0000000000000000e+00" itree="56">
      <Node pos="s" depth="0" NCoef="0" IVar="0" Cut="7.8000664710998535e-01" cType="1" res="-8.7754451669752598e-06" rms="1.9996424019336700e-01" purity="4.9846515059471130e-01" nType="0">
        <Node pos="l" depth="1" NCoef="0" IVar="3" Cut="1.8275924026966095e-01" cType="1" res="-4.9842586740851402e-03" rms="2.0454852283000946e-01" purity="4.8945352435112000e-01" nType="0">
          <Node pos="l" depth="2" NCoef="0" IVar="-1" Cut="0.0000000000000000e+00" cType="1" res="9.8404949530959129e-03" rms="1.7556069791316986e-01" purity="5.4047405719757080e-01" nType="-99"/>
          <Node pos="r" depth="2" NCoef="0" IVar="-1" Cut="0.0000000000000000e+00" cType="1" res="-1.4822495169937611e-02" rms="2.3468238115310669e-01" purity="4.2641982436180115e-01" nType="-99"/>
        </Node>
        <Node pos="r" depth="1" NCoef="0" IVar="2" Cut="2.8571429848670959e-01" cType="1" res="2.1228250116109848e-02" rms="1.7752133309841156e-01" purity="5.3692990541458130e-01" nType="0">
          <Node pos="l" depth="2" NCoef="0" IVar="-1" Cut="0.0000000000000000e+00" cType="1" res="4.1518110781908035e-02" rms="2.0114718377590179e-01" purity="8.5076600313186646e-01" nType="-99"/>
          <Node pos="r" depth="2" NCoef="0" IVar="-1" Cut="0.0000000000000000e+00" cType="1" res="-2.7496030554175377e-02" rms="1.1947488784790039e-01" purity="1.6204742714762688e-02" nType="-99"/>
        </Node>
      </Node>
    </BinaryTree>
    <BinaryTree type="DecisionTree" boostWeight="1.0000000000000000e+00" itree="57">
      <Node pos="s" depth="0" NCoef="0" IVar="5" Cut="3.0771940946578979e-01" cType="1" res="-1.2319063534960151e-03" rms="1.9337828457355499e-01" purity="5.0028407573699951e-01" nType="0">
        <Node pos="l" depth="1" NCoef="0" IVar="4" Cut="6.7277909256517887e-03" cType="1" res="-8.7149152532219887e-03" rms="2.1885135769844055e-01" purity="2.8652101755142212e-01" nType="0">
          <Node pos="l" depth="2" NCoef="0" IVar="-1" Cut="0.0000000000000000e+00" cType="1" res="-4.5425407588481903e-02" rms="2.8754621744155884e-01" purity="5.2581948041915894e-01" nType="-99"/>
          <Node pos="r" depth="2" NCoef="0" IVar="-1" Cut="0.0000000000000000e+00" cType="1" res="-3.8481305819004774e-03" rms="2.1086163818836212e-01" purity="2.6458257436752319e-01" nType="-99"/>
        </Node>
        <Node pos="r" depth="1" NCoef="0" IVar="3" Cut="3.0564606189727783e-01" cType="1" res="1.5408714301884174e-02" rms="1.1680014431476593e-01" purity="9.7564762830734253e-01" nType="0">
          <Node pos="l" depth="2" NCoef="0" IVar="-1" Cut="0.0000000000000000e+00" cType="1" res="2.6774404570460320e-02" rms="8.8611215353012085e-02" purity="9.7989094257354736e-01" nType="-99"/>
          <Node pos="r" depth="2" NCoef="0" IVar="-1" Cut="0.0000000000000000e+00" cType="1" res="2.5729924440383911e-02" rms="1.8772082030773163e-01" purity="9.5962119102478027e-01" nType="-99"/>
        </Node>
      </Node>
    </BinaryTree>
    <BinaryTree type="DecisionTree" boostWeight="1.0000000000000000e+00" itree="58">
      <Node pos="s" depth="0" NCoef="0" IVar="1" Cut="5.7142859697341919e-01" cType="1" res="-9.5113611314445734e-04" rms="1.9750337302684784e-01" purity="4.9856024980545044e-01" nType="0">
        <Node pos="l" depth="1" NCoef="0" IVar="4" Cut="2.9722666367888451e-02" cType="1" res="1.6838681185618043e-03" rms="2.0056413114070892e-01" purity="5.2562904357910156e-01" nType="0">
          <Node pos="l" depth="2" NCoef="0" IVar="-1" Cut="0.0000000000000000e+00" cType="1" res="-2.2971746511757374e-03" rms="1.9332057237625122e-01" purity="5.7320058345794678e-01" nType="-99"/>
          <Node pos="r" depth="2" NCoef="0" IVar="-1" Cut="0.0000000000000000e+00" cType="1" res="3.7602137774229050e-02" rms="2.5221142172813416e-01" purity="1.1509696394205093e-01" nType="-99"/>
        </Node>
        <Node pos="r" depth="1" NCoef="0" IVar="4" Cut="3.0199630185961723e-02" cType="1" res="-4.8429239541292191e-02" rms="1.2114084511995316e-01" purity="1.0828014463186264e-02" nType="0">
          <Node pos="l" depth="2" NCoef="0" IVar="-1" Cut="0.0000000000000000e+00" cType="1" res="-5.3714271634817123e-02" rms="1.0380273312330246e-01" purity="6.9789867848157883e-03" nType="-99"/>
          <Node pos="r" depth="2" NCoef="0" IVar="-1" Cut="0.0000000000000000e+00" cType="1" res="-4.2477473616600037e-02" rms="1.3706232607364655e-01" purity="1.4950832352042198e-02" nType="-99"/>
        </Node>
      </Node>
    </BinaryTree>
    <BinaryTree type="DecisionTree" boostWeight="1.0000000000000000e+00" itree="59">
      <Node pos="s" depth="0" NCoef="0" IVar="3" Cut="6.6666668653488159e-01" cType="1" res="5.5460346629843116e-04" rms="1.9962459802627563e-01" purity="4.9920117855072021e-01" nType="0">
        <Node pos="l" depth="1" NCoef="0" IVar="1" Cut="6.6666668653488159e-01" cType="1" res="2.6765428483486176e-03" rms="1.9314210116863251e-01" purity="4.8504677414894104e-01" nType="0">
          <Node pos="l" depth="2" NCoef="0" IVar="-1" Cut="0.0000000000000000e+00" cType="1" res="4.9572195857763290e-03" rms="1.9477957487106323e-01" purity="4.9863070249557495e-01" nType="-99"/>
          <Node pos="r" depth="2" NCoef="0" IVar="-1" Cut="0.0000000000000000e+00" cType="1" res="-5.5128600448369980e-02" rms="1.0411953926086426e-01" purity="4.8014707863330841e-03" nType="-99"/>
        </Node>
        <Node pos="r" depth="1" NCoef="0" IVar="-1" Cut="0.0000000000000000e+00" cType="1" res="-3.0718615278601646e-02" rms="3.1024917960166931e-01" purity="8.2674968242645264e-01" nType="-99"/>
      </Node>
    </BinaryTree>
    <BinaryTree type="DecisionTree" boostWeight="1.0000000000000000e+00" itree="60">
      <Node pos="s" depth="0" NCoef="0" IVar="0" Cut="-5.3985482454299927e-01" cType="1" res="5.1117913244524971e-05" rms="1.9695234298706055e-01" purity="5.0273001194000244e-01" nType="0">
        <Node pos="l" depth="1" NCoef="0" IVar="2" Cut="2.9322537779808044e-01" cType="1" res="1.5399922616779804e-02" rms="1.7558953166007996e-01" purity="5.3587210178375244e-01" nType="0">
          <Node pos="l" depth="2" NCoef="0" IVar="-1" Cut="0.0000000000000000e+00" cType="1" res="2.7067838236689568e-02" rms="1.9600857794284821e-01" purity="8.2310539484024048e-01" nType="-99"/>
          <Node pos="r" depth="2" NCoef="0" IVar="-1" Cut="0.0000000000000000e+00" cType="1" res="-1.4942107722163200e-02" rms="1.2787908315658569e-01" purity="1.7183488234877586e-02" nType="-99"/>
        </Node>
        <Node pos="r" depth="1" NCoef="0" IVar="0" Cut="6.5988010168075562e-01" cType="1" res="-6.2695266678929329e-03" rms="2.0476959645748138e-01" purity="4.8908206820487976e-01" nType="0">
          <Node pos="l" depth="2" NCoef="0" IVar="-1" Cut="0.0000000000000000e+00" cType="1" res="-1.6204517334699631e-02" rms="2.1519863605499268e-01" purity="4.6610975265502930e-01" nType="-99"/>
          <Node pos="r" depth="2" NCoef="0" IVar="-1" Cut="0.0000000000000000e+00" cType="1" res="1.6297945752739906e-02" rms="1.8022517859935760e-01" purity="5.3514790534973145e-01" nType="-99"/>
        </Node>
      </Node>
    </BinaryTree>
    <BinaryTree type="DecisionTree" boostWeight="1.0000000000000000e+00" itree="61">
      <Node pos="s" depth="0" NCoef="0" IVar="3" Cut="1.4285714924335480e-01" cType="1" res="-5.2274321205914021e-04" rms="1.9470006227493286e-01" purity="5.0094503164291382e-01" nType="0">
        <Node pos="l" depth="1" NCoef="0" IVar="1" Cut="6.1904764175415039e-01" cType="1" res="9.1565633192658424e-03" rms="1.6328026354312897e-01" purity="5.7540988922119141e-01" nType="0">
          <Node pos="l" depth="2" NCoef="0" IVar="-1" Cut="0.0000000000000000e+00" cType="1" res="2.1100213751196861e-02" rms="1.6720019280910492e-01" purity="6.1931377649307251e-01" nType="-99"/>
          <Node pos="r" depth="2" NCoef="0" IVar="-1" Cut="0.0000000000000000e+00" cType="1" res="-5.2667725831270218e-02" rms="8.1778362393379211e-02" purity="3.5810354165732861e-03" nType="-99"/>
        </Node>
        <Node pos="r" depth="1" NCoef="0" IVar="1" Cut="8.0164246261119843e-02" cType="1" res="-1.0275326669216156e-02" rms="2.2147555649280548e-01" purity="4.2591643333435059e-01" nType="0">
          <Node pos="l" depth="2" NCoef="0" IVar="-1" Cut="0.0000000000000000e+00" cType="1" res="9.9103450775146484e-03" rms="2.4041673541069031e-01" purity="8.5911834239959717e-01" nType="-99"/>
          <Node pos="r" depth="2" NCoef="0" IVar="-1" Cut="0.0000000000000000e+00" cType="1" res="-2.2101914510130882e-02" rms="2.0743174850940704e-01" purity="1.5545734763145447e-01" nType="-99"/>
        </Node>
      </Node>
    </BinaryTree>
    <BinaryTree type="DecisionTree" boostWeight="1.0000000000000000e+00" itree="62">
      <Node pos="s" depth="0" NCoef="0" IVar="3" Cut="6.6666668653488159e-01" cType="1" res="4.0236936183646321e-04" rms="1.9697883725166321e-01" purity="4.9824082851409912e-01" nType="0">
        <Node pos="l" depth="1" NCoef="0" IVar="1" Cut="2.3809523880481720e-01" cType="1" res="2.6279448065906763e-03" rms="1.9022427499294281e-01" purity="4.8485079407691956e-01" nType="0">
          <Node pos="l" depth="2" NCoef="0" IVar="-1" Cut="0.0000000000000000e+00" cType="1" res="1.0901334695518017e-02" rms="1.9986140727996826e-01" purity="7.1637082099914551e-01" nType="-99"/>
          <Node pos="r" depth="2" NCoef="0" IVar="-1" Cut="0.0000000000000000e+00" cType="1" res="-1.5965253114700317e-02" rms="1.6900485754013062e-01" purity="3.7167444825172424e-02" nType="-99"/>
        </Node>
        <Node pos="r" depth="1" NCoef="0" IVar="-1" Cut="0.0000000000000000e+00" cType="1" res="-3.0786514282226562e-02" rms="3.1127506494522095e-01" purity="8.0998921394348145e-01" nType="-99"/>
      </Node>
    </BinaryTree>
    <BinaryTree type="DecisionTree" boostWeight="1.0000000000000000e+00" itree="63">
      <Node pos="s" depth="0" NCoef="0" IVar="3" Cut="6.8534713983535767e-01" cType="1" res="2.3751599655952305e-04" rms="1.9784016907215118e-01" purity="4.9687892198562622e-01" nType="0">
        <Node pos="l" depth="1" NCoef="0" IVar="2" Cut="3.1868115067481995e-01" cType="1" res="2.0870645530521870e-03" rms="1.9220863282680511e-01" purity="4.8405846953392029e-01" nType="0">
          <Node pos="l" depth="2" NCoef="0" IVar="-1" Cut="0.0000000000000000e+00" cType="1" res="8.4851095452904701e-03" rms="2.2241552174091339e-01" purity="7.2133046388626099e-01" nType="-99"/>
          <Node pos="r" depth="2" NCoef="0" IVar="-1" Cut="0.0000000000000000e+00" cType="1" res="-2.6516998186707497e-02" rms="1.0817878693342209e-01" purity="1.1989448219537735e-02" nType="-99"/>
        </Node>
        <Node pos="r" depth="1" NCoef="0" IVar="-1" Cut="0.0000000000000000e+00" cType="1" res="-2.8706943616271019e-02" rms="3.0508577823638916e-01" purity="8.2529610395431519e-01" nType="-99"/>
      </Node>
    </BinaryTree>
    <BinaryTree type="DecisionTree" boostWeight="1.0000000000000000e+00" itree="64">
      <Node pos="s" depth="0" NCoef="0" IVar="2" Cut="4.3671064078807831e-02" cType="1" res="-5.2995479200035334e-04" rms="1.9091086089611053e-01" purity="4.9873042106628418e-01" nType="0">
        <Node pos="l" depth="1" NCoef="0" IVar="4" Cut="1.1141229420900345e-02" cType="1" res="1.3015974313020706e-02" rms="1.2741865217685699e-01" purity="9.7048670053482056e-01" nType="0">
