<?xml version="1.0"?>
<MethodSetup Method="BDT::BDTG">
  <GeneralInfo>
    <Info name="TMVA Release" value="4.2.1 [262657]"/>
    <Info name="ROOT Release" value="6.30/04 [400900]"/>
    <Info name="Creator" value="gkopp"/>
    <Info name="Date" value="Wed Feb 21 18:23:18 2024"/>
    <Info name="Host" value="Linux buildvm-x86-22.iad2.fedoraproject.org 6.6.9-100.fc38.x86_64 #1 SMP PREEMPT_DYNAMIC Mon Jan 1 20:31:07 UTC 2024 x86_64 x86_64 x86_64 GNU/Linux"/>
    <Info name="Dir" value="/afs/cern.ch/work/g/gkopp/2022_LLP_analysis/Run3-HCAL-LLP-Analysis/TMVAStudies"/>
    <Info name="Training events" value="57165"/>
    <Info name="TrainingTime" value="4.24271491e+01"/>
    <Info name="AnalysisType" value="Classification"/>
  </GeneralInfo>
  <Options>
    <Option name="V" modified="Yes">False</Option>
    <Option name="VerbosityLevel" modified="No">Default</Option>
    <Option name="VarTransform" modified="No">None</Option>
    <Option name="H" modified="Yes">False</Option>
    <Option name="CreateMVAPdfs" modified="No">False</Option>
    <Option name="IgnoreNegWeightsInTraining" modified="No">False</Option>
    <Option name="NTrees" modified="Yes">1000</Option>
    <Option name="MaxDepth" modified="Yes">2</Option>
    <Option name="MinNodeSize" modified="Yes">2.5%</Option>
    <Option name="nCuts" modified="Yes">20</Option>
    <Option name="BoostType" modified="Yes">Grad</Option>
    <Option name="AdaBoostR2Loss" modified="No">quadratic</Option>
    <Option name="UseBaggedBoost" modified="Yes">True</Option>
    <Option name="Shrinkage" modified="Yes">1.000000e-01</Option>
    <Option name="AdaBoostBeta" modified="No">5.000000e-01</Option>
    <Option name="UseRandomisedTrees" modified="No">False</Option>
    <Option name="UseNvars" modified="No">3</Option>
    <Option name="UsePoissonNvars" modified="No">True</Option>
    <Option name="BaggedSampleFraction" modified="Yes">5.000000e-01</Option>
    <Option name="UseYesNoLeaf" modified="No">True</Option>
    <Option name="NegWeightTreatment" modified="No">pray</Option>
    <Option name="Css" modified="No">1.000000e+00</Option>
    <Option name="Cts_sb" modified="No">1.000000e+00</Option>
    <Option name="Ctb_ss" modified="No">1.000000e+00</Option>
    <Option name="Cbb" modified="No">1.000000e+00</Option>
    <Option name="NodePurityLimit" modified="No">5.000000e-01</Option>
    <Option name="SeparationType" modified="No">giniindex</Option>
    <Option name="RegressionLossFunctionBDTG" modified="No">huber</Option>
    <Option name="HuberQuantile" modified="No">7.000000e-01</Option>
    <Option name="DoBoostMonitor" modified="No">False</Option>
    <Option name="UseFisherCuts" modified="No">False</Option>
    <Option name="MinLinCorrForFisher" modified="No">8.000000e-01</Option>
    <Option name="UseExclusiveVars" modified="No">False</Option>
    <Option name="DoPreselection" modified="No">False</Option>
    <Option name="SigToBkgFraction" modified="No">1.000000e+00</Option>
    <Option name="PruneMethod" modified="No">nopruning</Option>
    <Option name="PruneStrength" modified="No">0.000000e+00</Option>
    <Option name="PruningValFraction" modified="No">5.000000e-01</Option>
    <Option name="SkipNormalization" modified="No">False</Option>
    <Option name="nEventsMin" modified="No">0</Option>
    <Option name="UseBaggedGrad" modified="No">False</Option>
    <Option name="GradBaggingFraction" modified="No">5.000000e-01</Option>
    <Option name="UseNTrainEvents" modified="No">0</Option>
    <Option name="NNodesMax" modified="No">0</Option>
  </Options>
  <Variables NVar="6">
    <Variable VarIndex="0" Expression="perJet_Eta" Label="perJet_Eta" Title="perJet_Eta" Unit="" Internal="perJet_Eta" Type="F" Min="-1.25989270e+00" Max="1.25999463e+00"/>
    <Variable VarIndex="1" Expression="perJet_EnergyFrac_Depth1" Label="perJet_EnergyFrac_Depth1" Title="perJet_EnergyFrac_Depth1" Unit="" Internal="perJet_EnergyFrac_Depth1" Type="F" Min="0.00000000e+00" Max="1.00000000e+00"/>
    <Variable VarIndex="2" Expression="perJet_EnergyFrac_Depth2" Label="perJet_EnergyFrac_Depth2" Title="perJet_EnergyFrac_Depth2" Unit="" Internal="perJet_EnergyFrac_Depth2" Type="F" Min="0.00000000e+00" Max="1.00000000e+00"/>
    <Variable VarIndex="3" Expression="perJet_EnergyFrac_Depth3" Label="perJet_EnergyFrac_Depth3" Title="perJet_EnergyFrac_Depth3" Unit="" Internal="perJet_EnergyFrac_Depth3" Type="F" Min="0.00000000e+00" Max="1.00000000e+00"/>
    <Variable VarIndex="4" Expression="perJet_S_phiphi" Label="perJet_S_phiphi" Title="perJet_S_phiphi" Unit="" Internal="perJet_S_phiphi" Type="F" Min="1.04859195e-04" Max="1.22406811e-01"/>
    <Variable VarIndex="5" Expression="perJet_LeadingRechitE/perJet_E" Label="perJet_LeadingRechitE/perJet_E" Title="perJet_LeadingRechtE / perJet_E" Unit="" Internal="perJet_LeadingRechitE_D_perJet_E" Type="F" Min="2.13412056e-03" Max="1.60591221e+00"/>
  </Variables>
  <Spectators NSpec="0"/>
  <Classes NClass="2">
    <Class Name="Signal" Index="0"/>
    <Class Name="Background" Index="1"/>
  </Classes>
  <Transformations NTransformations="0"/>
  <MVAPdfs/>
  <Weights NTrees="1000" AnalysisType="1">
    <BinaryTree type="DecisionTree" boostWeight="1.0000000000000000e+00" itree="0">
      <Node pos="s" depth="0" NCoef="0" IVar="5" Cut="1.5487489104270935e-01" cType="1" res="5.7939458638429642e-03" rms="4.9996644258499146e-01" purity="5.0579392910003662e-01" nType="0">
        <Node pos="l" depth="1" NCoef="0" IVar="5" Cut="1.2577836215496063e-01" cType="1" res="-4.3014693260192871e-01" rms="2.5489923357963562e-01" purity="6.9853082299232483e-02" nType="0">
          <Node pos="l" depth="2" NCoef="0" IVar="-1" Cut="0.0000000000000000e+00" cType="1" res="-9.1583073139190674e-02" rms="2.0078228414058685e-01" purity="4.2084645479917526e-02" nType="-99"/>
          <Node pos="r" depth="2" NCoef="0" IVar="-1" Cut="0.0000000000000000e+00" cType="1" res="-4.5415282249450684e-02" rms="4.4546189904212952e-01" purity="2.7292358875274658e-01" nType="-99"/>
        </Node>
        <Node pos="r" depth="1" NCoef="0" IVar="1" Cut="1.3813823461532593e-01" cType="1" res="3.6933177709579468e-01" rms="3.3703714609146118e-01" purity="8.6933177709579468e-01" nType="0">
          <Node pos="l" depth="2" NCoef="0" IVar="-1" Cut="0.0000000000000000e+00" cType="1" res="8.5350885987281799e-02" rms="2.6053914427757263e-01" purity="9.2675441503524780e-01" nType="-99"/>
          <Node pos="r" depth="2" NCoef="0" IVar="-1" Cut="0.0000000000000000e+00" cType="1" res="1.6713775694370270e-02" rms="4.9296677112579346e-01" purity="5.8356887102127075e-01" nType="-99"/>
        </Node>
      </Node>
    </BinaryTree>
    <BinaryTree type="DecisionTree" boostWeight="1.0000000000000000e+00" itree="1">
      <Node pos="s" depth="0" NCoef="0" IVar="5" Cut="1.7345970869064331e-01" cType="1" res="2.8933312278240919e-03" rms="4.6679443120956421e-01" purity="5.0310033559799194e-01" nType="0">
        <Node pos="l" depth="1" NCoef="0" IVar="5" Cut="1.3266390562057495e-01" cType="1" res="-3.6335673928260803e-01" rms="2.8997090458869934e-01" purity="9.8549850285053253e-02" nType="0">
          <Node pos="l" depth="2" NCoef="0" IVar="-1" Cut="0.0000000000000000e+00" cType="1" res="-8.2457333803176880e-02" rms="2.0942056179046631e-01" purity="4.6121791005134583e-02" nType="-99"/>
          <Node pos="r" depth="2" NCoef="0" IVar="-1" Cut="0.0000000000000000e+00" cType="1" res="-2.3993676528334618e-02" rms="4.7824260592460632e-01" purity="3.7896138429641724e-01" nType="-99"/>
        </Node>
        <Node pos="r" depth="1" NCoef="0" IVar="1" Cut="1.3098426163196564e-01" cType="1" res="3.5792160034179688e-01" rms="3.0255040526390076e-01" purity="8.9525550603866577e-01" nType="0">
          <Node pos="l" depth="2" NCoef="0" IVar="-1" Cut="0.0000000000000000e+00" cType="1" res="7.9758331179618835e-02" rms="2.4029497802257538e-01" purity="9.3847274780273438e-01" nType="-99"/>
          <Node pos="r" depth="2" NCoef="0" IVar="-1" Cut="0.0000000000000000e+00" cType="1" res="3.3507421612739563e-02" rms="4.6640774607658386e-01" purity="6.7845427989959717e-01" nType="-99"/>
        </Node>
      </Node>
    </BinaryTree>
    <BinaryTree type="DecisionTree" boostWeight="1.0000000000000000e+00" itree="2">
      <Node pos="s" depth="0" NCoef="0" IVar="5" Cut="1.7795570194721222e-01" cType="1" res="-8.0430489033460617e-03" rms="4.3774479627609253e-01" purity="4.9166008830070496e-01" nType="0">
        <Node pos="l" depth="1" NCoef="0" IVar="5" Cut="1.4445848762989044e-01" cType="1" res="-3.2772856950759888e-01" rms="2.8574192523956299e-01" purity="1.0018594563007355e-01" nType="0">
          <Node pos="l" depth="2" NCoef="0" IVar="-1" Cut="0.0000000000000000e+00" cType="1" res="-7.5150601565837860e-02" rms="2.1998009085655212e-01" purity="5.2036277949810028e-02" nType="-99"/>
          <Node pos="r" depth="2" NCoef="0" IVar="-1" Cut="0.0000000000000000e+00" cType="1" res="-1.0890044271945953e-02" rms="4.8887184262275696e-01" purity="4.5118740200996399e-01" nType="-99"/>
        </Node>
        <Node pos="r" depth="1" NCoef="0" IVar="1" Cut="1.3187412917613983e-01" cType="1" res="3.1899642944335938e-01" rms="3.0433160066604614e-01" purity="8.9213961362838745e-01" nType="0">
          <Node pos="l" depth="2" NCoef="0" IVar="-1" Cut="0.0000000000000000e+00" cType="1" res="7.2499945759773254e-02" rms="2.4728758633136749e-01" purity="9.3457144498825073e-01" nType="-99"/>
          <Node pos="r" depth="2" NCoef="0" IVar="-1" Cut="0.0000000000000000e+00" cType="1" res="2.7990225702524185e-02" rms="4.7053578495979309e-01" purity="6.6684144735336304e-01" nType="-99"/>
        </Node>
      </Node>
    </BinaryTree>
    <BinaryTree type="DecisionTree" boostWeight="1.0000000000000000e+00" itree="3">
      <Node pos="s" depth="0" NCoef="0" IVar="5" Cut="1.7253245413303375e-01" cType="1" res="1.3157913926988840e-03" rms="4.1308641433715820e-01" purity="5.0166219472885132e-01" nType="0">
        <Node pos="l" depth="1" NCoef="0" IVar="1" Cut="9.5238097012042999e-02" cType="1" res="-2.9820594191551208e-01" rms="2.7903044223785400e-01" purity="9.4585850834846497e-02" nType="0">
          <Node pos="l" depth="2" NCoef="0" IVar="-1" Cut="0.0000000000000000e+00" cType="1" res="-3.0249864794313908e-03" rms="4.7003161907196045e-01" purity="4.2309573292732239e-01" nType="-99"/>
          <Node pos="r" depth="2" NCoef="0" IVar="-1" Cut="0.0000000000000000e+00" cType="1" res="-6.8831443786621094e-02" rms="2.3528587818145752e-01" purity="6.2629923224449158e-02" nType="-99"/>
        </Node>
        <Node pos="r" depth="1" NCoef="0" IVar="5" Cut="2.2120670974254608e-01" cType="1" res="2.8886157274246216e-01" rms="3.0150327086448669e-01" purity="8.9246219396591187e-01" nType="0">
          <Node pos="l" depth="2" NCoef="0" IVar="-1" Cut="0.0000000000000000e+00" cType="1" res="2.3711089044809341e-02" rms="4.4498562812805176e-01" purity="7.0279866456985474e-01" nType="-99"/>
          <Node pos="r" depth="2" NCoef="0" IVar="-1" Cut="0.0000000000000000e+00" cType="1" res="6.8915933370590210e-02" rms="2.4206669628620148e-01" purity="9.3488198518753052e-01" nType="-99"/>
        </Node>
      </Node>
    </BinaryTree>
    <BinaryTree type="DecisionTree" boostWeight="1.0000000000000000e+00" itree="4">
      <Node pos="s" depth="0" NCoef="0" IVar="5" Cut="1.5539406239986420e-01" cType="1" res="-4.8539782874286175e-03" rms="3.9139187335968018e-01" purity="4.9419495463371277e-01" nType="0">
        <Node pos="l" depth="1" NCoef="0" IVar="2" Cut="1.2678234279155731e-01" cType="1" res="-2.8788790106773376e-01" rms="2.4293662607669830e-01" purity="6.6919393837451935e-02" nType="0">
          <Node pos="l" depth="2" NCoef="0" IVar="-1" Cut="0.0000000000000000e+00" cType="1" res="-1.6234602779150009e-02" rms="4.4637852907180786e-01" purity="2.9299125075340271e-01" nType="-99"/>
          <Node pos="r" depth="2" NCoef="0" IVar="-1" Cut="0.0000000000000000e+00" cType="1" res="-6.6924512386322021e-02" rms="2.0849038660526276e-01" purity="4.8341535031795502e-02" nType="-99"/>
        </Node>
        <Node pos="r" depth="1" NCoef="0" IVar="5" Cut="2.2452192008495331e-01" cType="1" res="2.3986020684242249e-01" rms="3.2474610209465027e-01" purity="8.6362195014953613e-01" nType="0">
          <Node pos="l" depth="2" NCoef="0" IVar="-1" Cut="0.0000000000000000e+00" cType="1" res="1.4118205755949020e-02" rms="4.5950973033905029e-01" purity="6.4245605468750000e-01" nType="-99"/>
          <Node pos="r" depth="2" NCoef="0" IVar="-1" Cut="0.0000000000000000e+00" cType="1" res="6.3929207623004913e-02" rms="2.4469330906867981e-01" purity="9.3337589502334595e-01" nType="-99"/>
        </Node>
      </Node>
    </BinaryTree>
    <BinaryTree type="DecisionTree" boostWeight="1.0000000000000000e+00" itree="5">
      <Node pos="s" depth="0" NCoef="0" IVar="5" Cut="1.5514010190963745e-01" cType="1" res="3.4453286789357662e-03" rms="3.7121367454528809e-01" purity="5.0526863336563110e-01" nType="0">
        <Node pos="l" depth="1" NCoef="0" IVar="5" Cut="1.2605182826519012e-01" cType="1" res="-2.6179897785186768e-01" rms="2.3752994835376740e-01" purity="6.4624324440956116e-02" nType="0">
          <Node pos="l" depth="2" NCoef="0" IVar="-1" Cut="0.0000000000000000e+00" cType="1" res="-6.4750634133815765e-02" rms="1.8921270966529846e-01" purity="3.7877101451158524e-02" nType="-99"/>
          <Node pos="r" depth="2" NCoef="0" IVar="-1" Cut="0.0000000000000000e+00" cType="1" res="-2.5079334154725075e-02" rms="4.3011847138404846e-01" purity="2.6202559471130371e-01" nType="-99"/>
        </Node>
        <Node pos="r" depth="1" NCoef="0" IVar="1" Cut="1.3098426163196564e-01" cType="1" res="2.2400717437267303e-01" rms="3.1355932354927063e-01" purity="8.7168300151824951e-01" nType="0">
          <Node pos="l" depth="2" NCoef="0" IVar="-1" Cut="0.0000000000000000e+00" cType="1" res="5.9534486383199692e-02" rms="2.5060528516769409e-01" purity="9.2870116233825684e-01" nType="-99"/>
          <Node pos="r" depth="2" NCoef="0" IVar="-1" Cut="0.0000000000000000e+00" cType="1" res="9.0345172211527824e-03" rms="4.6731880307197571e-01" purity="6.1520713567733765e-01" nType="-99"/>
        </Node>
      </Node>
    </BinaryTree>
    <BinaryTree type="DecisionTree" boostWeight="1.0000000000000000e+00" itree="6">
      <Node pos="s" depth="0" NCoef="0" IVar="5" Cut="1.7340013384819031e-01" cType="1" res="-4.1346573270857334e-03" rms="3.5649996995925903e-01" purity="4.9548283219337463e-01" nType="0">
        <Node pos="l" depth="1" NCoef="0" IVar="2" Cut="8.7748833000659943e-02" cType="1" res="-2.2604621946811676e-01" rms="2.6255589723587036e-01" purity="8.8491648435592651e-02" nType="0">
          <Node pos="l" depth="2" NCoef="0" IVar="-1" Cut="0.0000000000000000e+00" cType="1" res="1.3771668076515198e-02" rms="4.6901306509971619e-01" purity="4.4607102870941162e-01" nType="-99"/>
          <Node pos="r" depth="2" NCoef="0" IVar="-1" Cut="0.0000000000000000e+00" cType="1" res="-5.7269096374511719e-02" rms="2.3627291619777679e-01" purity="6.8879373371601105e-02" nType="-99"/>
        </Node>
        <Node pos="r" depth="1" NCoef="0" IVar="5" Cut="2.7061668038368225e-01" cType="1" res="2.1104736626148224e-01" rms="2.9904943704605103e-01" purity="8.9013183116912842e-01" nType="0">
          <Node pos="l" depth="2" NCoef="0" IVar="-1" Cut="0.0000000000000000e+00" cType="1" res="2.7571974322199821e-02" rms="3.9937564730644226e-01" purity="7.7766990661621094e-01" nType="-99"/>
          <Node pos="r" depth="2" NCoef="0" IVar="-1" Cut="0.0000000000000000e+00" cType="1" res="6.1691183596849442e-02" rms="2.0556160807609558e-01" purity="9.5468509197235107e-01" nType="-99"/>
        </Node>
      </Node>
    </BinaryTree>
    <BinaryTree type="DecisionTree" boostWeight="1.0000000000000000e+00" itree="7">
      <Node pos="s" depth="0" NCoef="0" IVar="5" Cut="1.5499086678028107e-01" cType="1" res="-6.6585191234480590e-05" rms="3.4262007474899292e-01" purity="5.0064617395401001e-01" nType="0">
        <Node pos="l" depth="1" NCoef="0" IVar="1" Cut="9.5238097012042999e-02" cType="1" res="-2.1134139597415924e-01" rms="2.4034036695957184e-01" purity="6.7574344575405121e-02" nType="0">
          <Node pos="l" depth="2" NCoef="0" IVar="-1" Cut="0.0000000000000000e+00" cType="1" res="-2.3941365070641041e-03" rms="4.4564822316169739e-01" purity="3.2390981912612915e-01" nType="-99"/>
          <Node pos="r" depth="2" NCoef="0" IVar="-1" Cut="0.0000000000000000e+00" cType="1" res="-5.6904844939708710e-02" rms="2.1008060872554779e-01" purity="4.8600874841213226e-02" nType="-99"/>
        </Node>
        <Node pos="r" depth="1" NCoef="0" IVar="5" Cut="2.2410085797309875e-01" cType="1" res="1.7812150716781616e-01" rms="3.1349369883537292e-01" purity="8.6589670181274414e-01" nType="0">
          <Node pos="l" depth="2" NCoef="0" IVar="-1" Cut="0.0000000000000000e+00" cType="1" res="7.0634125731885433e-03" rms="4.5476835966110229e-01" purity="6.3537621498107910e-01" nType="-99"/>
          <Node pos="r" depth="2" NCoef="0" IVar="-1" Cut="0.0000000000000000e+00" cType="1" res="5.4645583033561707e-02" rms="2.3857732117176056e-01" purity="9.3598145246505737e-01" nType="-99"/>
        </Node>
      </Node>
    </BinaryTree>
    <BinaryTree type="DecisionTree" boostWeight="1.0000000000000000e+00" itree="8">
      <Node pos="s" depth="0" NCoef="0" IVar="5" Cut="1.6396662592887878e-01" cType="1" res="-6.8127975100651383e-04" rms="3.3248758316040039e-01" purity="4.9907773733139038e-01" nType="0">
        <Node pos="l" depth="1" NCoef="0" IVar="1" Cut="9.5238097012042999e-02" cType="1" res="-1.8609081208705902e-01" rms="2.5206434726715088e-01" purity="7.9566441476345062e-02" nType="0">
          <Node pos="l" depth="2" NCoef="0" IVar="-1" Cut="0.0000000000000000e+00" cType="1" res="3.4949362743645906e-03" rms="4.5194062590599060e-01" purity="3.8333192467689514e-01" nType="-99"/>
          <Node pos="r" depth="2" NCoef="0" IVar="-1" Cut="0.0000000000000000e+00" cType="1" res="-5.3411796689033508e-02" rms="2.1992924809455872e-01" purity="5.4631877690553665e-02" nType="-99"/>
        </Node>
        <Node pos="r" depth="1" NCoef="0" IVar="1" Cut="9.4824090600013733e-02" cType="1" res="1.6657693684101105e-01" rms="3.0654627084732056e-01" purity="8.7751954793930054e-01" nType="0">
          <Node pos="l" depth="2" NCoef="0" IVar="-1" Cut="0.0000000000000000e+00" cType="1" res="5.3662102669477463e-02" rms="2.3071146011352539e-01" purity="9.4163388013839722e-01" nType="-99"/>
          <Node pos="r" depth="2" NCoef="0" IVar="-1" Cut="0.0000000000000000e+00" cType="1" res="1.3652429915964603e-02" rms="4.2580440640449524e-01" purity="7.1517753601074219e-01" nType="-99"/>
        </Node>
      </Node>
    </BinaryTree>
    <BinaryTree type="DecisionTree" boostWeight="1.0000000000000000e+00" itree="9">
      <Node pos="s" depth="0" NCoef="0" IVar="5" Cut="1.5487489104270935e-01" cType="1" res="1.5446603065356612e-03" rms="3.1991967558860779e-01" purity="5.0415700674057007e-01" nType="0">
        <Node pos="l" depth="1" NCoef="0" IVar="5" Cut="1.1850516498088837e-01" cType="1" res="-1.7579792439937592e-01" rms="2.3152056336402893e-01" purity="6.3719846308231354e-02" nType="0">
          <Node pos="l" depth="2" NCoef="0" IVar="-1" Cut="0.0000000000000000e+00" cType="1" res="-5.6011915206909180e-02" rms="1.7301002144813538e-01" purity="3.1786926090717316e-02" nType="-99"/>
          <Node pos="r" depth="2" NCoef="0" IVar="-1" Cut="0.0000000000000000e+00" cType="1" res="-1.3937901705503464e-02" rms="4.0490201115608215e-01" purity="2.3521685600280762e-01" nType="-99"/>
        </Node>
        <Node pos="r" depth="1" NCoef="0" IVar="1" Cut="2.1528308093547821e-01" cType="1" res="1.4807882905006409e-01" rms="3.0849310755729675e-01" purity="8.6808031797409058e-01" nType="0">
          <Node pos="l" depth="2" NCoef="0" IVar="-1" Cut="0.0000000000000000e+00" cType="1" res="4.3737992644309998e-02" rms="2.8173658251762390e-01" purity="8.9957553148269653e-01" nType="-99"/>
          <Node pos="r" depth="2" NCoef="0" IVar="-1" Cut="0.0000000000000000e+00" cType="1" res="-1.5925647690892220e-02" rms="4.6782109141349792e-01" purity="5.1357150077819824e-01" nType="-99"/>
        </Node>
      </Node>
    </BinaryTree>
    <BinaryTree type="DecisionTree" boostWeight="1.0000000000000000e+00" itree="10">
      <Node pos="s" depth="0" NCoef="0" IVar="5" Cut="1.5487489104270935e-01" cType="1" res="-2.4997445871122181e-04" rms="3.1493362784385681e-01" purity="4.9914407730102539e-01" nType="0">
        <Node pos="l" depth="1" NCoef="0" IVar="2" Cut="1.4285714924335480e-01" cType="1" res="-1.5367656946182251e-01" rms="2.4097864329814911e-01" purity="6.9115787744522095e-02" nType="0">
          <Node pos="l" depth="2" NCoef="0" IVar="-1" Cut="0.0000000000000000e+00" cType="1" res="-3.9871139451861382e-03" rms="4.2011076211929321e-01" purity="2.5563380122184753e-01" nType="-99"/>
          <Node pos="r" depth="2" NCoef="0" IVar="-1" Cut="0.0000000000000000e+00" cType="1" res="-4.9217566847801208e-02" rms="2.1138763427734375e-01" purity="5.1200799643993378e-02" nType="-99"/>
        </Node>
        <Node pos="r" depth="1" NCoef="0" IVar="1" Cut="1.7222645878791809e-01" cType="1" res="1.3017512857913971e-01" rms="3.1162598729133606e-01" purity="8.6470311880111694e-01" nType="0">
          <Node pos="l" depth="2" NCoef="0" IVar="-1" Cut="0.0000000000000000e+00" cType="1" res="4.2224679142236710e-02" rms="2.7524191141128540e-01" purity="9.0707862377166748e-01" nType="-99"/>
          <Node pos="r" depth="2" NCoef="0" IVar="-1" Cut="0.0000000000000000e+00" cType="1" res="-9.7145158797502518e-03" rms="4.6647366881370544e-01" purity="5.5618852376937866e-01" nType="-99"/>
        </Node>
      </Node>
    </BinaryTree>
    <BinaryTree type="DecisionTree" boostWeight="1.0000000000000000e+00" itree="11">
      <Node pos="s" depth="0" NCoef="0" IVar="5" Cut="1.5487489104270935e-01" cType="1" res="5.6899781338870525e-04" rms="3.0695265531539917e-01" purity="4.9940755963325500e-01" nType="0">
        <Node pos="l" depth="1" NCoef="0" IVar="1" Cut="1.4285714924335480e-01" cType="1" res="-1.3935643434524536e-01" rms="2.3908776044845581e-01" purity="6.8625897169113159e-02" nType="0">
          <Node pos="l" depth="2" NCoef="0" IVar="-1" Cut="0.0000000000000000e+00" cType="1" res="-7.5604682788252831e-03" rms="3.9568722248077393e-01" purity="2.3165430128574371e-01" nType="-99"/>
          <Node pos="r" depth="2" NCoef="0" IVar="-1" Cut="0.0000000000000000e+00" cType="1" res="-4.9636278301477432e-02" rms="1.9529813528060913e-01" purity="4.1368059813976288e-02" nType="-99"/>
        </Node>
        <Node pos="r" depth="1" NCoef="0" IVar="5" Cut="2.2399447858333588e-01" cType="1" res="1.1979796737432480e-01" rms="3.0805367231369019e-01" purity="8.6647206544876099e-01" nType="0">
          <Node pos="l" depth="2" NCoef="0" IVar="-1" Cut="0.0000000000000000e+00" cType="1" res="1.8498005811125040e-03" rms="4.4137269258499146e-01" purity="6.5373080968856812e-01" nType="-99"/>
          <Node pos="r" depth="2" NCoef="0" IVar="-1" Cut="0.0000000000000000e+00" cType="1" res="4.5646768063306808e-02" rms="2.3986700177192688e-01" purity="9.3475675582885742e-01" nType="-99"/>
        </Node>
      </Node>
    </BinaryTree>
    <BinaryTree type="DecisionTree" boostWeight="1.0000000000000000e+00" itree="12">
      <Node pos="s" depth="0" NCoef="0" IVar="5" Cut="1.8247917294502258e-01" cType="1" res="2.9072197503410280e-04" rms="3.0101877450942993e-01" purity="5.0131189823150635e-01" nType="0">
        <Node pos="l" depth="1" NCoef="0" IVar="1" Cut="1.4285714924335480e-01" cType="1" res="-1.1764237284660339e-01" rms="2.6927191019058228e-01" purity="1.1311089247465134e-01" nType="0">
          <Node pos="l" depth="2" NCoef="0" IVar="-1" Cut="0.0000000000000000e+00" cType="1" res="1.7775762826204300e-03" rms="4.1112220287322998e-01" purity="3.7930697202682495e-01" nType="-99"/>
          <Node pos="r" depth="2" NCoef="0" IVar="-1" Cut="0.0000000000000000e+00" cType="1" res="-4.7276720404624939e-02" rms="2.1487525105476379e-01" purity="5.2474960684776306e-02" nType="-99"/>
        </Node>
        <Node pos="r" depth="1" NCoef="0" IVar="5" Cut="2.9175809025764465e-01" cType="1" res="1.2129590660333633e-01" rms="2.8333041071891785e-01" purity="8.9962536096572876e-01" nType="0">
          <Node pos="l" depth="2" NCoef="0" IVar="-1" Cut="0.0000000000000000e+00" cType="1" res="1.6922026872634888e-02" rms="3.7318670749664307e-01" purity="8.0890673398971558e-01" nType="-99"/>
          <Node pos="r" depth="2" NCoef="0" IVar="-1" Cut="0.0000000000000000e+00" cType="1" res="5.1436495035886765e-02" rms="1.8514549732208252e-01" purity="9.6391105651855469e-01" nType="-99"/>
        </Node>
      </Node>
    </BinaryTree>
    <BinaryTree type="DecisionTree" boostWeight="1.0000000000000000e+00" itree="13">
      <Node pos="s" depth="0" NCoef="0" IVar="5" Cut="2.1776430308818817e-01" cType="1" res="5.8256660122424364e-04" rms="2.9381519556045532e-01" purity="5.0217843055725098e-01" nType="0">
        <Node pos="l" depth="1" NCoef="0" IVar="1" Cut="9.5238097012042999e-02" cType="1" res="-9.5368966460227966e-02" rms="2.9366579651832581e-01" purity="1.8013587594032288e-01" nType="0">
          <Node pos="l" depth="2" NCoef="0" IVar="-1" Cut="0.0000000000000000e+00" cType="1" res="1.8426436930894852e-02" rms="4.0644386410713196e-01" purity="6.4014118909835815e-01" nType="-99"/>
          <Node pos="r" depth="2" NCoef="0" IVar="-1" Cut="0.0000000000000000e+00" cType="1" res="-4.1011236608028412e-02" rms="2.5621271133422852e-01" purity="9.6682079136371613e-02" nType="-99"/>
        </Node>
        <Node pos="r" depth="1" NCoef="0" IVar="2" Cut="8.7121859192848206e-02" cType="1" res="1.2929436564445496e-01" rms="2.3985052108764648e-01" purity="9.3417441844940186e-01" nType="0">
          <Node pos="l" depth="2" NCoef="0" IVar="-1" Cut="0.0000000000000000e+00" cType="1" res="5.2225798368453979e-02" rms="1.5979066491127014e-01" purity="9.7314828634262085e-01" nType="-99"/>
          <Node pos="r" depth="2" NCoef="0" IVar="-1" Cut="0.0000000000000000e+00" cType="1" res="2.7299130335450172e-02" rms="3.2160386443138123e-01" purity="8.7524461746215820e-01" nType="-99"/>
        </Node>
      </Node>
    </BinaryTree>
    <BinaryTree type="DecisionTree" boostWeight="1.0000000000000000e+00" itree="14">
      <Node pos="s" depth="0" NCoef="0" IVar="1" Cut="1.4285714924335480e-01" cType="1" res="-1.1348288971930742e-03" rms="2.9304119944572449e-01" purity="4.9736383557319641e-01" nType="0">
        <Node pos="l" depth="1" NCoef="0" IVar="5" Cut="1.2144204229116440e-01" cType="1" res="9.5779053866863251e-02" rms="2.8465673327445984e-01" purity="8.3214092254638672e-01" nType="0">
          <Node pos="l" depth="2" NCoef="0" IVar="-1" Cut="0.0000000000000000e+00" cType="1" res="-3.7245027720928192e-02" rms="2.8301331400871277e-01" purity="9.2038810253143311e-02" nType="-99"/>
          <Node pos="r" depth="2" NCoef="0" IVar="-1" Cut="0.0000000000000000e+00" cType="1" res="3.6560036242008209e-02" rms="2.7718219161033630e-01" purity="8.9219373464584351e-01" nType="-99"/>
        </Node>
        <Node pos="r" depth="1" NCoef="0" IVar="5" Cut="2.6130875945091248e-01" cType="1" res="-1.0528691112995148e-01" rms="2.6483422517776489e-01" purity="1.3758322596549988e-01" nType="0">
          <Node pos="l" depth="2" NCoef="0" IVar="-1" Cut="0.0000000000000000e+00" cType="1" res="-4.1287884116172791e-02" rms="2.4968175590038300e-01" purity="8.9195266366004944e-02" nType="-99"/>
          <Node pos="r" depth="2" NCoef="0" IVar="-1" Cut="0.0000000000000000e+00" cType="1" res="2.9652982950210571e-02" rms="3.6157897114753723e-01" purity="8.4353804588317871e-01" nType="-99"/>
        </Node>
      </Node>
    </BinaryTree>
    <BinaryTree type="DecisionTree" boostWeight="1.0000000000000000e+00" itree="15">
      <Node pos="s" depth="0" NCoef="0" IVar="1" Cut="1.4285714924335480e-01" cType="1" res="1.2366092996671796e-03" rms="2.8420165181159973e-01" purity="5.0163817405700684e-01" nType="0">
        <Node pos="l" depth="1" NCoef="0" IVar="5" Cut="1.2144204229116440e-01" cType="1" res="8.9101158082485199e-02" rms="2.7689337730407715e-01" purity="8.3565294742584229e-01" nType="0">
          <Node pos="l" depth="2" NCoef="0" IVar="-1" Cut="0.0000000000000000e+00" cType="1" res="-3.5815652459859848e-02" rms="2.8086945414543152e-01" purity="8.9453555643558502e-02" nType="-99"/>
          <Node pos="r" depth="2" NCoef="0" IVar="-1" Cut="0.0000000000000000e+00" cType="1" res="3.5710103809833527e-02" rms="2.6959866285324097e-01" purity="8.9833861589431763e-01" nType="-99"/>
        </Node>
        <Node pos="r" depth="1" NCoef="0" IVar="5" Cut="2.6130875945091248e-01" cType="1" res="-9.4415053725242615e-02" rms="2.6015570759773254e-01" purity="1.3802091777324677e-01" nType="0">
          <Node pos="l" depth="2" NCoef="0" IVar="-1" Cut="0.0000000000000000e+00" cType="1" res="-3.8702301681041718e-02" rms="2.4585826694965363e-01" purity="8.9696653187274933e-02" nType="-99"/>
          <Node pos="r" depth="2" NCoef="0" IVar="-1" Cut="0.0000000000000000e+00" cType="1" res="2.6879299432039261e-02" rms="3.6224994063377380e-01" purity="8.4215551614761353e-01" nType="-99"/>
        </Node>
      </Node>
    </BinaryTree>
    <BinaryTree type="DecisionTree" boostWeight="1.0000000000000000e+00" itree="16">
      <Node pos="s" depth="0" NCoef="0" IVar="5" Cut="2.2953931987285614e-01" cType="1" res="-1.7434973269701004e-03" rms="2.8275990486145020e-01" purity="4.9948617815971375e-01" nType="0">
        <Node pos="l" depth="1" NCoef="0" IVar="2" Cut="4.3683417141437531e-02" cType="1" res="-7.0313110947608948e-02" rms="2.9235425591468811e-01" purity="2.0215770602226257e-01" nType="0">
          <Node pos="l" depth="2" NCoef="0" IVar="-1" Cut="0.0000000000000000e+00" cType="1" res="4.7965373843908310e-02" rms="3.2816079258918762e-01" purity="7.8442823886871338e-01" nType="-99"/>
          <Node pos="r" depth="2" NCoef="0" IVar="-1" Cut="0.0000000000000000e+00" cType="1" res="-2.9495798051357269e-02" rms="2.8361228108406067e-01" purity="1.6757343709468842e-01" nType="-99"/>
        </Node>
        <Node pos="r" depth="1" NCoef="0" IVar="5" Cut="3.2143482565879822e-01" cType="1" res="9.9307760596275330e-02" rms="2.3383983969688416e-01" purity="9.3766021728515625e-01" nType="0">
          <Node pos="l" depth="2" NCoef="0" IVar="-1" Cut="0.0000000000000000e+00" cType="1" res="2.2649288177490234e-02" rms="3.0657342076301575e-01" purity="8.8660913705825806e-01" nType="-99"/>
          <Node pos="r" depth="2" NCoef="0" IVar="-1" Cut="0.0000000000000000e+00" cType="1" res="4.8352476209402084e-02" rms="1.6278968751430511e-01" purity="9.7250664234161377e-01" nType="-99"/>
        </Node>
      </Node>
    </BinaryTree>
    <BinaryTree type="DecisionTree" boostWeight="1.0000000000000000e+00" itree="17">
      <Node pos="s" depth="0" NCoef="0" IVar="5" Cut="1.1565976589918137e-01" cType="1" res="2.9056163039058447e-03" rms="2.7962347865104675e-01" purity="5.0450915098190308e-01" nType="0">
        <Node pos="l" depth="1" NCoef="0" IVar="2" Cut="1.7549766600131989e-01" cType="1" res="-9.7189217805862427e-02" rms="1.8341517448425293e-01" purity="3.5712782293558121e-02" nType="0">
          <Node pos="l" depth="2" NCoef="0" IVar="-1" Cut="0.0000000000000000e+00" cType="1" res="-4.9292789772152901e-03" rms="3.5390421748161316e-01" purity="1.4864392578601837e-01" nType="-99"/>
          <Node pos="r" depth="2" NCoef="0" IVar="-1" Cut="0.0000000000000000e+00" cType="1" res="-4.7705631703138351e-02" rms="1.4733116328716278e-01" purity="2.2167943418025970e-02" nType="-99"/>
        </Node>
        <Node pos="r" depth="1" NCoef="0" IVar="2" Cut="8.7342128157615662e-02" cType="1" res="6.3460431993007660e-02" rms="3.0888780951499939e-01" purity="7.8811895847320557e-01" nType="0">
          <Node pos="l" depth="2" NCoef="0" IVar="-1" Cut="0.0000000000000000e+00" cType="1" res="4.3704662472009659e-02" rms="2.0805434882640839e-01" purity="9.4726014137268066e-01" nType="-99"/>
          <Node pos="r" depth="2" NCoef="0" IVar="-1" Cut="0.0000000000000000e+00" cType="1" res="5.7993056252598763e-03" rms="3.7174758315086365e-01" purity="6.4504295587539673e-01" nType="-99"/>
        </Node>
      </Node>
    </BinaryTree>
    <BinaryTree type="DecisionTree" boostWeight="1.0000000000000000e+00" itree="18">
      <Node pos="s" depth="0" NCoef="0" IVar="1" Cut="1.4285714924335480e-01" cType="1" res="-1.9822111353278160e-03" rms="2.7648019790649414e-01" purity="5.0116199254989624e-01" nType="0">
        <Node pos="l" depth="1" NCoef="0" IVar="2" Cut="4.7619048506021500e-02" cType="1" res="6.5231330692768097e-02" rms="2.7715471386909485e-01" purity="8.3218282461166382e-01" nType="0">
          <Node pos="l" depth="2" NCoef="0" IVar="-1" Cut="0.0000000000000000e+00" cType="1" res="4.8040788620710373e-02" rms="1.6801622509956360e-01" purity="9.6919876337051392e-01" nType="-99"/>
          <Node pos="r" depth="2" NCoef="0" IVar="-1" Cut="0.0000000000000000e+00" cType="1" res="9.9822757765650749e-03" rms="3.3218830823898315e-01" purity="7.2925722599029541e-01" nType="-99"/>
        </Node>
        <Node pos="r" depth="1" NCoef="0" IVar="5" Cut="2.6206907629966736e-01" cType="1" res="-7.5656183063983917e-02" rms="2.5622689723968506e-01" purity="1.3832403719425201e-01" nType="0">
          <Node pos="l" depth="2" NCoef="0" IVar="-1" Cut="0.0000000000000000e+00" cType="1" res="-3.4901455044746399e-02" rms="2.4254000186920166e-01" purity="8.6139269173145294e-02" nType="-99"/>
          <Node pos="r" depth="2" NCoef="0" IVar="-1" Cut="0.0000000000000000e+00" cType="1" res="1.9308164715766907e-02" rms="3.6656841635704041e-01" purity="8.3535373210906982e-01" nType="-99"/>
        </Node>
      </Node>
    </BinaryTree>
    <BinaryTree type="DecisionTree" boostWeight="1.0000000000000000e+00" itree="19">
      <Node pos="s" depth="0" NCoef="0" IVar="5" Cut="2.1800158917903900e-01" cType="1" res="1.3783577596768737e-03" rms="2.7653911709785461e-01" purity="5.0498616695404053e-01" nType="0">
        <Node pos="l" depth="1" NCoef="0" IVar="2" Cut="4.7619048506021500e-02" cType="1" res="-5.3742296993732452e-02" rms="2.8895744681358337e-01" purity="1.8623904883861542e-01" nType="0">
          <Node pos="l" depth="2" NCoef="0" IVar="-1" Cut="0.0000000000000000e+00" cType="1" res="3.8435619324445724e-02" rms="3.4272590279579163e-01" purity="7.4086654186248779e-01" nType="-99"/>
          <Node pos="r" depth="2" NCoef="0" IVar="-1" Cut="0.0000000000000000e+00" cType="1" res="-2.4810153990983963e-02" rms="2.8170639276504517e-01" purity="1.5360969305038452e-01" nType="-99"/>
        </Node>
        <Node pos="r" depth="1" NCoef="0" IVar="5" Cut="3.0526787042617798e-01" cType="1" res="7.5175620615482330e-02" rms="2.3991274833679199e-01" purity="9.3173485994338989e-01" nType="0">
          <Node pos="l" depth="2" NCoef="0" IVar="-1" Cut="0.0000000000000000e+00" cType="1" res="1.5484646894037724e-02" rms="3.1958568096160889e-01" purity="8.7029898166656494e-01" nType="-99"/>
          <Node pos="r" depth="2" NCoef="0" IVar="-1" Cut="0.0000000000000000e+00" cType="1" res="4.3386340141296387e-02" rms="1.7225953936576843e-01" purity="9.6875828504562378e-01" nType="-99"/>
        </Node>
      </Node>
    </BinaryTree>
    <BinaryTree type="DecisionTree" boostWeight="1.0000000000000000e+00" itree="20">
      <Node pos="s" depth="0" NCoef="0" IVar="5" Cut="1.0994920879602432e-01" cType="1" res="-1.2295380001887679e-03" rms="2.7473372220993042e-01" purity="4.9575611948966980e-01" nType="0">
        <Node pos="l" depth="1" NCoef="0" IVar="2" Cut="1.9047619402408600e-01" cType="1" res="-7.7267184853553772e-02" rms="1.8281278014183044e-01" purity="3.5463597625494003e-02" nType="0">
          <Node pos="l" depth="2" NCoef="0" IVar="-1" Cut="0.0000000000000000e+00" cType="1" res="-5.9528001584112644e-03" rms="3.3506596088409424e-01" purity="1.3184809684753418e-01" nType="-99"/>
          <Node pos="r" depth="2" NCoef="0" IVar="-1" Cut="0.0000000000000000e+00" cType="1" res="-4.4592946767807007e-02" rms="1.4872464537620544e-01" purity="2.2388255223631859e-02" nType="-99"/>
        </Node>
        <Node pos="r" depth="1" NCoef="0" IVar="1" Cut="2.3023039102554321e-01" cType="1" res="4.3924976140260696e-02" rms="3.0819183588027954e-01" purity="7.6909816265106201e-01" nType="0">
          <Node pos="l" depth="2" NCoef="0" IVar="-1" Cut="0.0000000000000000e+00" cType="1" res="2.2028936073184013e-02" rms="2.9829636216163635e-01" purity="8.3171433210372925e-01" nType="-99"/>
          <Node pos="r" depth="2" NCoef="0" IVar="-1" Cut="0.0000000000000000e+00" cType="1" res="-1.9489999860525131e-02" rms="3.5575953125953674e-01" purity="2.9396829009056091e-01" nType="-99"/>
        </Node>
      </Node>
    </BinaryTree>
    <BinaryTree type="DecisionTree" boostWeight="1.0000000000000000e+00" itree="21">
      <Node pos="s" depth="0" NCoef="0" IVar="1" Cut="9.5238097012042999e-02" cType="1" res="-1.6679294640198350e-03" rms="2.6970726251602173e-01" purity="4.9608054757118225e-01" nType="0">
        <Node pos="l" depth="1" NCoef="0" IVar="5" Cut="1.4556357264518738e-01" cType="1" res="6.8968005478382111e-02" rms="2.4745458364486694e-01" purity="8.9635008573532104e-01" nType="0">
          <Node pos="l" depth="2" NCoef="0" IVar="-1" Cut="0.0000000000000000e+00" cType="1" res="-5.1236161962151527e-03" rms="4.0757077932357788e-01" purity="2.6570245623588562e-01" nType="-99"/>
          <Node pos="r" depth="2" NCoef="0" IVar="-1" Cut="0.0000000000000000e+00" cType="1" res="3.3093951642513275e-02" rms="2.3191015422344208e-01" purity="9.3782722949981689e-01" nType="-99"/>
        </Node>
        <Node pos="r" depth="1" NCoef="0" IVar="2" Cut="8.3474993705749512e-02" cType="1" res="-5.1270585507154465e-02" rms="2.7360424399375916e-01" purity="2.1499933302402496e-01" nType="0">
          <Node pos="l" depth="2" NCoef="0" IVar="-1" Cut="0.0000000000000000e+00" cType="1" res="3.0699098482728004e-02" rms="3.4015876054763794e-01" purity="7.1787405014038086e-01" nType="-99"/>
          <Node pos="r" depth="2" NCoef="0" IVar="-1" Cut="0.0000000000000000e+00" cType="1" res="-2.6348670944571495e-02" rms="2.6441681385040283e-01" purity="1.7469924688339233e-01" nType="-99"/>
        </Node>
      </Node>
    </BinaryTree>
    <BinaryTree type="DecisionTree" boostWeight="1.0000000000000000e+00" itree="22">
      <Node pos="s" depth="0" NCoef="0" IVar="5" Cut="2.1776430308818817e-01" cType="1" res="-8.1262813182547688e-04" rms="2.6977246999740601e-01" purity="4.9943652749061584e-01" nType="0">
        <Node pos="l" depth="1" NCoef="0" IVar="2" Cut="8.7342128157615662e-02" cType="1" res="-4.6049028635025024e-02" rms="2.7952590584754944e-01" purity="1.7896302044391632e-01" nType="0">
          <Node pos="l" depth="2" NCoef="0" IVar="-1" Cut="0.0000000000000000e+00" cType="1" res="2.0489525049924850e-02" rms="4.0047207474708557e-01" purity="6.3798612356185913e-01" nType="-99"/>
          <Node pos="r" depth="2" NCoef="0" IVar="-1" Cut="0.0000000000000000e+00" cType="1" res="-2.4743260815739632e-02" rms="2.6189166307449341e-01" purity="1.3384360074996948e-01" nType="-99"/>
        </Node>
        <Node pos="r" depth="1" NCoef="0" IVar="2" Cut="4.2995590716600418e-02" cType="1" res="6.0133650898933411e-02" rms="2.4307942390441895e-01" purity="9.3120539188385010e-01" nType="0">
          <Node pos="l" depth="2" NCoef="0" IVar="-1" Cut="0.0000000000000000e+00" cType="1" res="4.4834073632955551e-02" rms="1.3866294920444489e-01" purity="9.8039680719375610e-01" nType="-99"/>
          <Node pos="r" depth="2" NCoef="0" IVar="-1" Cut="0.0000000000000000e+00" cType="1" res="1.7054570838809013e-02" rms="3.0455654859542847e-01" purity="8.8885247707366943e-01" nType="-99"/>
        </Node>
      </Node>
    </BinaryTree>
    <BinaryTree type="DecisionTree" boostWeight="1.0000000000000000e+00" itree="23">
      <Node pos="s" depth="0" NCoef="0" IVar="5" Cut="1.0994920879602432e-01" cType="1" res="1.9112214213237166e-03" rms="2.6716777682304382e-01" purity="5.0150150060653687e-01" nType="0">
        <Node pos="l" depth="1" NCoef="0" IVar="2" Cut="1.4285714924335480e-01" cType="1" res="-6.2449958175420761e-02" rms="1.7922396957874298e-01" purity="3.4411009401082993e-02" nType="0">
          <Node pos="l" depth="2" NCoef="0" IVar="-1" Cut="0.0000000000000000e+00" cType="1" res="1.0107592679560184e-02" rms="3.9081135392189026e-01" purity="1.8828018009662628e-01" nType="-99"/>
          <Node pos="r" depth="2" NCoef="0" IVar="-1" Cut="0.0000000000000000e+00" cType="1" res="-4.1654787957668304e-02" rms="1.4902320504188538e-01" purity="2.2603780031204224e-02" nType="-99"/>
        </Node>
        <Node pos="r" depth="1" NCoef="0" IVar="1" Cut="1.8418431282043457e-01" cType="1" res="3.9315555244684219e-02" rms="3.0064445734024048e-01" purity="7.7295720577239990e-01" nType="0">
          <Node pos="l" depth="2" NCoef="0" IVar="-1" Cut="0.0000000000000000e+00" cType="1" res="2.2772597149014473e-02" rms="2.8114590048789978e-01" purity="8.6028236150741577e-01" nType="-99"/>
          <Node pos="r" depth="2" NCoef="0" IVar="-1" Cut="0.0000000000000000e+00" cType="1" res="-1.1174358427524567e-02" rms="3.7468016147613525e-01" purity="3.3347797393798828e-01" nType="-99"/>
        </Node>
      </Node>
    </BinaryTree>
    <BinaryTree type="DecisionTree" boostWeight="1.0000000000000000e+00" itree="24">
      <Node pos="s" depth="0" NCoef="0" IVar="5" Cut="1.3712747395038605e-01" cType="1" res="3.0194283463060856e-03" rms="2.7010005712509155e-01" purity="5.0219458341598511e-01" nType="0">
        <Node pos="l" depth="1" NCoef="0" IVar="2" Cut="1.9047619402408600e-01" cType="1" res="-4.9767639487981796e-02" rms="2.0946286618709564e-01" purity="5.1353685557842255e-02" nType="0">
          <Node pos="l" depth="2" NCoef="0" IVar="-1" Cut="0.0000000000000000e+00" cType="1" res="7.7071990817785263e-03" rms="3.7284424901008606e-01" purity="1.8086735904216766e-01" nType="-99"/>
          <Node pos="r" depth="2" NCoef="0" IVar="-1" Cut="0.0000000000000000e+00" cType="1" res="-3.6812398582696915e-02" rms="1.6800938546657562e-01" purity="3.1232951208949089e-02" nType="-99"/>
        </Node>
        <Node pos="r" depth="1" NCoef="0" IVar="2" Cut="4.3683417141437531e-02" cType="1" res="4.2075429111719131e-02" rms="3.0146673321723938e-01" purity="8.3576196432113647e-01" nType="0">
          <Node pos="l" depth="2" NCoef="0" IVar="-1" Cut="0.0000000000000000e+00" cType="1" res="4.2650267481803894e-02" rms="1.5505482256412506e-01" purity="9.7537451982498169e-01" nType="-99"/>
          <Node pos="r" depth="2" NCoef="0" IVar="-1" Cut="0.0000000000000000e+00" cType="1" res="7.6397666707634926e-03" rms="3.6162343621253967e-01" purity="7.5038468837738037e-01" nType="-99"/>
        </Node>
      </Node>
    </BinaryTree>
    <BinaryTree type="DecisionTree" boostWeight="1.0000000000000000e+00" itree="25">
      <Node pos="s" depth="0" NCoef="0" IVar="5" Cut="1.3232305645942688e-01" cType="1" res="3.9066362660378218e-05" rms="2.6943421363830566e-01" purity="4.9916332960128784e-01" nType="0">
        <Node pos="l" depth="1" NCoef="0" IVar="2" Cut="1.4285714924335480e-01" cType="1" res="-4.6458870172500610e-02" rms="2.0416608452796936e-01" purity="4.7905504703521729e-02" nType="0">
          <Node pos="l" depth="2" NCoef="0" IVar="-1" Cut="0.0000000000000000e+00" cType="1" res="1.2233355082571507e-02" rms="4.0917551517486572e-01" purity="2.2822770476341248e-01" nType="-99"/>
          <Node pos="r" depth="2" NCoef="0" IVar="-1" Cut="0.0000000000000000e+00" cType="1" res="-3.4703008830547333e-02" rms="1.7273488640785217e-01" purity="3.1862791627645493e-02" nType="-99"/>
        </Node>
        <Node pos="r" depth="1" NCoef="0" IVar="1" Cut="9.4287320971488953e-02" cType="1" res="3.3214230090379715e-02" rms="3.0332469940185547e-01" purity="8.2112497091293335e-01" nType="0">
          <Node pos="l" depth="2" NCoef="0" IVar="-1" Cut="0.0000000000000000e+00" cType="1" res="2.6006812229752541e-02" rms="2.4310345947742462e-01" purity="9.2751652002334595e-01" nType="-99"/>
          <Node pos="r" depth="2" NCoef="0" IVar="-1" Cut="0.0000000000000000e+00" cType="1" res="-1.4822626253589988e-03" rms="3.9582335948944092e-01" purity="6.0497212409973145e-01" nType="-99"/>
        </Node>
      </Node>
    </BinaryTree>
    <BinaryTree type="DecisionTree" boostWeight="1.0000000000000000e+00" itree="26">
      <Node pos="s" depth="0" NCoef="0" IVar="5" Cut="2.2953931987285614e-01" cType="1" res="-1.0408925591036677e-03" rms="2.6643279194831848e-01" purity="5.0132375955581665e-01" nType="0">
        <Node pos="l" depth="1" NCoef="0" IVar="1" Cut="4.7619048506021500e-02" cType="1" res="-3.2183803617954254e-02" rms="2.8375387191772461e-01" purity="2.0581799745559692e-01" nType="0">
          <Node pos="l" depth="2" NCoef="0" IVar="-1" Cut="0.0000000000000000e+00" cType="1" res="2.1205980330705643e-02" rms="3.6336863040924072e-01" purity="7.9192399978637695e-01" nType="-99"/>
          <Node pos="r" depth="2" NCoef="0" IVar="-1" Cut="0.0000000000000000e+00" cType="1" res="-1.7990708351135254e-02" rms="2.7647215127944946e-01" purity="1.6732092201709747e-01" nType="-99"/>
        </Node>
        <Node pos="r" depth="1" NCoef="0" IVar="5" Cut="3.2140940427780151e-01" cType="1" res="4.4938635081052780e-02" rms="2.3102056980133057e-01" purity="9.3760967254638672e-01" nType="0">
          <Node pos="l" depth="2" NCoef="0" IVar="-1" Cut="0.0000000000000000e+00" cType="1" res="9.2623494565486908e-03" rms="3.0092206597328186e-01" purity="8.8837987184524536e-01" nType="-99"/>
          <Node pos="r" depth="2" NCoef="0" IVar="-1" Cut="0.0000000000000000e+00" cType="1" res="3.8304924964904785e-02" rms="1.6393770277500153e-01" purity="9.7174692153930664e-01" nType="-99"/>
        </Node>
      </Node>
    </BinaryTree>
    <BinaryTree type="DecisionTree" boostWeight="1.0000000000000000e+00" itree="27">
      <Node pos="s" depth="0" NCoef="0" IVar="1" Cut="1.9047619402408600e-01" cType="1" res="1.3433287676889449e-04" rms="2.6432895660400391e-01" purity="5.0011909008026123e-01" nType="0">
        <Node pos="l" depth="1" NCoef="0" IVar="0" Cut="6.6004949808120728e-01" cType="1" res="2.9481932520866394e-02" rms="2.8089633584022522e-01" purity="7.7710586786270142e-01" nType="0">
          <Node pos="l" depth="2" NCoef="0" IVar="-1" Cut="0.0000000000000000e+00" cType="1" res="6.7030237987637520e-03" rms="2.9239758849143982e-01" purity="7.4664789438247681e-01" nType="-99"/>
          <Node pos="r" depth="2" NCoef="0" IVar="-1" Cut="0.0000000000000000e+00" cType="1" res="3.8542669266462326e-02" rms="2.2976787388324738e-01" purity="8.8192433118820190e-01" nType="-99"/>
        </Node>
        <Node pos="r" depth="1" NCoef="0" IVar="2" Cut="4.9118477106094360e-01" cType="1" res="-4.2098216712474823e-02" rms="2.3205164074897766e-01" purity="1.0152246803045273e-01" nType="0">
          <Node pos="l" depth="2" NCoef="0" IVar="-1" Cut="0.0000000000000000e+00" cType="1" res="-1.5710130333900452e-02" rms="2.3457342386245728e-01" purity="1.0449374467134476e-01" nType="-99"/>
          <Node pos="r" depth="2" NCoef="0" IVar="-1" Cut="0.0000000000000000e+00" cType="1" res="-4.3750751763582230e-02" rms="2.1824632585048676e-01" purity="9.2297360301017761e-02" nType="-99"/>
        </Node>
      </Node>
    </BinaryTree>
    <BinaryTree type="DecisionTree" boostWeight="1.0000000000000000e+00" itree="28">
      <Node pos="s" depth="0" NCoef="0" IVar="5" Cut="1.1565976589918137e-01" cType="1" res="-6.0500879044411704e-05" rms="2.6480811834335327e-01" purity="5.0192677974700928e-01" nType="0">
        <Node pos="l" depth="1" NCoef="0" IVar="2" Cut="3.0712091922760010e-01" cType="1" res="-4.3492384254932404e-02" rms="1.7829950153827667e-01" purity="3.4700948745012283e-02" nType="0">
          <Node pos="l" depth="2" NCoef="0" IVar="-1" Cut="0.0000000000000000e+00" cType="1" res="-9.6094757318496704e-03" rms="2.6469728350639343e-01" purity="7.9750955104827881e-02" nType="-99"/>
          <Node pos="r" depth="2" NCoef="0" IVar="-1" Cut="0.0000000000000000e+00" cType="1" res="-4.3939657509326935e-02" rms="1.1274752765893936e-01" purity="1.2877716682851315e-02" nType="-99"/>
        </Node>
        <Node pos="r" depth="1" NCoef="0" IVar="2" Cut="4.3671064078807831e-02" cType="1" res="2.6405256241559982e-02" rms="3.0270761251449585e-01" purity="7.8663659095764160e-01" nType="0">
          <Node pos="l" depth="2" NCoef="0" IVar="-1" Cut="0.0000000000000000e+00" cType="1" res="4.0564466267824173e-02" rms="1.5863640606403351e-01" purity="9.7371637821197510e-01" nType="-99"/>
          <Node pos="r" depth="2" NCoef="0" IVar="-1" Cut="0.0000000000000000e+00" cType="1" res="2.7506435289978981e-03" rms="3.5608455538749695e-01" purity="6.8485295772552490e-01" nType="-99"/>
        </Node>
      </Node>
    </BinaryTree>
    <BinaryTree type="DecisionTree" boostWeight="1.0000000000000000e+00" itree="29">
      <Node pos="s" depth="0" NCoef="0" IVar="5" Cut="2.3135514557361603e-01" cType="1" res="-1.1606055777519941e-03" rms="2.6515179872512817e-01" purity="5.0180971622467041e-01" nType="0">
        <Node pos="l" depth="1" NCoef="0" IVar="2" Cut="4.7619048506021500e-02" cType="1" res="-2.7543626725673676e-02" rms="2.8451079130172729e-01" purity="2.1015009284019470e-01" nType="0">
          <Node pos="l" depth="2" NCoef="0" IVar="-1" Cut="0.0000000000000000e+00" cType="1" res="2.3258166387677193e-02" rms="3.3376598358154297e-01" purity="7.7209776639938354e-01" nType="-99"/>
          <Node pos="r" depth="2" NCoef="0" IVar="-1" Cut="0.0000000000000000e+00" cType="1" res="-1.6384040936827660e-02" rms="2.7978414297103882e-01" purity="1.7235845327377319e-01" nType="-99"/>
        </Node>
        <Node pos="r" depth="1" NCoef="0" IVar="3" Cut="5.4827773571014404e-01" cType="1" res="3.8531951606273651e-02" rms="2.2731874883174896e-01" purity="9.4060397148132324e-01" nType="0">
          <Node pos="l" depth="2" NCoef="0" IVar="-1" Cut="0.0000000000000000e+00" cType="1" res="2.7464140206575394e-02" rms="2.1387578547000885e-01" purity="9.4720613956451416e-01" nType="-99"/>
          <Node pos="r" depth="2" NCoef="0" IVar="-1" Cut="0.0000000000000000e+00" cType="1" res="-4.5744101516902447e-03" rms="2.8127118945121765e-01" purity="9.0728384256362915e-01" nType="-99"/>
        </Node>
      </Node>
    </BinaryTree>
    <BinaryTree type="DecisionTree" boostWeight="1.0000000000000000e+00" itree="30">
      <Node pos="s" depth="0" NCoef="0" IVar="5" Cut="3.0785295367240906e-01" cType="1" res="-7.2181981522589922e-04" rms="2.6544570922851562e-01" purity="5.0068479776382446e-01" nType="0">
        <Node pos="l" depth="1" NCoef="0" IVar="1" Cut="4.7619048506021500e-02" cType="1" res="-1.6452768817543983e-02" rms="2.8792181611061096e-01" purity="3.3528506755828857e-01" nType="0">
          <Node pos="l" depth="2" NCoef="0" IVar="-1" Cut="0.0000000000000000e+00" cType="1" res="2.1963138133287430e-02" rms="2.9154738783836365e-01" purity="8.8586688041687012e-01" nType="-99"/>
          <Node pos="r" depth="2" NCoef="0" IVar="-1" Cut="0.0000000000000000e+00" cType="1" res="-1.2055520899593830e-02" rms="2.8642985224723816e-01" purity="2.6611071825027466e-01" nType="-99"/>
        </Node>
        <Node pos="r" depth="1" NCoef="0" IVar="3" Cut="6.1129212379455566e-01" cType="1" res="4.3413300067186356e-02" rms="1.8145020306110382e-01" purity="9.6473401784896851e-01" nType="0">
          <Node pos="l" depth="2" NCoef="0" IVar="-1" Cut="0.0000000000000000e+00" cType="1" res="3.4445744007825851e-02" rms="1.6719616949558258e-01" purity="9.7004520893096924e-01" nType="-99"/>
          <Node pos="r" depth="2" NCoef="0" IVar="-1" Cut="0.0000000000000000e+00" cType="1" res="-4.3247104622423649e-04" rms="2.6190400123596191e-01" purity="9.2427122592926025e-01" nType="-99"/>
        </Node>
      </Node>
    </BinaryTree>
    <BinaryTree type="DecisionTree" boostWeight="1.0000000000000000e+00" itree="31">
      <Node pos="s" depth="0" NCoef="0" IVar="5" Cut="1.1689206212759018e-01" cType="1" res="-4.3758528772741556e-04" rms="2.6585701107978821e-01" purity="4.9983885884284973e-01" nType="0">
        <Node pos="l" depth="1" NCoef="0" IVar="2" Cut="2.8571429848670959e-01" cType="1" res="-3.4429922699928284e-02" rms="1.8250095844268799e-01" purity="3.6202333867549896e-02" nType="0">
          <Node pos="l" depth="2" NCoef="0" IVar="-1" Cut="0.0000000000000000e+00" cType="1" res="-3.7583766970783472e-03" rms="2.8095802664756775e-01" purity="8.9512653648853302e-02" nType="-99"/>
          <Node pos="r" depth="2" NCoef="0" IVar="-1" Cut="0.0000000000000000e+00" cType="1" res="-3.9266273379325867e-02" rms="1.2564364075660706e-01" purity="1.6210332512855530e-02" nType="-99"/>
        </Node>
        <Node pos="r" depth="1" NCoef="0" IVar="3" Cut="5.0258791446685791e-01" cType="1" res="2.0505743101239204e-02" rms="3.0422991514205933e-01" purity="7.8549420833587646e-01" nType="0">
          <Node pos="l" depth="2" NCoef="0" IVar="-1" Cut="0.0000000000000000e+00" cType="1" res="1.3996783643960953e-02" rms="2.9905211925506592e-01" purity="7.7997344732284546e-01" nType="-99"/>
          <Node pos="r" depth="2" NCoef="0" IVar="-1" Cut="0.0000000000000000e+00" cType="1" res="-1.3459803536534309e-02" rms="3.2126820087432861e-01" purity="8.0949580669403076e-01" nType="-99"/>
        </Node>
      </Node>
    </BinaryTree>
    <BinaryTree type="DecisionTree" boostWeight="1.0000000000000000e+00" itree="32">
      <Node pos="s" depth="0" NCoef="0" IVar="1" Cut="9.5238097012042999e-02" cType="1" res="-1.7413080204278231e-03" rms="2.6523816585540771e-01" purity="4.9424937367439270e-01" nType="0">
        <Node pos="l" depth="1" NCoef="0" IVar="0" Cut="-7.7941209077835083e-01" cType="1" res="2.9438994824886322e-02" rms="2.5155130028724670e-01" purity="8.9051121473312378e-01" nType="0">
          <Node pos="l" depth="2" NCoef="0" IVar="-1" Cut="0.0000000000000000e+00" cType="1" res="4.0564112365245819e-02" rms="1.7747858166694641e-01" purity="9.5413428544998169e-01" nType="-99"/>
          <Node pos="r" depth="2" NCoef="0" IVar="-1" Cut="0.0000000000000000e+00" cType="1" res="1.1216576211154461e-02" rms="2.6541149616241455e-01" purity="8.7525010108947754e-01" nType="-99"/>
        </Node>
        <Node pos="r" depth="1" NCoef="0" IVar="3" Cut="4.9355554580688477e-01" cType="1" res="-2.3188272491097450e-02" rms="2.7219077944755554e-01" purity="2.2168593108654022e-01" nType="0">
          <Node pos="l" depth="2" NCoef="0" IVar="-1" Cut="0.0000000000000000e+00" cType="1" res="-9.2109087854623795e-03" rms="2.6571831107139587e-01" purity="2.1651437878608704e-01" nType="-99"/>
          <Node pos="r" depth="2" NCoef="0" IVar="-1" Cut="0.0000000000000000e+00" cType="1" res="-5.1819268614053726e-02" rms="3.5537821054458618e-01" purity="3.2233637571334839e-01" nType="-99"/>
        </Node>
      </Node>
    </BinaryTree>
    <BinaryTree type="DecisionTree" boostWeight="1.0000000000000000e+00" itree="33">
      <Node pos="s" depth="0" NCoef="0" IVar="2" Cut="4.7619048506021500e-02" cType="1" res="-2.4985780473798513e-03" rms="2.6209083199501038e-01" purity="4.9464371800422668e-01" nType="0">
        <Node pos="l" depth="1" NCoef="0" IVar="4" Cut="6.0695935972034931e-03" cType="1" res="4.3412443250417709e-02" rms="1.7963868379592896e-01" purity="9.4995820522308350e-01" nType="0">
          <Node pos="l" depth="2" NCoef="0" IVar="-1" Cut="0.0000000000000000e+00" cType="1" res="1.2744711712002754e-02" rms="1.9870451092720032e-01" purity="9.5069932937622070e-01" nType="-99"/>
          <Node pos="r" depth="2" NCoef="0" IVar="-1" Cut="0.0000000000000000e+00" cType="1" res="3.9293698966503143e-02" rms="1.6866746544837952e-01" purity="9.4962298870086670e-01" nType="-99"/>
        </Node>
        <Node pos="r" depth="1" NCoef="0" IVar="5" Cut="3.0785295367240906e-01" cType="1" res="-1.6658766195178032e-02" rms="2.8120166063308716e-01" purity="3.5421252250671387e-01" nType="0">
          <Node pos="l" depth="2" NCoef="0" IVar="-1" Cut="0.0000000000000000e+00" cType="1" res="-1.2729887850582600e-02" rms="2.8691580891609192e-01" purity="2.5792974233627319e-01" nType="-99"/>
          <Node pos="r" depth="2" NCoef="0" IVar="-1" Cut="0.0000000000000000e+00" cType="1" res="2.1728789433836937e-02" rms="2.3646855354309082e-01" purity="9.4011509418487549e-01" nType="-99"/>
        </Node>
      </Node>
    </BinaryTree>
    <BinaryTree type="DecisionTree" boostWeight="1.0000000000000000e+00" itree="34">
      <Node pos="s" depth="0" NCoef="0" IVar="2" Cut="4.7619048506021500e-02" cType="1" res="1.3831070646119770e-05" rms="2.6221650838851929e-01" purity="4.9431926012039185e-01" nType="0">
        <Node pos="l" depth="1" NCoef="0" IVar="4" Cut="5.5437409318983555e-03" cType="1" res="4.1069019585847855e-02" rms="1.7254373431205750e-01" purity="9.5015847682952881e-01" nType="0">
          <Node pos="l" depth="2" NCoef="0" IVar="-1" Cut="0.0000000000000000e+00" cType="1" res="7.5858142226934433e-03" rms="2.0374305546283722e-01" purity="9.4785302877426147e-01" nType="-99"/>
          <Node pos="r" depth="2" NCoef="0" IVar="-1" Cut="0.0000000000000000e+00" cType="1" res="3.8100343197584152e-02" rms="1.6016338765621185e-01" purity="9.5087975263595581e-01" nType="-99"/>
        </Node>
        <Node pos="r" depth="1" NCoef="0" IVar="5" Cut="3.0761566758155823e-01" cType="1" res="-1.2541554868221283e-02" rms="2.8285515308380127e-01" purity="3.5491573810577393e-01" nType="0">
          <Node pos="l" depth="2" NCoef="0" IVar="-1" Cut="0.0000000000000000e+00" cType="1" res="-9.9057573825120926e-03" rms="2.8853848576545715e-01" purity="2.6007765531539917e-01" nType="-99"/>
          <Node pos="r" depth="2" NCoef="0" IVar="-1" Cut="0.0000000000000000e+00" cType="1" res="1.8746227025985718e-02" rms="2.4048741161823273e-01" purity="9.3779963254928589e-01" nType="-99"/>
        </Node>
      </Node>
    </BinaryTree>
    <BinaryTree type="DecisionTree" boostWeight="1.0000000000000000e+00" itree="35">
      <Node pos="s" depth="0" NCoef="0" IVar="5" Cut="1.0994920879602432e-01" cType="1" res="-5.4520345292985439e-04" rms="2.6168006658554077e-01" purity="4.9792006611824036e-01" nType="0">
        <Node pos="l" depth="1" NCoef="0" IVar="2" Cut="1.7549766600131989e-01" cType="1" res="-2.9939696192741394e-02" rms="1.7395412921905518e-01" purity="3.3409230411052704e-02" nType="0">
          <Node pos="l" depth="2" NCoef="0" IVar="-1" Cut="0.0000000000000000e+00" cType="1" res="9.6789086237549782e-03" rms="3.5509783029556274e-01" purity="1.5704053640365601e-01" nType="-99"/>
          <Node pos="r" depth="2" NCoef="0" IVar="-1" Cut="0.0000000000000000e+00" cType="1" res="-3.4370724111795425e-02" rms="1.3831461966037750e-01" purity="1.9482756033539772e-02" nType="-99"/>
        </Node>
        <Node pos="r" depth="1" NCoef="0" IVar="0" Cut="4.2002439498901367e-01" cType="1" res="1.6642302274703979e-02" rms="3.0003613233566284e-01" purity="7.6952821016311646e-01" nType="0">
          <Node pos="l" depth="2" NCoef="0" IVar="-1" Cut="0.0000000000000000e+00" cType="1" res="9.5569330733269453e-04" rms="3.1134960055351257e-01" purity="7.5196856260299683e-01" nType="-99"/>
          <Node pos="r" depth="2" NCoef="0" IVar="-1" Cut="0.0000000000000000e+00" cType="1" res="2.1366126835346222e-02" rms="2.7497124671936035e-01" purity="8.0310982465744019e-01" nType="-99"/>
        </Node>
      </Node>
    </BinaryTree>
    <BinaryTree type="DecisionTree" boostWeight="1.0000000000000000e+00" itree="36">
      <Node pos="s" depth="0" NCoef="0" IVar="5" Cut="1.2913519144058228e-01" cType="1" res="3.7175437319092453e-04" rms="2.6445811986923218e-01" purity="5.0358426570892334e-01" nType="0">
        <Node pos="l" depth="1" NCoef="0" IVar="4" Cut="2.2856773808598518e-02" cType="1" res="-2.3731028661131859e-02" rms="1.9557777047157288e-01" purity="4.2968843132257462e-02" nType="0">
          <Node pos="l" depth="2" NCoef="0" IVar="-1" Cut="0.0000000000000000e+00" cType="1" res="-3.1971652060747147e-02" rms="1.6437008976936340e-01" purity="3.0468594282865524e-02" nType="-99"/>
          <Node pos="r" depth="2" NCoef="0" IVar="-1" Cut="0.0000000000000000e+00" cType="1" res="-3.4532065037637949e-03" rms="2.2656574845314026e-01" purity="5.8317396789789200e-02" nType="-99"/>
        </Node>
        <Node pos="r" depth="1" NCoef="0" IVar="3" Cut="4.5121166110038757e-01" cType="1" res="1.6744805499911308e-02" rms="3.0133154988288879e-01" purity="8.1648099422454834e-01" nType="0">
          <Node pos="l" depth="2" NCoef="0" IVar="-1" Cut="0.0000000000000000e+00" cType="1" res="1.3627066276967525e-02" rms="2.9293313622474670e-01" purity="8.1765812635421753e-01" nType="-99"/>
          <Node pos="r" depth="2" NCoef="0" IVar="-1" Cut="0.0000000000000000e+00" cType="1" res="-1.0200123302638531e-02" rms="3.2348874211311340e-01" purity="8.1275838613510132e-01" nType="-99"/>
        </Node>
      </Node>
    </BinaryTree>
    <BinaryTree type="DecisionTree" boostWeight="1.0000000000000000e+00" itree="37">
      <Node pos="s" depth="0" NCoef="0" IVar="1" Cut="1.9047619402408600e-01" cType="1" res="2.4942771997302771e-03" rms="2.5932323932647705e-01" purity="5.0140142440795898e-01" nType="0">
        <Node pos="l" depth="1" NCoef="0" IVar="0" Cut="-7.7993303537368774e-01" cType="1" res="1.9719677045941353e-02" rms="2.7602112293243408e-01" purity="7.7369266748428345e-01" nType="0">
          <Node pos="l" depth="2" NCoef="0" IVar="-1" Cut="0.0000000000000000e+00" cType="1" res="3.8122661411762238e-02" rms="2.2616603970527649e-01" purity="8.8005954027175903e-01" nType="-99"/>
          <Node pos="r" depth="2" NCoef="0" IVar="-1" Cut="0.0000000000000000e+00" cType="1" res="4.7025978565216064e-03" rms="2.8499424457550049e-01" purity="7.4961882829666138e-01" nType="-99"/>
        </Node>
        <Node pos="r" depth="1" NCoef="0" IVar="3" Cut="3.7212654948234558e-01" cType="1" res="-2.2718759253621101e-02" rms="2.3042185604572296e-01" purity="1.0284530371427536e-01" nType="0">
          <Node pos="l" depth="2" NCoef="0" IVar="-1" Cut="0.0000000000000000e+00" cType="1" res="-1.1351737193763256e-02" rms="2.3033589124679565e-01" purity="1.0684332251548767e-01" nType="-99"/>
          <Node pos="r" depth="2" NCoef="0" IVar="-1" Cut="0.0000000000000000e+00" cType="1" res="-5.6320864707231522e-02" rms="2.1248576045036316e-01" purity="4.3251644819974899e-02" nType="-99"/>
        </Node>
      </Node>
    </BinaryTree>
    <BinaryTree type="DecisionTree" boostWeight="1.0000000000000000e+00" itree="38">
      <Node pos="s" depth="0" NCoef="0" IVar="5" Cut="1.8258979916572571e-01" cType="1" res="1.1949266772717237e-03" rms="2.6084145903587341e-01" purity="5.0471228361129761e-01" nType="0">
        <Node pos="l" depth="1" NCoef="0" IVar="4" Cut="1.2531499378383160e-02" cType="1" res="-1.8617292866110802e-02" rms="2.5431272387504578e-01" purity="1.0944415628910065e-01" nType="0">
          <Node pos="l" depth="2" NCoef="0" IVar="-1" Cut="0.0000000000000000e+00" cType="1" res="-2.4349771440029144e-02" rms="2.8756713867187500e-01" purity="1.5495251119136810e-01" nType="-99"/>
          <Node pos="r" depth="2" NCoef="0" IVar="-1" Cut="0.0000000000000000e+00" cType="1" res="-5.3593092598021030e-03" rms="2.4169038236141205e-01" purity="9.4852209091186523e-02" nType="-99"/>
        </Node>
        <Node pos="r" depth="1" NCoef="0" IVar="2" Cut="6.0193830728530884e-01" cType="1" res="2.1257273852825165e-02" rms="2.6578950881958008e-01" purity="9.0497058629989624e-01" nType="0">
          <Node pos="l" depth="2" NCoef="0" IVar="-1" Cut="0.0000000000000000e+00" cType="1" res="1.5706701204180717e-02" rms="2.5448992848396301e-01" purity="9.1512793302536011e-01" nType="-99"/>
          <Node pos="r" depth="2" NCoef="0" IVar="-1" Cut="0.0000000000000000e+00" cType="1" res="-1.3641605153679848e-02" rms="3.4575107693672180e-01" purity="8.1513005495071411e-01" nType="-99"/>
        </Node>
      </Node>
    </BinaryTree>
    <BinaryTree type="DecisionTree" boostWeight="1.0000000000000000e+00" itree="39">
      <Node pos="s" depth="0" NCoef="0" IVar="1" Cut="1.4285714924335480e-01" cType="1" res="-1.1831155279651284e-03" rms="2.5813588500022888e-01" purity="4.9834093451499939e-01" nType="0">
        <Node pos="l" depth="1" NCoef="0" IVar="0" Cut="6.6041380167007446e-01" cType="1" res="1.9355233758687973e-02" rms="2.7056747674942017e-01" purity="8.3807271718978882e-01" nType="0">
          <Node pos="l" depth="2" NCoef="0" IVar="-1" Cut="0.0000000000000000e+00" cType="1" res="4.0824366733431816e-03" rms="2.8299319744110107e-01" purity="8.1380796432495117e-01" nType="-99"/>
          <Node pos="r" depth="2" NCoef="0" IVar="-1" Cut="0.0000000000000000e+00" cType="1" res="3.7258490920066833e-02" rms="2.1805004775524139e-01" purity="9.2090940475463867e-01" nType="-99"/>
        </Node>
        <Node pos="r" depth="1" NCoef="0" IVar="3" Cut="3.9447867870330811e-01" cType="1" res="-2.3244431242346764e-02" rms="2.4214524030685425e-01" purity="1.3341721892356873e-01" nType="0">
          <Node pos="l" depth="2" NCoef="0" IVar="-1" Cut="0.0000000000000000e+00" cType="1" res="-1.0852088220417500e-02" rms="2.3908963799476624e-01" purity="1.3544915616512299e-01" nType="-99"/>
          <Node pos="r" depth="2" NCoef="0" IVar="-1" Cut="0.0000000000000000e+00" cType="1" res="-4.6433866024017334e-02" rms="2.6532670855522156e-01" purity="1.0833381116390228e-01" nType="-99"/>
        </Node>
      </Node>
    </BinaryTree>
    <BinaryTree type="DecisionTree" boostWeight="1.0000000000000000e+00" itree="40">
      <Node pos="s" depth="0" NCoef="0" IVar="2" Cut="4.7619048506021500e-02" cType="1" res="-4.5974517706781626e-04" rms="2.5976616144180298e-01" purity="5.0308758020401001e-01" nType="0">
        <Node pos="l" depth="1" NCoef="0" IVar="4" Cut="1.0710489936172962e-02" cType="1" res="3.2141990959644318e-02" rms="1.7116142809391022e-01" purity="9.4987678527832031e-01" nType="0">
          <Node pos="l" depth="2" NCoef="0" IVar="-1" Cut="0.0000000000000000e+00" cType="1" res="2.0776001736521721e-02" rms="1.6586413979530334e-01" purity="9.6266967058181763e-01" nType="-99"/>
          <Node pos="r" depth="2" NCoef="0" IVar="-1" Cut="0.0000000000000000e+00" cType="1" res="3.9092339575290680e-02" rms="1.8044619262218475e-01" purity="9.1880601644515991e-01" nType="-99"/>
        </Node>
        <Node pos="r" depth="1" NCoef="0" IVar="3" Cut="4.8030096292495728e-01" cType="1" res="-1.0585878044366837e-02" rms="2.8090074658393860e-01" purity="3.6431443691253662e-01" nType="0">
          <Node pos="l" depth="2" NCoef="0" IVar="-1" Cut="0.0000000000000000e+00" cType="1" res="-2.2491572890430689e-03" rms="2.6993495225906372e-01" purity="3.2755509018898010e-01" nType="-99"/>
          <Node pos="r" depth="2" NCoef="0" IVar="-1" Cut="0.0000000000000000e+00" cType="1" res="-2.4765482172369957e-02" rms="3.4560874104499817e-01" purity="6.2649399042129517e-01" nType="-99"/>
        </Node>
      </Node>
    </BinaryTree>
    <BinaryTree type="DecisionTree" boostWeight="1.0000000000000000e+00" itree="41">
      <Node pos="s" depth="0" NCoef="0" IVar="1" Cut="3.3333334326744080e-01" cType="1" res="2.1207306999713182e-03" rms="2.6100635528564453e-01" purity="5.0428622961044312e-01" nType="0">
        <Node pos="l" depth="1" NCoef="0" IVar="0" Cut="-6.5966385602951050e-01" cType="1" res="1.2220424599945545e-02" rms="2.7751478552818298e-01" purity="6.3431096076965332e-01" nType="0">
          <Node pos="l" depth="2" NCoef="0" IVar="-1" Cut="0.0000000000000000e+00" cType="1" res="2.6074981316924095e-02" rms="2.5449481606483459e-01" purity="7.1471107006072998e-01" nType="-99"/>
          <Node pos="r" depth="2" NCoef="0" IVar="-1" Cut="0.0000000000000000e+00" cType="1" res="1.0922043584287167e-03" rms="2.8333121538162231e-01" purity="6.0991758108139038e-01" nType="-99"/>
        </Node>
        <Node pos="r" depth="1" NCoef="0" IVar="1" Cut="6.5080094337463379e-01" cType="1" res="-3.2864801585674286e-02" rms="1.8908040225505829e-01" purity="5.3878068923950195e-02" nType="0">
          <Node pos="l" depth="2" NCoef="0" IVar="-1" Cut="0.0000000000000000e+00" cType="1" res="-2.0867453888058662e-02" rms="1.9356292486190796e-01" purity="5.9860453009605408e-02" nType="-99"/>
          <Node pos="r" depth="2" NCoef="0" IVar="-1" Cut="0.0000000000000000e+00" cType="1" res="-5.7086542248725891e-02" rms="1.3744637370109558e-01" purity="9.0597523376345634e-03" nType="-99"/>
        </Node>
      </Node>
    </BinaryTree>
    <BinaryTree type="DecisionTree" boostWeight="1.0000000000000000e+00" itree="42">
      <Node pos="s" depth="0" NCoef="0" IVar="2" Cut="9.5238097012042999e-02" cType="1" res="1.5311161987483501e-03" rms="2.5870949029922485e-01" purity="4.9891933798789978e-01" nType="0">
        <Node pos="l" depth="1" NCoef="0" IVar="4" Cut="1.1141229420900345e-02" cType="1" res="2.5078661739826202e-02" rms="2.1989355981349945e-01" purity="9.1166996955871582e-01" nType="0">
          <Node pos="l" depth="2" NCoef="0" IVar="-1" Cut="0.0000000000000000e+00" cType="1" res="7.8680636361241341e-03" rms="2.0265948772430420e-01" purity="9.3915826082229614e-01" nType="-99"/>
          <Node pos="r" depth="2" NCoef="0" IVar="-1" Cut="0.0000000000000000e+00" cType="1" res="3.3517889678478241e-02" rms="2.4911859631538391e-01" purity="8.5319691896438599e-01" nType="-99"/>
        </Node>
        <Node pos="r" depth="1" NCoef="0" IVar="3" Cut="4.0213100612163544e-02" cType="1" res="-9.3567976728081703e-03" rms="2.7412679791450500e-01" purity="3.0807173252105713e-01" nType="0">
          <Node pos="l" depth="2" NCoef="0" IVar="-1" Cut="0.0000000000000000e+00" cType="1" res="-4.7851756215095520e-02" rms="1.9631908833980560e-01" purity="7.4463747441768646e-02" nType="-99"/>
          <Node pos="r" depth="2" NCoef="0" IVar="-1" Cut="0.0000000000000000e+00" cType="1" res="-2.5030153337866068e-03" rms="2.7974998950958252e-01" purity="3.2971307635307312e-01" nType="-99"/>
        </Node>
      </Node>
    </BinaryTree>
    <BinaryTree type="DecisionTree" boostWeight="1.0000000000000000e+00" itree="43">
      <Node pos="s" depth="0" NCoef="0" IVar="5" Cut="3.4280261397361755e-01" cType="1" res="3.6033769720233977e-04" rms="2.5751578807830811e-01" purity="4.9797481298446655e-01" nType="0">
        <Node pos="l" depth="1" NCoef="0" IVar="1" Cut="4.7619048506021500e-02" cType="1" res="-7.9292915761470795e-03" rms="2.7840894460678101e-01" purity="3.7356138229370117e-01" nType="0">
          <Node pos="l" depth="2" NCoef="0" IVar="-1" Cut="0.0000000000000000e+00" cType="1" res="1.8789937719702721e-02" rms="2.6662650704383850e-01" purity="9.0973633527755737e-01" nType="-99"/>
          <Node pos="r" depth="2" NCoef="0" IVar="-1" Cut="0.0000000000000000e+00" cType="1" res="-7.7767185866832733e-03" rms="2.7961784601211548e-01" purity="2.9425546526908875e-01" nType="-99"/>
        </Node>
        <Node pos="r" depth="1" NCoef="0" IVar="3" Cut="5.3595787286758423e-01" cType="1" res="3.2282598316669464e-02" rms="1.4802689850330353e-01" purity="9.7707456350326538e-01" nType="0">
          <Node pos="l" depth="2" NCoef="0" IVar="-1" Cut="0.0000000000000000e+00" cType="1" res="3.6078751087188721e-02" rms="1.3188979029655457e-01" purity="9.8215192556381226e-01" nType="-99"/>
          <Node pos="r" depth="2" NCoef="0" IVar="-1" Cut="0.0000000000000000e+00" cType="1" res="8.6767263710498810e-03" rms="2.2114425897598267e-01" purity="9.4610291719436646e-01" nType="-99"/>
        </Node>
      </Node>
    </BinaryTree>
    <BinaryTree type="DecisionTree" boostWeight="1.0000000000000000e+00" itree="44">
      <Node pos="s" depth="0" NCoef="0" IVar="1" Cut="3.8095238804817200e-01" cType="1" res="3.2820184715092182e-03" rms="2.5601363182067871e-01" purity="5.0527238845825195e-01" nType="0">
        <Node pos="l" depth="1" NCoef="0" IVar="3" Cut="4.5689809322357178e-01" cType="1" res="1.0601693764328957e-02" rms="2.6795420050621033e-01" purity="6.0128837823867798e-01" nType="0">
          <Node pos="l" depth="2" NCoef="0" IVar="-1" Cut="0.0000000000000000e+00" cType="1" res="1.2197548523545265e-02" rms="2.5872501730918884e-01" purity="5.7641202211380005e-01" nType="-99"/>
          <Node pos="r" depth="2" NCoef="0" IVar="-1" Cut="0.0000000000000000e+00" cType="1" res="-1.5008982270956039e-02" rms="3.0067947506904602e-01" purity="7.0656478404998779e-01" nType="-99"/>
        </Node>
        <Node pos="r" depth="1" NCoef="0" IVar="1" Cut="6.1679250001907349e-01" cType="1" res="-3.1856387853622437e-02" rms="1.8443587422370911e-01" purity="4.4343885034322739e-02" nType="0">
          <Node pos="l" depth="2" NCoef="0" IVar="-1" Cut="0.0000000000000000e+00" cType="1" res="-1.8216712400317192e-02" rms="1.8959426879882812e-01" purity="5.0712082535028458e-02" nType="-99"/>
          <Node pos="r" depth="2" NCoef="0" IVar="-1" Cut="0.0000000000000000e+00" cType="1" res="-5.6401632726192474e-02" rms="1.5338057279586792e-01" purity="1.9341416656970978e-02" nType="-99"/>
        </Node>
      </Node>
    </BinaryTree>
    <BinaryTree type="DecisionTree" boostWeight="1.0000000000000000e+00" itree="45">
      <Node pos="s" depth="0" NCoef="0" IVar="1" Cut="9.5238097012042999e-02" cType="1" res="-1.1976740788668394e-03" rms="2.5936764478683472e-01" purity="5.0057625770568848e-01" nType="0">
        <Node pos="l" depth="1" NCoef="0" IVar="2" Cut="3.3333334326744080e-01" cType="1" res="1.6296530142426491e-02" rms="2.4650724232196808e-01" purity="8.9219725131988525e-01" nType="0">
          <Node pos="l" depth="2" NCoef="0" IVar="-1" Cut="0.0000000000000000e+00" cType="1" res="3.4637514036148787e-03" rms="2.3241013288497925e-01" purity="9.0565866231918335e-01" nType="-99"/>
          <Node pos="r" depth="2" NCoef="0" IVar="-1" Cut="0.0000000000000000e+00" cType="1" res="2.7415119111537933e-02" rms="2.9040461778640747e-01" purity="8.4001004695892334e-01" nType="-99"/>
        </Node>
        <Node pos="r" depth="1" NCoef="0" IVar="3" Cut="4.1399443149566650e-01" cType="1" res="-1.3769335113465786e-02" rms="2.6752337813377380e-01" purity="2.1915017068386078e-01" nType="0">
          <Node pos="l" depth="2" NCoef="0" IVar="-1" Cut="0.0000000000000000e+00" cType="1" res="-4.4978163205087185e-03" rms="2.6075381040573120e-01" purity="2.0986135303974152e-01" nType="-99"/>
          <Node pos="r" depth="2" NCoef="0" IVar="-1" Cut="0.0000000000000000e+00" cType="1" res="-3.2916922122240067e-02" rms="3.2034674286842346e-01" purity="3.1218013167381287e-01" nType="-99"/>
        </Node>
      </Node>
    </BinaryTree>
    <BinaryTree type="DecisionTree" boostWeight="1.0000000000000000e+00" itree="46">
      <Node pos="s" depth="0" NCoef="0" IVar="5" Cut="1.1577574163675308e-01" cType="1" res="1.5668415289837867e-04" rms="2.5382179021835327e-01" purity="5.0207901000976562e-01" nType="0">
        <Node pos="l" depth="1" NCoef="0" IVar="2" Cut="3.5099533200263977e-01" cType="1" res="-1.9242487847805023e-02" rms="1.7450824379920959e-01" purity="3.3840637654066086e-02" nType="0">
          <Node pos="l" depth="2" NCoef="0" IVar="-1" Cut="0.0000000000000000e+00" cType="1" res="-1.5514993574470282e-03" rms="2.3545609414577484e-01" purity="6.3471101224422455e-02" nType="-99"/>
          <Node pos="r" depth="2" NCoef="0" IVar="-1" Cut="0.0000000000000000e+00" cType="1" res="-3.8451116532087326e-02" rms="1.0711889714002609e-01" purity="1.1802117340266705e-02" nType="-99"/>
        </Node>
        <Node pos="r" depth="1" NCoef="0" IVar="3" Cut="5.4145401716232300e-01" cType="1" res="1.2158125638961792e-02" rms="2.9166063666343689e-01" purity="7.9175823926925659e-01" nType="0">
          <Node pos="l" depth="2" NCoef="0" IVar="-1" Cut="0.0000000000000000e+00" cType="1" res="9.3483896926045418e-03" rms="2.8843891620635986e-01" purity="7.8654116392135620e-01" nType="-99"/>
          <Node pos="r" depth="2" NCoef="0" IVar="-1" Cut="0.0000000000000000e+00" cType="1" res="-1.1381433345377445e-02" rms="3.0635792016983032e-01" purity="8.2010304927825928e-01" nType="-99"/>
        </Node>
      </Node>
    </BinaryTree>
    <BinaryTree type="DecisionTree" boostWeight="1.0000000000000000e+00" itree="47">
      <Node pos="s" depth="0" NCoef="0" IVar="5" Cut="3.1711861491203308e-01" cType="1" res="-3.6571556702256203e-03" rms="2.6075145602226257e-01" purity="5.0100904703140259e-01" nType="0">
        <Node pos="l" depth="1" NCoef="0" IVar="4" Cut="6.0683754272758961e-03" cType="1" res="-1.1731686070561409e-02" rms="2.8341409564018250e-01" purity="3.4615650773048401e-01" nType="0">
          <Node pos="l" depth="2" NCoef="0" IVar="-1" Cut="0.0000000000000000e+00" cType="1" res="-2.7190882712602615e-02" rms="3.8126361370086670e-01" purity="6.4851933717727661e-01" nType="-99"/>
          <Node pos="r" depth="2" NCoef="0" IVar="-1" Cut="0.0000000000000000e+00" cType="1" res="-4.1534961201250553e-03" rms="2.7286708354949951e-01" purity="3.2011270523071289e-01" nType="-99"/>
        </Node>
        <Node pos="r" depth="1" NCoef="0" IVar="2" Cut="5.4207426309585571e-01" cType="1" res="2.0691342651844025e-02" rms="1.7324675619602203e-01" purity="9.6796220541000366e-01" nType="0">
          <Node pos="l" depth="2" NCoef="0" IVar="-1" Cut="0.0000000000000000e+00" cType="1" res="2.6812713593244553e-02" rms="1.5213485062122345e-01" purity="9.7568053007125854e-01" nType="-99"/>
          <Node pos="r" depth="2" NCoef="0" IVar="-1" Cut="0.0000000000000000e+00" cType="1" res="-6.1059175059199333e-03" rms="2.8947025537490845e-01" purity="9.0640604496002197e-01" nType="-99"/>
        </Node>
      </Node>
    </BinaryTree>
    <BinaryTree type="DecisionTree" boostWeight="1.0000000000000000e+00" itree="48">
      <Node pos="s" depth="0" NCoef="0" IVar="1" Cut="5.7142859697341919e-01" cType="1" res="-8.7615661323070526e-04" rms="2.5986143946647644e-01" purity="5.0128483772277832e-01" nType="0">
        <Node pos="l" depth="1" NCoef="0" IVar="0" Cut="7.8001606464385986e-01" cType="1" res="2.4490305222570896e-03" rms="2.6458242535591125e-01" purity="5.2807158231735229e-01" nType="0">
          <Node pos="l" depth="2" NCoef="0" IVar="-1" Cut="0.0000000000000000e+00" cType="1" res="-3.1868400983512402e-03" rms="2.6915970444679260e-01" purity="5.1462233066558838e-01" nType="-99"/>
          <Node pos="r" depth="2" NCoef="0" IVar="-1" Cut="0.0000000000000000e+00" cType="1" res="2.3036699742078781e-02" rms="2.4138595163822174e-01" purity="5.8554112911224365e-01" nType="-99"/>
        </Node>
        <Node pos="r" depth="1" NCoef="0" IVar="0" Cut="-5.9082280844449997e-02" cType="1" res="-6.1204418540000916e-02" rms="1.3699735701084137e-01" purity="1.5297312289476395e-02" nType="0">
          <Node pos="l" depth="2" NCoef="0" IVar="-1" Cut="0.0000000000000000e+00" cType="1" res="-4.8837237060070038e-02" rms="1.4263676106929779e-01" purity="1.8522534519433975e-02" nType="-99"/>
          <Node pos="r" depth="2" NCoef="0" IVar="-1" Cut="0.0000000000000000e+00" cType="1" res="-5.6572038680315018e-02" rms="1.3094244897365570e-01" purity="1.2129303999245167e-02" nType="-99"/>
        </Node>
      </Node>
    </BinaryTree>
    <BinaryTree type="DecisionTree" boostWeight="1.0000000000000000e+00" itree="49">
      <Node pos="s" depth="0" NCoef="0" IVar="5" Cut="3.8420936465263367e-01" cType="1" res="-6.0988427139818668e-04" rms="2.6071757078170776e-01" purity="5.0037801265716553e-01" nType="0">
        <Node pos="l" depth="1" NCoef="0" IVar="4" Cut="5.9287617914378643e-03" cType="1" res="-6.1727948486804962e-03" rms="2.7819392085075378e-01" purity="4.0968933701515198e-01" nType="0">
          <Node pos="l" depth="2" NCoef="0" IVar="-1" Cut="0.0000000000000000e+00" cType="1" res="-2.5674100965261459e-02" rms="3.4947288036346436e-01" purity="7.2673183679580688e-01" nType="-99"/>
          <Node pos="r" depth="2" NCoef="0" IVar="-1" Cut="0.0000000000000000e+00" cType="1" res="-9.9307473283261061e-04" rms="2.6959705352783203e-01" purity="3.7790223956108093e-01" nType="-99"/>
        </Node>
        <Node pos="r" depth="1" NCoef="0" IVar="2" Cut="8.3396039903163910e-02" cType="1" res="2.8963431715965271e-02" rms="1.2986887991428375e-01" purity="9.8249351978302002e-01" nType="0">
          <Node pos="l" depth="2" NCoef="0" IVar="-1" Cut="0.0000000000000000e+00" cType="1" res="3.5021197050809860e-02" rms="1.0671702772378922e-01" purity="9.8819577693939209e-01" nType="-99"/>
          <Node pos="r" depth="2" NCoef="0" IVar="-1" Cut="0.0000000000000000e+00" cType="1" res="3.0495967715978622e-02" rms="1.8586188554763794e-01" purity="9.6377217769622803e-01" nType="-99"/>
        </Node>
      </Node>
    </BinaryTree>
    <BinaryTree type="DecisionTree" boostWeight="1.0000000000000000e+00" itree="50">
      <Node pos="s" depth="0" NCoef="0" IVar="0" Cut="4.1981443762779236e-01" cType="1" res="8.4564572898671031e-04" rms="2.6109445095062256e-01" purity="5.0058621168136597e-01" nType="0">
        <Node pos="l" depth="1" NCoef="0" IVar="0" Cut="-5.4009544849395752e-01" cType="1" res="-8.4254946559667587e-03" rms="2.6631620526313782e-01" purity="4.8093765974044800e-01" nType="0">
          <Node pos="l" depth="2" NCoef="0" IVar="-1" Cut="0.0000000000000000e+00" cType="1" res="7.8648095950484276e-03" rms="2.4482081830501556e-01" purity="5.3019386529922485e-01" nType="-99"/>
          <Node pos="r" depth="2" NCoef="0" IVar="-1" Cut="0.0000000000000000e+00" cType="1" res="-1.4429823495447636e-02" rms="2.8058522939682007e-01" purity="4.4350993633270264e-01" nType="-99"/>
        </Node>
        <Node pos="r" depth="1" NCoef="0" IVar="1" Cut="2.8571429848670959e-01" cType="1" res="2.0269751548767090e-02" rms="2.4868246912956238e-01" purity="5.4175215959548950e-01" nType="0">
          <Node pos="l" depth="2" NCoef="0" IVar="-1" Cut="0.0000000000000000e+00" cType="1" res="2.3347858339548111e-02" rms="2.6766857504844666e-01" purity="7.4755233526229858e-01" nType="-99"/>
          <Node pos="r" depth="2" NCoef="0" IVar="-1" Cut="0.0000000000000000e+00" cType="1" res="-2.0535139366984367e-02" rms="1.9051012396812439e-01" purity="6.4401097595691681e-02" nType="-99"/>
        </Node>
      </Node>
    </BinaryTree>
    <BinaryTree type="DecisionTree" boostWeight="1.0000000000000000e+00" itree="51">
      <Node pos="s" depth="0" NCoef="0" IVar="2" Cut="8.7748833000659943e-02" cType="1" res="-4.9627944827079773e-04" rms="2.5719904899597168e-01" purity="4.9754700064659119e-01" nType="0">
        <Node pos="l" depth="1" NCoef="0" IVar="4" Cut="1.0710489936172962e-02" cType="1" res="2.2375231608748436e-02" rms="2.0960050821304321e-01" purity="9.2307955026626587e-01" nType="0">
          <Node pos="l" depth="2" NCoef="0" IVar="-1" Cut="0.0000000000000000e+00" cType="1" res="5.8789635077118874e-03" rms="1.9478176534175873e-01" purity="9.4606631994247437e-01" nType="-99"/>
          <Node pos="r" depth="2" NCoef="0" IVar="-1" Cut="0.0000000000000000e+00" cType="1" res="3.4917738288640976e-02" rms="2.3311288654804230e-01" purity="8.7664210796356201e-01" nType="-99"/>
        </Node>
        <Node pos="r" depth="1" NCoef="0" IVar="2" Cut="6.0380804538726807e-01" cType="1" res="-1.0453388094902039e-02" rms="2.7476808428764343e-01" purity="3.1229144334793091e-01" nType="0">
          <Node pos="l" depth="2" NCoef="0" IVar="-1" Cut="0.0000000000000000e+00" cType="1" res="-3.2777057494968176e-03" rms="2.6742088794708252e-01" purity="2.8251835703849792e-01" nType="-99"/>
          <Node pos="r" depth="2" NCoef="0" IVar="-1" Cut="0.0000000000000000e+00" cType="1" res="-2.2358482703566551e-02" rms="3.1911182403564453e-01" purity="5.1921558380126953e-01" nType="-99"/>
        </Node>
      </Node>
    </BinaryTree>
    <BinaryTree type="DecisionTree" boostWeight="1.0000000000000000e+00" itree="52">
      <Node pos="s" depth="0" NCoef="0" IVar="3" Cut="4.5689809322357178e-01" cType="1" res="1.3881433987990022e-03" rms="2.5918108224868774e-01" purity="5.0076490640640259e-01" nType="0">
        <Node pos="l" depth="1" NCoef="0" IVar="1" Cut="4.7619047760963440e-01" cType="1" res="8.1778848543763161e-03" rms="2.4665300548076630e-01" purity="4.6495518088340759e-01" nType="0">
          <Node pos="l" depth="2" NCoef="0" IVar="-1" Cut="0.0000000000000000e+00" cType="1" res="9.5288222655653954e-03" rms="2.5597962737083435e-01" purity="5.2555805444717407e-01" nType="-99"/>
          <Node pos="r" depth="2" NCoef="0" IVar="-1" Cut="0.0000000000000000e+00" cType="1" res="-3.7255298346281052e-02" rms="1.5653002262115479e-01" purity="2.7168191969394684e-02" nType="-99"/>
        </Node>
        <Node pos="r" depth="1" NCoef="0" IVar="1" Cut="1.0536333173513412e-01" cType="1" res="-3.4540262073278427e-02" rms="3.1491813063621521e-01" purity="6.9025480747222900e-01" nType="0">
          <Node pos="l" depth="2" NCoef="0" IVar="-1" Cut="0.0000000000000000e+00" cType="1" res="-5.1694703288376331e-03" rms="3.1022664904594421e-01" purity="8.2889878749847412e-01" nType="-99"/>
          <Node pos="r" depth="2" NCoef="0" IVar="-1" Cut="0.0000000000000000e+00" cType="1" res="-4.9349442124366760e-02" rms="3.1634038686752319e-01" purity="2.3216804862022400e-01" nType="-99"/>
        </Node>
      </Node>
    </BinaryTree>
    <BinaryTree type="DecisionTree" boostWeight="1.0000000000000000e+00" itree="53">
      <Node pos="s" depth="0" NCoef="0" IVar="2" Cut="4.7619048506021500e-02" cType="1" res="9.8393566440790892e-04" rms="2.5543323159217834e-01" purity="5.0078099966049194e-01" nType="0">
        <Node pos="l" depth="1" NCoef="0" IVar="4" Cut="5.8091995306313038e-03" cType="1" res="2.3970976471900940e-02" rms="1.6655695438385010e-01" purity="9.5343071222305298e-01" nType="0">
          <Node pos="l" depth="2" NCoef="0" IVar="-1" Cut="0.0000000000000000e+00" cType="1" res="-5.8706719428300858e-03" rms="1.9734096527099609e-01" purity="9.4823068380355835e-01" nType="-99"/>
          <Node pos="r" depth="2" NCoef="0" IVar="-1" Cut="0.0000000000000000e+00" cType="1" res="3.3915374428033829e-02" rms="1.5254187583923340e-01" purity="9.5531755685806274e-01" nType="-99"/>
        </Node>
        <Node pos="r" depth="1" NCoef="0" IVar="3" Cut="5.6762838363647461e-01" cType="1" res="-6.0471058823168278e-03" rms="2.7659842371940613e-01" purity="3.6232909560203552e-01" nType="0">
          <Node pos="l" depth="2" NCoef="0" IVar="-1" Cut="0.0000000000000000e+00" cType="1" res="-1.0895814048126340e-03" rms="2.6916965842247009e-01" purity="3.3853852748870850e-01" nType="-99"/>
          <Node pos="r" depth="2" NCoef="0" IVar="-1" Cut="0.0000000000000000e+00" cType="1" res="-2.6719352230429649e-02" rms="3.5523027181625366e-01" purity="6.7307645082473755e-01" nType="-99"/>
        </Node>
      </Node>
    </BinaryTree>
    <BinaryTree type="DecisionTree" boostWeight="1.0000000000000000e+00" itree="54">
      <Node pos="s" depth="0" NCoef="0" IVar="5" Cut="3.0771940946578979e-01" cType="1" res="7.3836749652400613e-04" rms="2.5676250457763672e-01" purity="5.0411534309387207e-01" nType="0">
        <Node pos="l" depth="1" NCoef="0" IVar="4" Cut="1.2402990832924843e-02" cType="1" res="-6.5456880256533623e-03" rms="2.8278094530105591e-01" purity="3.3553066849708557e-01" nType="0">
          <Node pos="l" depth="2" NCoef="0" IVar="-1" Cut="0.0000000000000000e+00" cType="1" res="-1.1736406944692135e-02" rms="3.1908646225929260e-01" purity="5.3507143259048462e-01" nType="-99"/>
          <Node pos="r" depth="2" NCoef="0" IVar="-1" Cut="0.0000000000000000e+00" cType="1" res="3.1906173098832369e-03" rms="2.5834730267524719e-01" purity="2.1794264018535614e-01" nType="-99"/>
        </Node>
        <Node pos="r" depth="1" NCoef="0" IVar="0" Cut="-5.4001915454864502e-01" cType="1" res="2.0941218361258507e-02" rms="1.6259163618087769e-01" purity="9.7169685363769531e-01" nType="0">
          <Node pos="l" depth="2" NCoef="0" IVar="-1" Cut="0.0000000000000000e+00" cType="1" res="3.5252958536148071e-02" rms="1.2676388025283813e-01" purity="9.8296189308166504e-01" nType="-99"/>
          <Node pos="r" depth="2" NCoef="0" IVar="-1" Cut="0.0000000000000000e+00" cType="1" res="1.7581379041075706e-02" rms="1.7589239776134491e-01" purity="9.6672129631042480e-01" nType="-99"/>
        </Node>
      </Node>
    </BinaryTree>
    <BinaryTree type="DecisionTree" boostWeight="1.0000000000000000e+00" itree="55">
      <Node pos="s" depth="0" NCoef="0" IVar="0" Cut="5.4002684354782104e-01" cType="1" res="-6.6808855626732111e-04" rms="2.5550767779350281e-01" purity="5.0144606828689575e-01" nType="0">
        <Node pos="l" depth="1" NCoef="0" IVar="0" Cut="-4.0282410383224487e-01" cType="1" res="-8.6077246814966202e-03" rms="2.6267898082733154e-01" purity="4.8367232084274292e-01" nType="0">
          <Node pos="l" depth="2" NCoef="0" IVar="-1" Cut="0.0000000000000000e+00" cType="1" res="5.9169312007725239e-03" rms="2.4330741167068481e-01" purity="5.2392739057540894e-01" nType="-99"/>
          <Node pos="r" depth="2" NCoef="0" IVar="-1" Cut="0.0000000000000000e+00" cType="1" res="-1.5198781155049801e-02" rms="2.7845165133476257e-01" purity="4.4640991091728210e-01" nType="-99"/>
        </Node>
        <Node pos="r" depth="1" NCoef="0" IVar="1" Cut="2.3809523880481720e-01" cType="1" res="1.9383128732442856e-02" rms="2.3524050414562225e-01" purity="5.4633289575576782e-01" nType="0">
          <Node pos="l" depth="2" NCoef="0" IVar="-1" Cut="0.0000000000000000e+00" cType="1" res="2.5273185223340988e-02" rms="2.4376253783702850e-01" purity="8.1702405214309692e-01" nType="-99"/>
          <Node pos="r" depth="2" NCoef="0" IVar="-1" Cut="0.0000000000000000e+00" cType="1" res="-1.1801091954112053e-02" rms="2.1571321785449982e-01" purity="8.5355125367641449e-02" nType="-99"/>
        </Node>
      </Node>
    </BinaryTree>
    <BinaryTree type="DecisionTree" boostWeight="1.0000000000000000e+00" itree="56">
      <Node pos="s" depth="0" NCoef="0" IVar="2" Cut="4.2868502438068390e-02" cType="1" res="-1.6923653893172741e-03" rms="2.5778985023498535e-01" purity="5.0366932153701782e-01" nType="0">
        <Node pos="l" depth="1" NCoef="0" IVar="4" Cut="5.1746936514973640e-03" cType="1" res="1.9173813983798027e-02" rms="1.6923379898071289e-01" purity="9.5517438650131226e-01" nType="0">
          <Node pos="l" depth="2" NCoef="0" IVar="-1" Cut="0.0000000000000000e+00" cType="1" res="-1.7850857228040695e-02" rms="2.1685194969177246e-01" purity="9.4417542219161987e-01" nType="-99"/>
          <Node pos="r" depth="2" NCoef="0" IVar="-1" Cut="0.0000000000000000e+00" cType="1" res="3.0340844765305519e-02" rms="1.5332244336605072e-01" purity="9.5803391933441162e-01" nType="-99"/>
        </Node>
        <Node pos="r" depth="1" NCoef="0" IVar="3" Cut="6.1129212379455566e-01" cType="1" res="-7.7715851366519928e-03" rms="2.7804511785507202e-01" purity="3.7212634086608887e-01" nType="0">
          <Node pos="l" depth="2" NCoef="0" IVar="-1" Cut="0.0000000000000000e+00" cType="1" res="-2.7913346420973539e-03" rms="2.7245891094207764e-01" purity="3.5337173938751221e-01" nType="-99"/>
          <Node pos="r" depth="2" NCoef="0" IVar="-1" Cut="0.0000000000000000e+00" cType="1" res="-2.8061818331480026e-02" rms="3.5887998342514038e-01" purity="7.0506227016448975e-01" nType="-99"/>
        </Node>
      </Node>
    </BinaryTree>
    <BinaryTree type="DecisionTree" boostWeight="1.0000000000000000e+00" itree="57">
      <Node pos="s" depth="0" NCoef="0" IVar="1" Cut="4.7619047760963440e-01" cType="1" res="2.2674736101180315e-03" rms="2.5725191831588745e-01" purity="5.0532048940658569e-01" nType="0">
        <Node pos="l" depth="1" NCoef="0" IVar="0" Cut="-8.9990878105163574e-01" cType="1" res="6.0261427424848080e-03" rms="2.6487776637077332e-01" purity="5.5779731273651123e-01" nType="0">
          <Node pos="l" depth="2" NCoef="0" IVar="-1" Cut="0.0000000000000000e+00" cType="1" res="2.4458570405840874e-02" rms="2.3592111468315125e-01" purity="6.3791501522064209e-01" nType="-99"/>
          <Node pos="r" depth="2" NCoef="0" IVar="-1" Cut="0.0000000000000000e+00" cType="1" res="5.2455457625910640e-04" rms="2.6918575167655945e-01" purity="5.4406929016113281e-01" nType="-99"/>
        </Node>
        <Node pos="r" depth="1" NCoef="0" IVar="1" Cut="6.5082359313964844e-01" cType="1" res="-3.1453516334295273e-02" rms="1.7085953056812286e-01" purity="3.4523185342550278e-02" nType="0">
          <Node pos="l" depth="2" NCoef="0" IVar="-1" Cut="0.0000000000000000e+00" cType="1" res="-2.1146137267351151e-02" rms="1.7523533105850220e-01" purity="4.2024694383144379e-02" nType="-99"/>
          <Node pos="r" depth="2" NCoef="0" IVar="-1" Cut="0.0000000000000000e+00" cType="1" res="-5.2448619157075882e-02" rms="1.5405984222888947e-01" purity="1.4430843293666840e-02" nType="-99"/>
        </Node>
      </Node>
    </BinaryTree>
    <BinaryTree type="DecisionTree" boostWeight="1.0000000000000000e+00" itree="58">
      <Node pos="s" depth="0" NCoef="0" IVar="3" Cut="3.8095238804817200e-01" cType="1" res="4.9475126434117556e-04" rms="2.5972998142242432e-01" purity="5.0482571125030518e-01" nType="0">
        <Node pos="l" depth="1" NCoef="0" IVar="5" Cut="1.1577574163675308e-01" cType="1" res="7.4932645075023174e-03" rms="2.4721717834472656e-01" purity="4.6107444167137146e-01" nType="0">
          <Node pos="l" depth="2" NCoef="0" IVar="-1" Cut="0.0000000000000000e+00" cType="1" res="-9.6242669969797134e-03" rms="1.8114352226257324e-01" purity="3.7734761834144592e-02" nType="-99"/>
          <Node pos="r" depth="2" NCoef="0" IVar="-1" Cut="0.0000000000000000e+00" cType="1" res="1.0690115392208099e-02" rms="2.8769522905349731e-01" purity="7.9000991582870483e-01" nType="-99"/>
        </Node>
        <Node pos="r" depth="1" NCoef="0" IVar="1" Cut="5.8893259614706039e-02" cType="1" res="-2.3462561890482903e-02" rms="2.9737606644630432e-01" purity="6.5459519624710083e-01" nType="0">
          <Node pos="l" depth="2" NCoef="0" IVar="-1" Cut="0.0000000000000000e+00" cType="1" res="8.0955903977155685e-03" rms="2.7364197373390198e-01" purity="8.9000767469406128e-01" nType="-99"/>
          <Node pos="r" depth="2" NCoef="0" IVar="-1" Cut="0.0000000000000000e+00" cType="1" res="-2.4629764258861542e-02" rms="3.1197580695152283e-01" purity="4.6552774310112000e-01" nType="-99"/>
        </Node>
      </Node>
    </BinaryTree>
    <BinaryTree type="DecisionTree" boostWeight="1.0000000000000000e+00" itree="59">
      <Node pos="s" depth="0" NCoef="0" IVar="0" Cut="6.6002064943313599e-01" cType="1" res="1.9111918518319726e-03" rms="2.5510111451148987e-01" purity="5.0095981359481812e-01" nType="0">
        <Node pos="l" depth="1" NCoef="0" IVar="0" Cut="-5.2847039699554443e-01" cType="1" res="-4.5371861197054386e-03" rms="2.6052537560462952e-01" purity="4.8859563469886780e-01" nType="0">
          <Node pos="l" depth="2" NCoef="0" IVar="-1" Cut="0.0000000000000000e+00" cType="1" res="1.1606507003307343e-02" rms="2.3683758080005646e-01" purity="5.2625101804733276e-01" nType="-99"/>
          <Node pos="r" depth="2" NCoef="0" IVar="-1" Cut="0.0000000000000000e+00" cType="1" res="-1.1313655413687229e-02" rms="2.7369296550750732e-01" purity="4.6460872888565063e-01" nType="-99"/>
        </Node>
        <Node pos="r" depth="1" NCoef="0" IVar="1" Cut="2.4075441062450409e-01" cType="1" res="2.3049497976899147e-02" rms="2.3521272838115692e-01" purity="5.4149055480957031e-01" nType="0">
          <Node pos="l" depth="2" NCoef="0" IVar="-1" Cut="0.0000000000000000e+00" cType="1" res="2.7047831565141678e-02" rms="2.3850895464420319e-01" purity="8.1177401542663574e-01" nType="-99"/>
          <Node pos="r" depth="2" NCoef="0" IVar="-1" Cut="0.0000000000000000e+00" cType="1" res="-6.9378716871142387e-03" rms="2.2615154087543488e-01" purity="9.0634636580944061e-02" nType="-99"/>
        </Node>
      </Node>
    </BinaryTree>
    <BinaryTree type="DecisionTree" boostWeight="1.0000000000000000e+00" itree="60">
      <Node pos="s" depth="0" NCoef="0" IVar="2" Cut="5.7142859697341919e-01" cType="1" res="-9.7516353707760572e-04" rms="2.5721260905265808e-01" purity="5.0037854909896851e-01" nType="0">
        <Node pos="l" depth="1" NCoef="0" IVar="1" Cut="4.7619047760963440e-01" cType="1" res="3.2855719327926636e-03" rms="2.5117447972297668e-01" purity="5.0218141078948975e-01" nType="0">
          <Node pos="l" depth="2" NCoef="0" IVar="-1" Cut="0.0000000000000000e+00" cType="1" res="5.1458873786032200e-03" rms="2.6001483201980591e-01" purity="5.6193733215332031e-01" nType="-99"/>
          <Node pos="r" depth="2" NCoef="0" IVar="-1" Cut="0.0000000000000000e+00" cType="1" res="-3.4974023699760437e-02" rms="1.6066786646842957e-01" purity="2.8154669329524040e-02" nType="-99"/>
        </Node>
        <Node pos="r" depth="1" NCoef="0" IVar="1" Cut="1.0178644210100174e-01" cType="1" res="-3.3494446426630020e-02" rms="2.9730674624443054e-01" purity="4.8661845922470093e-01" nType="0">
          <Node pos="l" depth="2" NCoef="0" IVar="-1" Cut="0.0000000000000000e+00" cType="1" res="9.7898775711655617e-03" rms="2.9205897450447083e-01" purity="8.5853391885757446e-01" nType="-99"/>
          <Node pos="r" depth="2" NCoef="0" IVar="-1" Cut="0.0000000000000000e+00" cType="1" res="-3.2789267599582672e-02" rms="2.9605594277381897e-01" purity="2.6644054055213928e-01" nType="-99"/>
        </Node>
      </Node>
    </BinaryTree>
    <BinaryTree type="DecisionTree" boostWeight="1.0000000000000000e+00" itree="61">
      <Node pos="s" depth="0" NCoef="0" IVar="2" Cut="5.7142859697341919e-01" cType="1" res="6.8401318276301026e-04" rms="2.5913441181182861e-01" purity="5.0540655851364136e-01" nType="0">
        <Node pos="l" depth="1" NCoef="0" IVar="0" Cut="-6.5969932079315186e-01" cType="1" res="4.9772486090660095e-03" rms="2.5305011868476868e-01" purity="5.0681990385055542e-01" nType="0">
          <Node pos="l" depth="2" NCoef="0" IVar="-1" Cut="0.0000000000000000e+00" cType="1" res="1.9120834767818451e-02" rms="2.2517895698547363e-01" purity="5.5878531932830811e-01" nType="-99"/>
          <Node pos="r" depth="2" NCoef="0" IVar="-1" Cut="0.0000000000000000e+00" cType="1" res="-9.0782355982810259e-04" rms="2.6069474220275879e-01" purity="4.9085062742233276e-01" nType="-99"/>
        </Node>
        <Node pos="r" depth="1" NCoef="0" IVar="1" Cut="1.0187911987304688e-01" cType="1" res="-3.3220212906599045e-02" rms="3.0077442526817322e-01" purity="4.9424487352371216e-01" nType="0">
          <Node pos="l" depth="2" NCoef="0" IVar="-1" Cut="0.0000000000000000e+00" cType="1" res="4.6695726923644543e-03" rms="2.9529410600662231e-01" purity="8.6132222414016724e-01" nType="-99"/>
          <Node pos="r" depth="2" NCoef="0" IVar="-1" Cut="0.0000000000000000e+00" cType="1" res="-2.8993912041187286e-02" rms="3.0126872658729553e-01" purity="2.7571323513984680e-01" nType="-99"/>
        </Node>
      </Node>
    </BinaryTree>
    <BinaryTree type="DecisionTree" boostWeight="1.0000000000000000e+00" itree="62">
      <Node pos="s" depth="0" NCoef="0" IVar="3" Cut="6.1321622133255005e-01" cType="1" res="-4.2310840217396617e-04" rms="2.5298184156417847e-01" purity="4.9855759739875793e-01" nType="0">
        <Node pos="l" depth="1" NCoef="0" IVar="2" Cut="9.5238097012042999e-02" cType="1" res="2.9012428130954504e-03" rms="2.4761459231376648e-01" purity="4.7784250974655151e-01" nType="0">
          <Node pos="l" depth="2" NCoef="0" IVar="-1" Cut="0.0000000000000000e+00" cType="1" res="2.1016642451286316e-02" rms="1.9861389696598053e-01" purity="9.2071676254272461e-01" nType="-99"/>
          <Node pos="r" depth="2" NCoef="0" IVar="-1" Cut="0.0000000000000000e+00" cType="1" res="-3.0278174672275782e-03" rms="2.6441091299057007e-01" purity="2.9929420351982117e-01" nType="-99"/>
        </Node>
        <Node pos="r" depth="1" NCoef="0" IVar="1" Cut="5.2380993962287903e-02" cType="1" res="-4.8224639147520065e-02" rms="3.1652861833572388e-01" purity="7.9642349481582642e-01" nType="0">
